<?xml version="1.0"?>
<MethodSetup Method="MLP::MLP">
  <GeneralInfo>
    <Info name="TMVA Release" value="4.2.0 [262656]"/>
    <Info name="ROOT Release" value="6.02/08 [393736]"/>
    <Info name="Creator" value="aocampor"/>
    <Info name="Date" value="Sat May 16 19:17:32 2015"/>
    <Info name="Host" value="Linux DaMachine 3.16.0-34-generic #45-Ubuntu SMP Mon Mar 23 17:21:27 UTC 2015 x86_64 x86_64 x86_64 GNU/Linux"/>
    <Info name="Dir" value="/home/aocampor/GIT/Diabetic/train_tree"/>
    <Info name="Training events" value="6000"/>
    <Info name="TrainingTime" value="1.44780163e+02"/>
    <Info name="AnalysisType" value="Classification"/>
  </GeneralInfo>
  <Options>
    <Option name="NCycles" modified="Yes">600</Option>
    <Option name="HiddenLayers" modified="Yes">N+5</Option>
    <Option name="NeuronType" modified="Yes">tanh</Option>
    <Option name="RandomSeed" modified="No">1</Option>
    <Option name="EstimatorType" modified="No">MSE</Option>
    <Option name="NeuronInputType" modified="No">sum</Option>
    <Option name="V" modified="Yes">False</Option>
    <Option name="VerbosityLevel" modified="No">Default</Option>
    <Option name="VarTransform" modified="Yes">N</Option>
    <Option name="H" modified="Yes">True</Option>
    <Option name="CreateMVAPdfs" modified="No">False</Option>
    <Option name="IgnoreNegWeightsInTraining" modified="No">False</Option>
    <Option name="TrainingMethod" modified="No">BP</Option>
    <Option name="LearningRate" modified="No">2.000000e-02</Option>
    <Option name="DecayRate" modified="No">1.000000e-02</Option>
    <Option name="TestRate" modified="Yes">5</Option>
    <Option name="EpochMonitoring" modified="No">False</Option>
    <Option name="Sampling" modified="No">1.000000e+00</Option>
    <Option name="SamplingEpoch" modified="No">1.000000e+00</Option>
    <Option name="SamplingImportance" modified="No">1.000000e+00</Option>
    <Option name="SamplingTraining" modified="No">True</Option>
    <Option name="SamplingTesting" modified="No">False</Option>
    <Option name="ResetStep" modified="No">50</Option>
    <Option name="Tau" modified="No">3.000000e+00</Option>
    <Option name="BPMode" modified="No">sequential</Option>
    <Option name="BatchSize" modified="No">-1</Option>
    <Option name="ConvergenceImprove" modified="No">1.000000e-30</Option>
    <Option name="ConvergenceTests" modified="No">-1</Option>
    <Option name="UseRegulator" modified="Yes">False</Option>
    <Option name="UpdateLimit" modified="No">10000</Option>
    <Option name="CalculateErrors" modified="No">False</Option>
    <Option name="WeightRange" modified="No">1.000000e+00</Option>
  </Options>
  <Variables NVar="5">
    <Variable VarIndex="0" Expression="Red" Label="Red" Title="Red" Unit="" Internal="Red" Type="F" Min="0.00000000e+00" Max="2.55000000e+02"/>
    <Variable VarIndex="1" Expression="Green" Label="Green" Title="Expression 2" Unit="" Internal="Green" Type="F" Min="0.00000000e+00" Max="2.52000000e+02"/>
    <Variable VarIndex="2" Expression="Blue" Label="Blue" Title="Variable 3" Unit="units" Internal="Blue" Type="F" Min="0.00000000e+00" Max="2.33000000e+02"/>
    <Variable VarIndex="3" Expression="PixelX" Label="PixelX" Title="Variable 4" Unit="units" Internal="PixelX" Type="F" Min="3.60000000e+01" Max="5.48000000e+02"/>
    <Variable VarIndex="4" Expression="PixelY" Label="PixelY" Title="Variable 5" Unit="units" Internal="PixelY" Type="F" Min="0.00000000e+00" Max="3.88000000e+02"/>
  </Variables>
  <Spectators NSpec="0"/>
  <Classes NClass="2">
    <Class Name="Signal" Index="0"/>
    <Class Name="Background" Index="1"/>
  </Classes>
  <Transformations NTransformations="1">
    <Transform Name="Normalize">
      <Selection>
        <Input NInputs="5">
          <Input Type="Variable" Label="Red" Expression="Red"/>
          <Input Type="Variable" Label="Green" Expression="Green"/>
          <Input Type="Variable" Label="Blue" Expression="Blue"/>
          <Input Type="Variable" Label="PixelX" Expression="PixelX"/>
          <Input Type="Variable" Label="PixelY" Expression="PixelY"/>
        </Input>
        <Output NOutputs="5">
          <Output Type="Variable" Label="Red" Expression="Red"/>
          <Output Type="Variable" Label="Green" Expression="Green"/>
          <Output Type="Variable" Label="Blue" Expression="Blue"/>
          <Output Type="Variable" Label="PixelX" Expression="PixelX"/>
          <Output Type="Variable" Label="PixelY" Expression="PixelY"/>
        </Output>
      </Selection>
      <Class ClassIndex="0">
        <Ranges>
          <Range Index="0" Min="0.0000000000000000e+00" Max="2.2600000000000000e+02"/>
          <Range Index="1" Min="0.0000000000000000e+00" Max="2.2100000000000000e+02"/>
          <Range Index="2" Min="0.0000000000000000e+00" Max="1.5700000000000000e+02"/>
          <Range Index="3" Min="1.0100000000000000e+02" Max="4.1600000000000000e+02"/>
          <Range Index="4" Min="1.6000000000000000e+01" Max="3.3000000000000000e+02"/>
        </Ranges>
      </Class>
      <Class ClassIndex="1">
        <Ranges>
          <Range Index="0" Min="0.0000000000000000e+00" Max="2.5500000000000000e+02"/>
          <Range Index="1" Min="0.0000000000000000e+00" Max="2.5200000000000000e+02"/>
          <Range Index="2" Min="0.0000000000000000e+00" Max="2.3300000000000000e+02"/>
          <Range Index="3" Min="3.6000000000000000e+01" Max="5.4800000000000000e+02"/>
          <Range Index="4" Min="0.0000000000000000e+00" Max="3.8800000000000000e+02"/>
        </Ranges>
      </Class>
      <Class ClassIndex="2">
        <Ranges>
          <Range Index="0" Min="0.0000000000000000e+00" Max="2.5500000000000000e+02"/>
          <Range Index="1" Min="0.0000000000000000e+00" Max="2.5200000000000000e+02"/>
          <Range Index="2" Min="0.0000000000000000e+00" Max="2.3300000000000000e+02"/>
          <Range Index="3" Min="3.6000000000000000e+01" Max="5.4800000000000000e+02"/>
          <Range Index="4" Min="0.0000000000000000e+00" Max="3.8800000000000000e+02"/>
        </Ranges>
      </Class>
    </Transform>
  </Transformations>
  <MVAPdfs/>
  <Weights>
    <Layout NLayers="3">
      <Layer Index="0" NNeurons="6">
        <Neuron NSynapses="10">
          -3.3357474306240553e-01 6.6070478408691002e-01 1.8208913331583676e+00 3.5305466967317144e-02 -3.2475266431417502e+00 -3.0439511489237558e+00 1.7136498849984381e-03 1.5737520302087740e+00 -1.4644610026608442e+00 1.0941963709179148e+00 
        </Neuron>
        <Neuron NSynapses="10">
          -2.8530296195015397e+00 -6.5915111912997626e-01 -4.2619482597763303e-01 1.5293237912526494e+00 1.4647015400840671e+00 1.3002339505446552e+00 1.1156393591388747e-01 1.7416389302699249e+00 -3.6998764542587387e-01 3.5248467047652778e+00 
        </Neuron>
        <Neuron NSynapses="10">
          1.7188892027830704e+00 3.3373000390154178e-01 9.2294348960711836e-01 6.3733121572910079e-01 -8.1993679742332337e-01 -4.4336083751145844e-01 1.1122910404860739e-01 -6.0428274720491337e-01 -3.9986142254597787e+00 -5.1469958000270977e-01 
        </Neuron>
        <Neuron NSynapses="10">
          -2.0066108233829456e+00 3.1878223185127883e+00 7.9309981846948863e-01 -1.9309366869649691e+00 -1.9478237139302574e+00 -3.8006660785958118e-01 -3.0267596792742752e+00 2.0552488951037193e+00 -2.5982404339848695e+00 1.9176318729345554e+00 
        </Neuron>
        <Neuron NSynapses="10">
          5.3200705852155319e-02 1.6062707421507572e+00 2.9930105706250965e+00 3.2775989415229123e-01 3.5525739307320436e-01 -2.5496632546168132e+00 2.9643512094270879e+00 -2.2091321268775550e+00 2.2836852555546985e-02 3.6554179966732187e-01 
        </Neuron>
        <Neuron NSynapses="10">
          1.1723025381500800e+00 2.9367677376881849e+00 -2.0427780894600307e+00 2.0729470473409375e+00 -8.5455623518464807e-01 -1.2048039063675153e+00 -3.0220082298940270e+00 -2.4912163930969404e+00 -1.1205547591699634e+00 1.0969931115977760e+00 
        </Neuron>
      </Layer>
      <Layer Index="1" NNeurons="11">
        <Neuron NSynapses="1">
          -1.2260043215927034e+00 
        </Neuron>
        <Neuron NSynapses="1">
          1.5747173918840542e+00 
        </Neuron>
        <Neuron NSynapses="1">
          -2.9960257095922554e-01 
        </Neuron>
        <Neuron NSynapses="1">
          8.0526588472934413e-01 
        </Neuron>
        <Neuron NSynapses="1">
          1.4937193265312090e+00 
        </Neuron>
        <Neuron NSynapses="1">
          6.3156293399039776e-01 
        </Neuron>
        <Neuron NSynapses="1">
          -8.8373127952865860e-01 
        </Neuron>
        <Neuron NSynapses="1">
          -7.8162466116187179e-01 
        </Neuron>
        <Neuron NSynapses="1">
          5.6854794379726115e-01 
        </Neuron>
        <Neuron NSynapses="1">
          1.0944188580452796e+00 
        </Neuron>
        <Neuron NSynapses="1">
          -1.6812960088712186e+00 
        </Neuron>
      </Layer>
      <Layer Index="2" NNeurons="1">
        <Neuron NSynapses="0"/>
      </Layer>
    </Layout>
  </Weights>
</MethodSetup>
