<?xml version="1.0"?>
<MethodSetup Method="MLP::MLPBFGS">
  <GeneralInfo>
    <Info name="TMVA Release" value="4.2.0 [262656]"/>
    <Info name="ROOT Release" value="6.02/08 [393736]"/>
    <Info name="Creator" value="aocampor"/>
    <Info name="Date" value="Sat May 16 19:20:44 2015"/>
    <Info name="Host" value="Linux DaMachine 3.16.0-34-generic #45-Ubuntu SMP Mon Mar 23 17:21:27 UTC 2015 x86_64 x86_64 x86_64 GNU/Linux"/>
    <Info name="Dir" value="/home/aocampor/GIT/Diabetic/train_tree"/>
    <Info name="Training events" value="6000"/>
    <Info name="TrainingTime" value="1.91921702e+02"/>
    <Info name="AnalysisType" value="Classification"/>
  </GeneralInfo>
  <Options>
    <Option name="NCycles" modified="Yes">600</Option>
    <Option name="HiddenLayers" modified="Yes">N+5</Option>
    <Option name="NeuronType" modified="Yes">tanh</Option>
    <Option name="RandomSeed" modified="No">1</Option>
    <Option name="EstimatorType" modified="No">MSE</Option>
    <Option name="NeuronInputType" modified="No">sum</Option>
    <Option name="V" modified="Yes">False</Option>
    <Option name="VerbosityLevel" modified="No">Default</Option>
    <Option name="VarTransform" modified="Yes">N</Option>
    <Option name="H" modified="Yes">True</Option>
    <Option name="CreateMVAPdfs" modified="No">False</Option>
    <Option name="IgnoreNegWeightsInTraining" modified="No">False</Option>
    <Option name="TrainingMethod" modified="Yes">BFGS</Option>
    <Option name="LearningRate" modified="No">2.000000e-02</Option>
    <Option name="DecayRate" modified="No">1.000000e-02</Option>
    <Option name="TestRate" modified="Yes">5</Option>
    <Option name="EpochMonitoring" modified="No">False</Option>
    <Option name="Sampling" modified="No">1.000000e+00</Option>
    <Option name="SamplingEpoch" modified="No">1.000000e+00</Option>
    <Option name="SamplingImportance" modified="No">1.000000e+00</Option>
    <Option name="SamplingTraining" modified="No">True</Option>
    <Option name="SamplingTesting" modified="No">False</Option>
    <Option name="ResetStep" modified="No">50</Option>
    <Option name="Tau" modified="No">3.000000e+00</Option>
    <Option name="BPMode" modified="No">sequential</Option>
    <Option name="BatchSize" modified="No">-1</Option>
    <Option name="ConvergenceImprove" modified="No">1.000000e-30</Option>
    <Option name="ConvergenceTests" modified="No">-1</Option>
    <Option name="UseRegulator" modified="Yes">False</Option>
    <Option name="UpdateLimit" modified="No">10000</Option>
    <Option name="CalculateErrors" modified="No">False</Option>
    <Option name="WeightRange" modified="No">1.000000e+00</Option>
  </Options>
  <Variables NVar="5">
    <Variable VarIndex="0" Expression="Red" Label="Red" Title="Red" Unit="" Internal="Red" Type="F" Min="0.00000000e+00" Max="2.55000000e+02"/>
    <Variable VarIndex="1" Expression="Green" Label="Green" Title="Expression 2" Unit="" Internal="Green" Type="F" Min="0.00000000e+00" Max="2.52000000e+02"/>
    <Variable VarIndex="2" Expression="Blue" Label="Blue" Title="Variable 3" Unit="units" Internal="Blue" Type="F" Min="0.00000000e+00" Max="2.33000000e+02"/>
    <Variable VarIndex="3" Expression="PixelX" Label="PixelX" Title="Variable 4" Unit="units" Internal="PixelX" Type="F" Min="3.60000000e+01" Max="5.48000000e+02"/>
    <Variable VarIndex="4" Expression="PixelY" Label="PixelY" Title="Variable 5" Unit="units" Internal="PixelY" Type="F" Min="0.00000000e+00" Max="3.88000000e+02"/>
  </Variables>
  <Spectators NSpec="0"/>
  <Classes NClass="2">
    <Class Name="Signal" Index="0"/>
    <Class Name="Background" Index="1"/>
  </Classes>
  <Transformations NTransformations="1">
    <Transform Name="Normalize">
      <Selection>
        <Input NInputs="5">
          <Input Type="Variable" Label="Red" Expression="Red"/>
          <Input Type="Variable" Label="Green" Expression="Green"/>
          <Input Type="Variable" Label="Blue" Expression="Blue"/>
          <Input Type="Variable" Label="PixelX" Expression="PixelX"/>
          <Input Type="Variable" Label="PixelY" Expression="PixelY"/>
        </Input>
        <Output NOutputs="5">
          <Output Type="Variable" Label="Red" Expression="Red"/>
          <Output Type="Variable" Label="Green" Expression="Green"/>
          <Output Type="Variable" Label="Blue" Expression="Blue"/>
          <Output Type="Variable" Label="PixelX" Expression="PixelX"/>
          <Output Type="Variable" Label="PixelY" Expression="PixelY"/>
        </Output>
      </Selection>
      <Class ClassIndex="0">
        <Ranges>
          <Range Index="0" Min="0.0000000000000000e+00" Max="2.2600000000000000e+02"/>
          <Range Index="1" Min="0.0000000000000000e+00" Max="2.2100000000000000e+02"/>
          <Range Index="2" Min="0.0000000000000000e+00" Max="1.5700000000000000e+02"/>
          <Range Index="3" Min="1.0100000000000000e+02" Max="4.1600000000000000e+02"/>
          <Range Index="4" Min="1.6000000000000000e+01" Max="3.3000000000000000e+02"/>
        </Ranges>
      </Class>
      <Class ClassIndex="1">
        <Ranges>
          <Range Index="0" Min="0.0000000000000000e+00" Max="2.5500000000000000e+02"/>
          <Range Index="1" Min="0.0000000000000000e+00" Max="2.5200000000000000e+02"/>
          <Range Index="2" Min="0.0000000000000000e+00" Max="2.3300000000000000e+02"/>
          <Range Index="3" Min="3.6000000000000000e+01" Max="5.4800000000000000e+02"/>
          <Range Index="4" Min="0.0000000000000000e+00" Max="3.8800000000000000e+02"/>
        </Ranges>
      </Class>
      <Class ClassIndex="2">
        <Ranges>
          <Range Index="0" Min="0.0000000000000000e+00" Max="2.5500000000000000e+02"/>
          <Range Index="1" Min="0.0000000000000000e+00" Max="2.5200000000000000e+02"/>
          <Range Index="2" Min="0.0000000000000000e+00" Max="2.3300000000000000e+02"/>
          <Range Index="3" Min="3.6000000000000000e+01" Max="5.4800000000000000e+02"/>
          <Range Index="4" Min="0.0000000000000000e+00" Max="3.8800000000000000e+02"/>
        </Ranges>
      </Class>
    </Transform>
  </Transformations>
  <MVAPdfs/>
  <Weights>
    <Layout NLayers="3">
      <Layer Index="0" NNeurons="6">
        <Neuron NSynapses="10">
          -4.7426472223642229e+00 -1.0602367825691017e-01 9.0785925229469182e+00 6.4351689517419719e-01 -4.3849655568127437e+00 -1.0730906831364737e+00 -9.5874060744492595e-01 1.1816718268888600e+00 2.3164473655506856e-01 -1.6207299361407659e-01 
        </Neuron>
        <Neuron NSynapses="10">
          1.6536673027921001e+00 -2.5209453907253030e+00 -1.9163744437974934e+01 3.4220903753250411e+00 1.9838686008666480e+00 -5.9052035220703853e+00 1.0236690705956664e+00 1.0476785896919136e+00 -1.2946354833344407e+00 7.5913312450684174e+00 
        </Neuron>
        <Neuron NSynapses="10">
          3.9146722860002541e+00 2.8427673991255116e+00 1.3561092689614705e+01 1.1469059190222139e+00 -2.2407509699196568e+00 -3.9328438491258488e+00 -4.0730870601866848e-01 -5.0698289772875482e-01 2.7541401015114069e+00 5.7123287000033267e+00 
        </Neuron>
        <Neuron NSynapses="10">
          -1.2736067461165235e-01 4.6277737836387214e+00 -1.6058323792346003e+00 -3.5774176847028536e+00 -3.3197439672146603e+00 -2.7003784651314069e+00 -2.3173577165042047e+00 5.7354296700766394e-01 6.4015768324172362e-01 3.8056160905475460e+00 
        </Neuron>
        <Neuron NSynapses="10">
          -5.7622378704425947e-01 1.9889403202828351e+00 2.6642877025001660e-01 2.9835698993321391e-01 4.5267390612066055e-01 -2.3431979348794116e+00 1.8413755768311200e+00 3.8955274150798186e-01 7.1695039446953759e+00 7.6222634574767356e-01 
        </Neuron>
        <Neuron NSynapses="10">
          3.9203451815589916e+00 4.4270694833916382e+00 5.1892529332620863e-01 3.5185097705755739e+00 -2.0638638916596612e+00 -6.4987420094372856e+00 -2.5091081026773532e+00 -4.4679891861924066e+00 7.3319027461550874e+00 7.1419938367540716e+00 
        </Neuron>
      </Layer>
      <Layer Index="1" NNeurons="11">
        <Neuron NSynapses="1">
          -3.1288526830770613e-01 
        </Neuron>
        <Neuron NSynapses="1">
          9.0410836373640124e-01 
        </Neuron>
        <Neuron NSynapses="1">
          -4.9386472235143208e-01 
        </Neuron>
        <Neuron NSynapses="1">
          4.8187704624795707e-01 
        </Neuron>
        <Neuron NSynapses="1">
          6.6577045499284793e-01 
        </Neuron>
        <Neuron NSynapses="1">
          4.5211756825646521e-01 
        </Neuron>
        <Neuron NSynapses="1">
          -9.9277719989536128e-01 
        </Neuron>
        <Neuron NSynapses="1">
          7.9001180135442148e-02 
        </Neuron>
        <Neuron NSynapses="1">
          2.3655824846767370e-01 
        </Neuron>
        <Neuron NSynapses="1">
          5.6215397770129927e-01 
        </Neuron>
        <Neuron NSynapses="1">
          -1.1394243038487042e+00 
        </Neuron>
      </Layer>
      <Layer Index="2" NNeurons="1">
        <Neuron NSynapses="0"/>
      </Layer>
    </Layout>
  </Weights>
</MethodSetup>
