<?xml version="1.0"?>
<MethodSetup Method="MLP::MLPBNN">
  <GeneralInfo>
    <Info name="TMVA Release" value="4.2.0 [262656]"/>
    <Info name="ROOT Release" value="6.02/08 [393736]"/>
    <Info name="Creator" value="aocampor"/>
    <Info name="Date" value="Sat May 16 19:25:12 2015"/>
    <Info name="Host" value="Linux DaMachine 3.16.0-34-generic #45-Ubuntu SMP Mon Mar 23 17:21:27 UTC 2015 x86_64 x86_64 x86_64 GNU/Linux"/>
    <Info name="Dir" value="/home/aocampor/GIT/Diabetic/train_tree"/>
    <Info name="Training events" value="6000"/>
    <Info name="TrainingTime" value="2.68651277e+02"/>
    <Info name="AnalysisType" value="Classification"/>
  </GeneralInfo>
  <Options>
    <Option name="NCycles" modified="Yes">600</Option>
    <Option name="HiddenLayers" modified="Yes">N+5</Option>
    <Option name="NeuronType" modified="Yes">tanh</Option>
    <Option name="RandomSeed" modified="No">1</Option>
    <Option name="EstimatorType" modified="No">MSE</Option>
    <Option name="NeuronInputType" modified="No">sum</Option>
    <Option name="V" modified="Yes">False</Option>
    <Option name="VerbosityLevel" modified="No">Default</Option>
    <Option name="VarTransform" modified="Yes">N</Option>
    <Option name="H" modified="Yes">True</Option>
    <Option name="CreateMVAPdfs" modified="No">False</Option>
    <Option name="IgnoreNegWeightsInTraining" modified="No">False</Option>
    <Option name="TrainingMethod" modified="Yes">BFGS</Option>
    <Option name="LearningRate" modified="No">2.000000e-02</Option>
    <Option name="DecayRate" modified="No">1.000000e-02</Option>
    <Option name="TestRate" modified="Yes">5</Option>
    <Option name="EpochMonitoring" modified="No">False</Option>
    <Option name="Sampling" modified="No">1.000000e+00</Option>
    <Option name="SamplingEpoch" modified="No">1.000000e+00</Option>
    <Option name="SamplingImportance" modified="No">1.000000e+00</Option>
    <Option name="SamplingTraining" modified="No">True</Option>
    <Option name="SamplingTesting" modified="No">False</Option>
    <Option name="ResetStep" modified="No">50</Option>
    <Option name="Tau" modified="No">3.000000e+00</Option>
    <Option name="BPMode" modified="No">sequential</Option>
    <Option name="BatchSize" modified="No">-1</Option>
    <Option name="ConvergenceImprove" modified="No">1.000000e-30</Option>
    <Option name="ConvergenceTests" modified="No">-1</Option>
    <Option name="UseRegulator" modified="Yes">True</Option>
    <Option name="UpdateLimit" modified="No">10000</Option>
    <Option name="CalculateErrors" modified="No">False</Option>
    <Option name="WeightRange" modified="No">1.000000e+00</Option>
  </Options>
  <Variables NVar="5">
    <Variable VarIndex="0" Expression="Red" Label="Red" Title="Red" Unit="" Internal="Red" Type="F" Min="0.00000000e+00" Max="2.55000000e+02"/>
    <Variable VarIndex="1" Expression="Green" Label="Green" Title="Expression 2" Unit="" Internal="Green" Type="F" Min="0.00000000e+00" Max="2.52000000e+02"/>
    <Variable VarIndex="2" Expression="Blue" Label="Blue" Title="Variable 3" Unit="units" Internal="Blue" Type="F" Min="0.00000000e+00" Max="2.33000000e+02"/>
    <Variable VarIndex="3" Expression="PixelX" Label="PixelX" Title="Variable 4" Unit="units" Internal="PixelX" Type="F" Min="3.60000000e+01" Max="5.48000000e+02"/>
    <Variable VarIndex="4" Expression="PixelY" Label="PixelY" Title="Variable 5" Unit="units" Internal="PixelY" Type="F" Min="0.00000000e+00" Max="3.88000000e+02"/>
  </Variables>
  <Spectators NSpec="0"/>
  <Classes NClass="2">
    <Class Name="Signal" Index="0"/>
    <Class Name="Background" Index="1"/>
  </Classes>
  <Transformations NTransformations="1">
    <Transform Name="Normalize">
      <Selection>
        <Input NInputs="5">
          <Input Type="Variable" Label="Red" Expression="Red"/>
          <Input Type="Variable" Label="Green" Expression="Green"/>
          <Input Type="Variable" Label="Blue" Expression="Blue"/>
          <Input Type="Variable" Label="PixelX" Expression="PixelX"/>
          <Input Type="Variable" Label="PixelY" Expression="PixelY"/>
        </Input>
        <Output NOutputs="5">
          <Output Type="Variable" Label="Red" Expression="Red"/>
          <Output Type="Variable" Label="Green" Expression="Green"/>
          <Output Type="Variable" Label="Blue" Expression="Blue"/>
          <Output Type="Variable" Label="PixelX" Expression="PixelX"/>
          <Output Type="Variable" Label="PixelY" Expression="PixelY"/>
        </Output>
      </Selection>
      <Class ClassIndex="0">
        <Ranges>
          <Range Index="0" Min="0.0000000000000000e+00" Max="2.2600000000000000e+02"/>
          <Range Index="1" Min="0.0000000000000000e+00" Max="2.2100000000000000e+02"/>
          <Range Index="2" Min="0.0000000000000000e+00" Max="1.5700000000000000e+02"/>
          <Range Index="3" Min="1.0100000000000000e+02" Max="4.1600000000000000e+02"/>
          <Range Index="4" Min="1.6000000000000000e+01" Max="3.3000000000000000e+02"/>
        </Ranges>
      </Class>
      <Class ClassIndex="1">
        <Ranges>
          <Range Index="0" Min="0.0000000000000000e+00" Max="2.5500000000000000e+02"/>
          <Range Index="1" Min="0.0000000000000000e+00" Max="2.5200000000000000e+02"/>
          <Range Index="2" Min="0.0000000000000000e+00" Max="2.3300000000000000e+02"/>
          <Range Index="3" Min="3.6000000000000000e+01" Max="5.4800000000000000e+02"/>
          <Range Index="4" Min="0.0000000000000000e+00" Max="3.8800000000000000e+02"/>
        </Ranges>
      </Class>
      <Class ClassIndex="2">
        <Ranges>
          <Range Index="0" Min="0.0000000000000000e+00" Max="2.5500000000000000e+02"/>
          <Range Index="1" Min="0.0000000000000000e+00" Max="2.5200000000000000e+02"/>
          <Range Index="2" Min="0.0000000000000000e+00" Max="2.3300000000000000e+02"/>
          <Range Index="3" Min="3.6000000000000000e+01" Max="5.4800000000000000e+02"/>
          <Range Index="4" Min="0.0000000000000000e+00" Max="3.8800000000000000e+02"/>
        </Ranges>
      </Class>
    </Transform>
  </Transformations>
  <MVAPdfs/>
  <Weights>
    <Layout NLayers="3">
      <Layer Index="0" NNeurons="6">
        <Neuron NSynapses="10">
          -2.5520803896963482e+00 8.4026332794413183e-02 2.9422871994367372e+00 6.5237418789468238e-01 -2.4884505191043300e+00 -7.5924969701119926e-01 -6.8980093649324031e-02 2.2051031664637510e+00 -1.9972984138267886e+00 -5.1161514105764516e-01 
        </Neuron>
        <Neuron NSynapses="10">
          -4.7687170215899949e-01 -1.8282805114222374e+00 -5.0271240685361898e+00 1.8530528204458081e+00 -2.7016537455269587e+00 -5.6244521635482297e-02 1.4156464660981580e+00 4.5922315663577123e-01 -5.9634936310067272e-03 2.4667010884552338e+00 
        </Neuron>
        <Neuron NSynapses="10">
          -4.2702171061142713e-01 9.5752524685411322e-01 4.3649558032231344e+00 4.4709336567767588e-01 1.2377557150345100e+00 -2.5176953890930323e+00 -6.2686334786846609e-01 -1.6832196608018910e+00 -6.7291319841926600e-01 4.9274202483265556e-01 
        </Neuron>
        <Neuron NSynapses="10">
          2.4569276017630219e+00 3.4779212813381681e+00 -1.3705693672738313e+00 -2.5078106100406723e+00 -2.3140663822510943e+00 6.9482002007074062e-01 -4.2244822028045057e+00 2.1340571282951712e+00 -8.0712552522828607e-01 -3.4483797217960660e-01 
        </Neuron>
        <Neuron NSynapses="10">
          -2.1567681602527947e-01 1.9881612232930896e+00 1.9861010503401793e+00 8.6349497594301397e-02 -3.2153479163181270e-01 -2.1988258220176338e+00 1.7665064698026933e+00 -3.8175784175878213e-01 3.8125629663411115e-01 1.2665521814603744e+00 
        </Neuron>
        <Neuron NSynapses="10">
          2.1497964355434771e+00 3.0802447065660061e+00 -4.9641129493292807e-01 2.0539598452767511e+00 -2.0289928792636949e+00 -2.3748220373434084e+00 -3.2149064502412470e+00 -2.0317241222755582e+00 7.2004346184546453e-01 1.6177700618375017e+00 
        </Neuron>
      </Layer>
      <Layer Index="1" NNeurons="11">
        <Neuron NSynapses="1">
          -1.0458426559321017e+00 
        </Neuron>
        <Neuron NSynapses="1">
          1.3220495458306800e+00 
        </Neuron>
        <Neuron NSynapses="1">
          -8.8967483680697257e-01 
        </Neuron>
        <Neuron NSynapses="1">
          5.4014823221033659e-01 
        </Neuron>
        <Neuron NSynapses="1">
          8.4317723675037803e-01 
        </Neuron>
        <Neuron NSynapses="1">
          1.8499758978966674e+00 
        </Neuron>
        <Neuron NSynapses="1">
          -8.7591889540509393e-01 
        </Neuron>
        <Neuron NSynapses="1">
          7.1660935679116722e-01 
        </Neuron>
        <Neuron NSynapses="1">
          1.1118085194508016e+00 
        </Neuron>
        <Neuron NSynapses="1">
          2.7848254213467376e+00 
        </Neuron>
        <Neuron NSynapses="1">
          -1.1654752680422364e+00 
        </Neuron>
      </Layer>
      <Layer Index="2" NNeurons="1">
        <Neuron NSynapses="0"/>
      </Layer>
    </Layout>
    <InverseHessian NElements="5041" NRows="71" NCols="71">
      <Row Index="0">
        1.7650430910239123e+00 5.1720114967990088e-02 -2.6226845253145392e-01 -2.7298786983023553e-02 1.8565083280810876e-01 1.7547672280961622e-02 -1.4930590279894546e-01 -2.1109164470939226e-01 7.2957329886368649e-01 -1.5617998039212187e-02 -9.8743389846684126e-01 3.5147185127869629e-02 4.2017558219059914e-01 -2.8908726163370424e-02 -4.4940604704036707e-01 1.2453431875382809e-01 3.0237626444894095e-01 6.9038279833251381e-01 -7.2708482531439855e-01 -1.4191320590626960e-01 4.7259228449154195e-01 -1.1838494907897867e-01 -3.3921830732728753e-01 -4.0718371782733430e-02 8.0671605993048928e-02 -1.0129814249027028e-01 -7.5093410909433875e-02 -5.5449938321598191e-01 7.3796147739710172e-01 1.7216344711833040e-01 -9.7792811434984850e-01 -2.0023981778641120e-01 2.4864566892669838e-02 1.0252451721581712e-01 -1.3331251044706106e-02 2.4449604910118244e-02 4.5809449275103203e-01 -2.0342258573916455e-01 4.2430974392374471e-01 -3.5164033365055566e-02 2.2210277530414702e-01 -2.2015129372054837e-01 -1.6271369631010313e-01 2.7874563219944644e-02 5.5777762791248131e-04 1.3001236711211756e-02 -1.8860536113626772e-01 1.3542879487560222e-02 -7.6125580840602669e-02 7.9584060214749411e-03 -8.4616014856751776e-01 -2.4990960384611877e-01 4.8599038655535269e-02 -1.0471949067682525e-01 -1.5097994879304766e-01 -1.5650601850311203e-02 3.7122510334288689e-01 9.0766294642933093e-02 4.3573426736513578e-02 5.9130519547837081e-02 -5.4423111661425339e-01 1.5751623106997661e-01 -7.3280717492499065e-02 6.7404209124871009e-02 -2.7175515526667693e-02 9.8678328373039262e-02 -8.5843227463055699e-02 7.5671144651604960e-02 5.2512603821177883e-01 9.9069347561509619e-02 -1.6350336588872999e-01 
      </Row>
      <Row Index="1">
        5.1720114967975114e-02 5.1262835078793234e-01 2.2612656430886246e-03 -3.4779974034396241e-02 -1.7306433044194885e-01 1.2323417622039951e-01 6.1317035162118290e-02 1.2058969550228756e-01 2.3548740854997023e-02 7.1081026317815807e-02 -3.2030742768298198e-01 -8.1926865047059294e-01 -2.1606410564239995e-02 -8.7758580418121873e-02 4.0124345377443249e-01 -2.5672034929139731e-01 -1.2917626982571800e-01 -2.8945114441425601e-01 1.3759501231300900e-01 -1.0346515069180248e-01 7.5807983931329412e-02 3.7366426463171720e-01 1.1822687762627015e-02 4.9568448917689488e-02 -1.6198988686066204e-01 2.3628232883146510e-01 4.4579559042811912e-02 1.4058576440682044e-01 -1.2915289934857854e-01 1.0806161204262718e-01 4.4494970849134764e-02 -1.7487856693380044e-02 -1.1255220717045827e-02 3.4410094677690212e-02 2.3264960583505093e-02 -3.2885906848048305e-02 6.6724216360810273e-02 6.7649833539274756e-02 4.0556161666768308e-02 -2.5019410814810513e-02 -1.2379835962855784e-01 4.1854184129850952e-02 9.2722716086798829e-04 -1.3534762489102639e-02 7.0074538937044267e-03 9.9802887148834035e-02 -3.7644397506779205e-02 -5.5064141705804823e-03 1.2264168417963066e-02 7.2146346695208641e-02 1.7648150481854114e-02 -2.2941609351488562e-02 9.2633783497718357e-03 -2.5106288310106827e-02 2.7039024616764031e-02 8.8412434301887430e-02 1.3383432547758572e-02 -5.6621536388623953e-02 -4.0881683455635406e-02 6.1247474263230683e-02 5.2305490586267954e-02 -5.3781973490012770e-02 -2.8234005988812434e-03 1.6693742758481678e-02 3.1990668874637708e-03 3.7879385380295855e-01 -1.8345152829150529e-02 -3.5212665697223589e-02 -3.1990500521024229e-02 3.5456242229258028e-01 -6.6974396988302735e-03 
      </Row>
      <Row Index="2">
        -2.6226845253139563e-01 2.2612656430926678e-03 1.3453534774043117e+00 2.5084067215892208e-01 -3.1727320012514471e-01 1.6506749375169372e-01 -3.2238446362867956e-01 -2.0692687363328605e-01 -2.3771986766225126e-01 -2.3958398853562549e-02 1.4112418355698700e-01 -3.9539545654450572e-02 -2.1187800858457702e+00 -4.4630951252336787e-01 3.2101610363196681e-01 -5.5948933056933736e-01 3.6588404608720704e-01 2.5623589639450584e-01 5.3766868873838902e-01 2.9000983128204011e-01 4.7266642737405107e-02 5.4735483466758265e-02 1.1932948198879905e+00 9.6299190608124891e-02 -9.5012433752922981e-02 3.1902616753103380e-01 -1.5265991442123227e-02 1.0581132378913377e-01 -2.7579555161786362e-01 2.7688551644251616e-02 7.0602931425640281e-02 4.2118872874229996e-02 -2.7291230011611822e-01 1.5595409652260855e-01 -1.1182669760258045e-01 -8.0447295146579015e-02 1.4867464119344970e-01 -3.6353422318079115e-02 3.4112390552024606e-02 9.9145561946924893e-03 4.6497592547900216e-02 4.5423218065795773e-02 3.7829306964183862e-01 -3.5359371149438525e-03 -2.1393372500630947e-02 5.0749099576580664e-02 -4.8321247408036623e-02 1.0694977327877916e-01 -3.7307485764504295e-02 1.7656280587363729e-01 6.1632679735632800e-02 7.1736988272696492e-02 -2.5389888249130710e-01 -1.5266641628944200e-01 -2.5037612790529844e-02 3.3954925130714395e-02 2.1024354346053098e-01 1.3225234999149252e-01 4.0585447255165587e-02 1.8765156349339568e-01 9.7737107002485502e-02 -1.7834408164133585e-02 2.4484517258589833e-01 5.5443606720384148e-02 -4.4160177890181861e-02 2.8499336677522963e-01 -3.3189902388163849e-02 2.0407066383455255e-02 -1.3049837920626882e-02 -2.4510618046754369e-02 2.7149294496064218e-02 
      </Row>
      <Row Index="3">
        -2.7298786983051354e-02 -3.4779974034434273e-02 2.5084067215888955e-01 1.7128277891059729e+00 1.7062208735765666e-01 -5.4472309620824333e-02 -7.5536316936216777e-02 -3.9597273702557440e-01 -6.0390670082399803e-02 -2.1894240976801004e-02 2.9561694560797896e-01 5.0352150327110323e-02 -4.7449249838304530e-01 -2.6233337835271864e+00 3.7233158591188323e-02 5.5453433562340601e-02 2.2831645010941562e-01 6.7426684364917056e-01 -7.2510434695084669e-02 1.3002508151320988e-01 -5.9844852993049216e-02 -6.0561996071776814e-02 1.5148283103099236e-01 1.1486136710466077e+00 2.9337942653514686e-02 -1.8222324617571554e-02 -7.2326350885804733e-02 -3.0504969306761592e-01 2.7231578172373783e-01 -1.1683263663251439e-01 -1.3288954558833679e-01 -3.3988622486817333e-02 2.6636676155716278e-02 -3.9405460419123306e-01 9.5628980994554025e-02 1.2632714333268485e-02 1.4479392797965188e-02 -2.4243753280540872e-01 8.5056308178810852e-02 -1.3250331275877990e-03 4.1177413442456567e-02 -6.4688839112042845e-02 -3.4178028256687303e-02 5.4033837744150090e-03 4.7488724454458869e-02 2.8757058078616594e-02 -3.7291140439933160e-02 -1.6840332094774979e-02 3.7026001591407620e-02 -7.6978475094844595e-02 -6.4523683615600180e-02 -6.2050932962824948e-02 -5.9050711241850365e-02 -1.0292448623658423e-01 8.1279782417887775e-02 -2.2606197184713003e-02 7.3399103576519312e-02 1.4440332004084783e-01 9.5910068044128730e-02 -3.5109294248818756e-03 -1.2844140813614024e-01 4.4744579909550886e-02 -1.7299733979834562e-02 -8.2165767464913469e-02 5.2442011725216509e-02 -8.5153995660011819e-02 -1.7593707222273262e-02 3.7155653451464696e-02 1.0430359713501818e-01 -1.9142608966699406e-02 3.1793299397166713e-02 
      </Row>
      <Row Index="4">
        1.8565083280813538e-01 -1.7306433044206332e-01 -3.1727320012525850e-01 1.7062208735770312e-01 1.6198200108898599e+00 -1.5039487035169105e-01 2.5607016106140851e-01 -2.6713490871539641e-01 6.9668417906786254e-02 1.6263654978518165e-02 -1.0860048873848098e-01 3.7294394511302070e-01 4.4033531678498633e-01 -2.6346895005483584e-01 -1.3770406431918867e+00 3.2951564919402387e-01 -6.7962618701310085e-01 -2.6577940066293393e-01 -5.9373688911020683e-01 -6.6827523575634401e-02 -9.0161785916216985e-02 -2.2571529421456338e-01 -1.5617280079840618e-01 2.2931129563581171e-01 5.2157729095181860e-01 -9.6492478063805467e-02 4.0852526334817157e-01 8.0142469186274198e-02 4.1897433972525394e-01 -1.7673098432704604e-01 -6.7286734062659836e-03 1.1571341877590208e-02 8.8320237534131790e-02 -6.6523046834949945e-02 5.4178443150131939e-01 -2.3935701549646193e-02 8.8068877821198266e-02 -4.8003819349444021e-01 -1.0689468130173632e-01 7.4339171024040029e-02 -3.1646473494546509e-02 9.7185356753499326e-03 -8.3913299318993509e-02 1.6185771681730396e-02 2.6916768861380364e-02 3.8235185198376931e-02 -4.6320826005239180e-03 -5.0470482254661719e-02 3.7586535037748552e-02 -1.7916133009180418e-01 -5.7920166660488603e-02 -2.6377648466745854e-02 9.8924798967363975e-02 5.0853754381276012e-02 2.9078063139759591e-01 4.4245977294776168e-02 1.1441349815529893e-01 1.3504604487976396e-01 5.1068838903698427e-02 -1.7104355034747165e-01 -2.9881737264617011e-02 -7.2748457302317590e-03 -9.2729213712290759e-02 -5.0021187400092718e-02 2.1222601955736758e-01 -1.3756201146401539e-01 -1.2602824378529172e-02 1.8816938380929094e-01 -2.6685055346731865e-02 1.7101028961099765e-01 2.1646114036129319e-01 
      </Row>
      <Row Index="5">
        1.7547672280908574e-02 1.2323417622019436e-01 1.6506749375144325e-01 -5.4472309619904069e-02 -1.5039487035001298e-01 2.8342507628303388e+00 1.6782681821703382e-01 -1.6747040154952934e-03 -2.0445227749486006e-01 7.1091779642728403e-01 -2.2578064098892295e-01 -2.5700345851126666e-01 -1.2323022199902088e-01 -5.5795535995972811e-02 -2.1742060931545792e-02 -5.4903507793753219e+00 -3.2824373184577493e-01 1.6476020357478266e-01 2.4680956105333829e-01 -1.2096658260628408e+00 8.5098234354215804e-02 1.5235864633767154e-01 1.8339557908007750e-01 5.0886702739107566e-02 2.2709640490079605e-02 4.4238242802553875e+00 1.3754465483241260e-01 -7.3550994026501448e-02 -1.9867786348174180e-01 1.2405697283514410e+00 1.7797333441594718e-01 1.7077256344087133e-02 -1.3212330194158953e-01 6.5063275466744633e-02 -1.0842174644663152e-01 -7.0359401418294176e-01 -1.2492659240393672e-01 1.9517711600713991e-01 -4.7804538008977007e-02 -2.7980829497335752e-01 -1.6296192298222106e-01 -1.3079523720290228e-02 3.8797836528058299e-01 -1.8357782995750173e-02 -6.6083579067472724e-03 1.6883415586466364e+00 -2.1520236403779803e-02 -2.1473218512894077e-02 2.3175807737911946e-02 8.7394898932469467e-01 8.8845947629136113e-02 2.9841640267659272e-03 -1.3266346093967327e-01 -1.3211809998602608e-02 -7.6873518612236985e-02 1.4355789351967867e+00 -6.7068015614330928e-02 -1.1249375060313946e-01 3.0610074212644556e-02 6.8899206392866885e-01 6.6947018499578764e-02 -2.9882959401276957e-02 4.8223036738218199e-02 9.8055016545406937e-03 -3.5574279502497599e-02 5.5937912042444804e+00 3.0564313361717877e-02 -4.6906301012235710e-02 -1.3633744524190816e-01 5.4454492432993309e+00 3.6287483110216200e-02 
      </Row>
      <Row Index="6">
        -1.4930590279893971e-01 6.1317035162019917e-02 -3.2238446362877587e-01 -7.5536316936235443e-02 2.5607016106149749e-01 1.6782681821552356e-01 1.6674082806156783e+00 4.6906670649337397e-03 -2.5776389656017751e-02 -6.2709923841908932e-02 5.1072170416783935e-01 -2.2922591601719128e-01 2.9955425520837353e-01 6.0288393421463110e-02 -8.6644852840827380e-01 -2.0137196428673060e-01 -2.5101287123369902e+00 -1.5015924056322731e-02 -5.3973256194967845e-02 5.0053355877148341e-02 -2.6701966367885960e-01 1.2063057973100880e-01 -2.9597692421006350e-02 7.4420942492999520e-02 3.5628938354047351e-01 3.9468387368351392e-02 9.3247408116571007e-01 8.4499760526587586e-02 7.0132745201249458e-02 7.5795057737055208e-02 2.1303593857530842e-01 1.4880263930986889e-01 -1.3829634812894363e-02 -4.2680906952927006e-03 -1.0237101237577917e-01 4.8657963036679047e-02 -1.5272282954864047e-01 -6.7262427018679585e-02 -5.3515632086855579e-02 -6.4516868998401977e-02 -1.3684385913901045e-01 8.4836575404939260e-02 -6.9036178544678445e-02 -4.2688132780537319e-02 -1.8567112398217844e-02 4.0116072422239357e-03 -1.1943004474439604e-01 -5.0239566856157027e-03 1.7764322114760485e-02 5.9754648735096408e-02 8.7162379957555491e-03 9.8563640316407186e-02 1.2765986997452902e-01 5.7418129857908104e-02 -1.2516534736700699e-01 -3.5710654567847597e-02 -2.7620726886195307e-01 6.5512782420827045e-02 -2.3539345593781801e-02 7.8021401687900879e-02 1.0116186383598333e-02 -5.6892303198537844e-02 -1.8885508743153499e-02 -1.7649656337211661e-02 -4.2973580054010828e-02 1.5950850870493957e-01 -6.9800668001084615e-02 5.2417057450259430e-02 -3.3890959150429750e-02 1.5514216125931352e-01 2.4172612056629104e-02 
      </Row>
      <Row Index="7">
        -2.1109164470973285e-01 1.2058969550264487e-01 -2.0692687363268170e-01 -3.9597273702578972e-01 -2.6713490871585588e-01 -1.6747040120354273e-03 4.6906670649424775e-03 3.4498395856891571e+00 -4.0150352935554146e-01 9.1141979502940243e-02 -3.3221566564665836e-02 -2.6916734270412002e-01 2.9292421454585271e-01 1.0344721825967076e+00 -7.5632977635027498e-01 8.8974503388590309e-02 2.7884159743004300e-01 -1.0891609205203097e+00 5.2785852816041390e-01 -1.3944909561758378e-01 -1.5105008937891479e-01 1.7660077474962166e-01 -1.2303526017019206e-01 -1.6071744466106752e-01 3.8149281682168723e-01 2.3109038936532011e-01 -2.4673632945523644e-01 -1.1316710360114444e+00 -5.5914384057559952e-01 -5.5491411915951722e-02 2.8160825357365671e-01 -2.5126877984580342e-01 9.7074249314139466e-02 -3.1654450923480754e-01 -3.5908167208262359e-01 -4.4777369024043272e-02 -3.2839496214623498e-01 2.4396982750612470e+00 -1.0359090192477818e-01 -9.3620796429134193e-03 2.3326445164534165e-02 -3.8340574348237844e-02 -3.4773675687537309e-02 6.6208838201250966e-02 -7.1844970006231509e-02 1.4376140708962254e-01 1.6627866181370998e-01 -2.4625026342663647e-01 9.9898757302447683e-02 -2.9804990150155836e-03 1.4805944982965635e-01 -1.4999623809399215e-01 4.8664428792513877e-02 3.9742148465824856e-01 -2.9989706173950026e-01 2.0629479700092379e-01 -2.8997299450581870e-01 -1.5785464214164850e+00 -1.3750623536859541e-02 -7.0504030037171053e-02 2.6801705449750091e-01 3.0043545206873752e-02 -6.0962278587860859e-02 -1.2467812924008781e-01 -1.9123131448180114e-01 2.8933974143435337e-01 1.5170205314345858e-01 -1.0914154384809240e+00 -4.2200187728617222e-01 2.0966311471218796e-01 -7.2481359302692849e-01 
      </Row>
      <Row Index="8">
        7.2957329886359124e-01 2.3548740854929195e-02 -2.3771986766234499e-01 -6.0390670082415832e-02 6.9668417906745161e-02 -2.0445227749648409e-01 -2.5776389656129606e-02 -4.0150352935493844e-01 1.0091287882370739e+00 3.7722005825709982e-02 -4.8722665855435121e-01 1.9543902347611886e-02 4.4579277865929112e-01 -1.6717142173511490e-01 -5.2225473734286676e-01 5.3944929499449679e-01 5.3566095237832130e-02 7.7499682020836569e-01 -9.9473907693276975e-01 -2.1591436059534785e-01 2.5591500402554446e-01 -1.4960867697297597e-03 -2.9174285578142622e-01 8.1425693778352515e-02 2.8045123274044276e-01 -2.6368963121176520e-01 -3.9471461970606483e-02 -3.4818479417820491e-01 6.5095454848982670e-01 5.7516154767650159e-02 -5.0261943325354252e-01 -5.5661271096882937e-03 7.2072299647966534e-02 8.9283679388848153e-02 -9.4371558272247053e-02 4.7893484415637330e-02 2.3719207209640955e-01 -9.8134890526226981e-02 3.9099482409592951e-01 -1.2215457264016960e-02 1.0894331871560142e-01 -4.4136035268336996e-02 -1.1367554485727097e-01 1.9117717764003922e-02 -1.0863376020496390e-02 -1.6538282472069833e-02 -9.4272603303787991e-02 2.8424912567131255e-02 -7.2939956416723406e-02 -6.7003744683525712e-02 -3.5052792380391262e-01 -2.3189611666975685e-02 6.2524113403266607e-02 -8.6696331365918103e-02 -1.1311525984088737e-01 2.8469723449313589e-02 1.4741723755807015e-01 1.5884937092210166e-01 -9.1321942424671801e-02 -8.4365971906785159e-02 -3.0927727578593339e-01 4.0322198755572761e-02 -9.6210330006447367e-02 5.2594865876801671e-02 -5.1669948945968179e-02 -1.1253816323452251e-01 -4.0987524299595283e-02 3.2966019334683197e-03 4.1653356542220171e-01 -6.1724089393116945e-02 -1.7650545964684930e-01 
      </Row>
      <Row Index="9">
        -1.5617998039141739e-02 7.1081026317819498e-02 -2.3958398853548418e-02 -2.1894240976413792e-02 1.6263654979076614e-02 7.1091779642857966e-01 -6.2709923841408624e-02 9.1141979501657575e-02 3.7722005826258009e-02 6.2012368920796079e-01 -1.4944352122368634e-01 -1.4374504556426226e-01 1.0983173031547665e-01 1.3141435709594407e-01 1.4643984144747924e-01 -1.3034576461582532e+00 1.2009517032750483e-01 2.1001459628223287e-01 -1.8039555978300925e-01 -1.2024853195770340e+00 4.2403863337155838e-02 7.3314691877971294e-02 -5.6874477070530859e-02 1.0845512816892462e-02 -6.3582558228033756e-02 1.4684444651207345e+00 -5.7505046447359251e-02 -3.9416120132790766e-01 -2.6158460427194129e-02 6.7763179632281845e-01 4.1795370590915121e-02 -2.4423342100574688e-02 3.2398824916092042e-02 -1.7236466957948518e-01 5.2278901844245412e-02 -2.7673469723555411e-01 -1.1121090520781315e-01 2.2373020113357436e-01 3.5337080881742327e-03 -9.9056271433157234e-02 -5.4230714533430029e-02 -8.8181075803737061e-03 8.2457991630408470e-02 3.9144967546535930e-04 -2.6800629987934741e-03 7.4168325833320992e-01 3.1102799820957264e-02 -7.0296915554638961e-02 4.1985753215290217e-02 2.3917456677981341e-01 5.1879734040120806e-02 -1.8912041750513663e-02 -2.3803576272683064e-02 1.1529886005599287e-01 4.2058771297279751e-02 7.0733616586602654e-01 -7.8247375560668145e-02 -2.4818066840557007e-01 -1.1916837376197503e-02 1.0799811961663827e-01 3.7914281584585707e-02 -4.5429740438600250e-03 -7.0666723830995176e-02 -5.4247976043199760e-02 2.5938084199969666e-02 2.2698178654952028e+00 3.5196066029030484e-02 -1.4086656132288103e-01 -1.2201003893541766e-01 2.3871507212635921e+00 -5.1079181794944077e-02 
      </Row>
      <Row Index="10">
        -9.8743389846679186e-01 -3.2030742768298615e-01 1.4112418355685741e-01 2.9561694560790253e-01 -1.0860048873847128e-01 -2.2578064098895284e-01 5.1072170416770157e-01 -3.3221566564282989e-02 -4.8722665855441971e-01 -1.4944352122339602e-01 2.3673959327770140e+00 5.6686908043791584e-01 -2.9311169633681722e-01 -4.7305068300851838e-01 -1.1416622615931921e-01 3.4588624931174156e-01 -8.8139098110104441e-01 -2.6569973343232234e-01 7.1462657656308348e-01 3.2099104727813366e-01 -1.1224352245158093e+00 -2.5104882368384962e-01 5.6903696811654914e-02 3.0711034288243139e-01 9.0354332208959331e-02 -2.9156177519272675e-01 4.7018530236592154e-01 4.8545583330694514e-01 -3.8396292543208899e-01 -2.9722649086850639e-01 5.1486784226302471e-03 1.6413343342440528e-01 -4.2934678946264793e-02 -1.1580881620043487e-01 -7.2705319110222572e-02 4.9617573948082250e-02 -5.0641267528956879e-01 -1.4918323533877981e-01 -1.9321719126963779e-01 7.6048505524100113e-02 5.6419350255621288e-02 1.2481411510590876e-01 -6.7928469299265187e-02 -1.8478992231985014e-02 -3.7646864863475349e-03 -2.2534907791613715e-01 1.5531101789451884e-01 4.3183508650638802e-03 3.7962460599309106e-02 -1.0016716973764654e-01 6.1109452632603645e-02 1.5931086375101308e-01 -6.7007001392266174e-02 9.0935421671781799e-02 -4.2374424145402156e-02 -1.5060794919279544e-01 -3.2746015116055216e-01 1.4250450488987490e-01 7.7570053805969489e-03 -1.0471406018316175e-01 7.8328376531159580e-02 -7.9905602935242917e-02 9.2705327264086743e-03 -1.5948214111937906e-03 -2.3419684341014699e-02 -7.8048117200146983e-01 8.6014094789267387e-02 1.4990055112700795e-01 -6.7656617543687916e-02 -8.1944142924285290e-01 2.5622060030124272e-01 
      </Row>
      <Row Index="11">
        3.5147185127981914e-02 -8.1926865047058384e-01 -3.9539545654436542e-02 5.0352150327039352e-02 3.7294394511276241e-01 -2.5700345851133916e-01 -2.2922591601739911e-01 -2.6916734270346054e-01 1.9543902347481185e-02 -1.4374504556422052e-01 5.6686908043784301e-01 1.7727480196842371e+00 2.0050500554918413e-01 3.6582530578286421e-02 -5.7908376031570197e-01 4.9440372795111298e-01 3.6344766191335248e-01 5.9909082734221897e-01 -2.7733002716366240e-01 2.1488345212693363e-01 -1.8297479218190019e-01 -9.3144844703154717e-01 -1.7766909745389969e-01 -1.6765971195133425e-01 2.6846411383406404e-01 -4.5046829456548276e-01 -5.2242266128750298e-02 -3.2819734333775369e-01 2.8602410414756579e-01 -1.8029967914329914e-01 -1.7137576714227765e-01 -2.1374997304785429e-01 4.0248025528647979e-02 1.6132283396642738e-01 3.8141504429223400e-02 4.6849507662567486e-02 7.0824543882637703e-02 -1.5391868119611210e-01 -3.0019072407103577e-02 6.8619167696334277e-02 1.9526142723136017e-01 -2.2591354377409689e-01 -3.6541432926571256e-02 3.3448596124431990e-02 2.4433147830912411e-02 -1.9428261935289440e-01 6.8220715490164924e-02 7.4146666532380126e-02 -4.9983965985179166e-02 -1.3537700831685168e-01 -1.2350941552886308e-01 -1.8386064383178585e-01 -3.0373655718109994e-02 -1.3550462034161262e-01 1.6126168865699592e-02 -1.6816674410580823e-01 1.3384196505139428e-01 1.2097286560022363e-01 5.3240417636850126e-02 -1.0576641279756237e-01 -1.4977330059548810e-01 1.6860672140577218e-01 -9.5149876039300647e-03 3.3164104276483197e-02 3.6742342586385229e-02 -7.5289749753497748e-01 -6.1429779357790523e-03 8.8108377289709633e-02 1.2018591020996991e-01 -7.5016821999602112e-01 -2.9107933543265237e-02 
      </Row>
      <Row Index="12">
        4.2017558219037116e-01 -2.1606410564352040e-02 -2.1187800858459451e+00 -4.7449249838300078e-01 4.4033531678504434e-01 -1.2323022200049408e-01 2.9955425520830997e-01 2.9292421454691930e-01 4.4579277865929523e-01 1.0983173031500579e-01 -2.9311169633689677e-01 2.0050500554934264e-01 4.4378084628476371e+00 8.4658656121880593e-01 -5.9500848432890618e-01 2.1922452554511818e-01 -4.6798427938362686e-01 -4.3184224401342014e-01 -7.8322451775361068e-01 -3.5880268163151557e-01 8.7358581541235394e-02 -1.9680181539877006e-01 -2.7024502311311518e+00 -5.0381992742558124e-01 2.4062538691116236e-01 1.6908546170764899e-01 1.6834716971743827e-01 -6.2638802242701463e-02 4.4548954888027559e-01 -2.0162985705241840e-01 -2.8592960127882738e-01 -6.9477940000343463e-02 4.4305408790962258e-01 -1.0230807283699417e-01 1.4058707295183465e-01 -1.4214701437736676e-02 -2.6772224312515547e-01 -1.8260171221200827e-02 1.4714587462286259e-02 6.0567951379012198e-02 -1.3463988097534049e-01 -6.9525285824693139e-02 -4.6232245971138414e-01 -5.3154498659569935e-02 2.6043399884725565e-02 4.7956192231427830e-02 8.5424379846835818e-02 -1.3677568517641911e-01 5.8455173437174879e-02 -2.5797884322244169e-01 -1.3961336197750596e-01 -1.3184322199048587e-01 2.3928411932126326e-01 9.8092762066051553e-03 2.1337736186261974e-02 1.6635973523517736e-01 -2.5134622084072955e-01 -1.4989235286809544e-01 -8.1111803481569628e-02 -3.5764534208728638e-01 -2.4083959091380963e-01 2.2078442255905183e-02 -4.1385229178417027e-01 -3.2699401174151807e-02 5.4350391776077235e-02 -1.0757994313453548e-01 6.9940057751702117e-02 9.3212755258695879e-03 1.3118744024750778e-01 3.6747251155537375e-01 -2.3853362938502552e-04 
      </Row>
      <Row Index="13">
        -2.8908726163193788e-02 -8.7758580418012169e-02 -4.4630951252317769e-01 -2.6233337835270647e+00 -2.6346895005472581e-01 -5.5795535992641393e-02 6.0288393421292247e-02 1.0344721825960497e+00 -1.6717142173521582e-01 1.3141435709715218e-01 -4.7305068300874992e-01 3.6582530578141981e-02 8.4658656121903997e-01 7.2328976735100898e+00 7.9019947679469216e-01 3.2502488365083482e-01 -2.0755606287868686e-01 -1.9513439781776465e+00 7.5591207435152397e-01 -5.5716694426328250e-01 7.4864898387798806e-02 -1.5734026124347045e-02 -2.6151790994496943e-01 -3.8744132987158619e+00 -5.2768475230213663e-01 -1.6618963077583768e-01 3.4534528480542143e-02 1.4141195932289790e+00 -1.0934930661590914e+00 2.9180691025603783e-01 4.2410425034175586e-01 8.3444515461535404e-02 -4.7454472170806589e-02 1.2700698453676429e-01 -9.0531232385885119e-02 4.0892070375328937e-02 -9.2342894402246689e-03 7.2436561652502285e-01 -4.6616975922260973e-01 -3.9245754946923644e-02 -1.0716931127082821e-01 9.6181321176363438e-02 1.0433334094268570e-01 -2.9196824831016627e-03 -3.0439836756637778e-02 -4.0013392189199914e-02 2.6079448082564669e-02 -4.0670862963839038e-02 -4.6640729181884000e-02 1.6902521269292037e-02 2.2574609726015601e-01 7.9040833195121132e-02 7.3643941884196928e-02 5.1983082990331297e-01 -2.4765590295321546e-02 7.1524193878411413e-02 -9.6204593077571621e-02 -2.2117003855170769e-01 -1.8355766949386232e-01 -1.0151282785601665e-01 3.2317583152486840e-01 -4.7477594082223934e-02 5.1191290389428989e-02 -8.2227269131896832e-02 -1.8769401110693862e-02 -5.5066869084643637e-02 -8.5866023120685017e-03 -1.9455707824529811e-01 -3.3977885187150553e-01 -6.2394023107372160e-02 -5.4322919697246098e-02 
      </Row>
      <Row Index="14">
        -4.4940604703984000e-01 4.0124345377459197e-01 3.2101610363212607e-01 3.7233158591340798e-02 -1.3770406431917874e+00 -2.1742060926777815e-02 -8.6644852840824504e-01 -7.5632977635157361e-01 -5.2225473734278161e-01 1.4643984144878816e-01 -1.1416622615959765e-01 -5.7908376031598641e-01 -5.9500848432820452e-01 7.9019947679415692e-01 4.8716785989053433e+00 1.9251994106521675e-02 1.3813285915240108e+00 -2.7198872058625412e-01 1.1591616036318260e+00 -3.2565760672971289e-01 2.7247671386564420e-01 3.1356841455590867e-01 2.8297651039390814e-01 -6.7635404541417732e-01 -2.3688523628791636e+00 -1.4355518790459840e-01 -7.1011846701217385e-01 6.9576161031964934e-01 -8.7949125249032278e-01 3.0503939636358518e-01 1.7543163873996792e-01 -2.5541674341448017e-01 -1.3366781151811014e-01 2.1616878381190910e-01 4.0802479614872433e-01 3.1408118460133472e-02 6.8678125587764205e-01 -3.5286840017431564e-01 -1.9541265487985945e-01 -2.4021518235162687e-02 -9.3904941292420469e-02 -9.9250799618757712e-02 1.6596741559456957e-01 1.4173802886700837e-02 1.0153845833854233e-01 -7.2980257821854855e-02 -2.1860444383301741e-01 4.7154179888404757e-02 -7.2256825068511943e-02 8.0822388875946838e-02 2.8134572442113792e-01 -1.4141599246032405e-01 -1.0772739542883977e-01 -7.7244212092310749e-02 5.3894726725817221e-01 -8.9542565566593069e-02 4.2955885937718241e-01 3.0261228962015796e-01 -1.4637410681732160e-02 8.8387256996276239e-02 1.2101941264390401e-01 1.0422176040193233e-01 1.4843751200199692e-01 2.1628430866418233e-02 1.9540654673313523e-01 -4.0875744025319509e-02 -1.8755566273856406e-01 1.8921931503754139e-01 -1.0134214998884974e-01 -1.1450077623883248e-01 3.8429881887102092e-02 
      </Row>
      <Row Index="15">
        1.2453431875407484e-01 -2.5672034929094423e-01 -5.5948933056876737e-01 5.5453433560590071e-02 3.2951564919069665e-01 -5.4903507793749782e+00 -2.0137196428968973e-01 8.8974503395123694e-02 5.3944929499130034e-01 -1.3034576461556664e+00 3.4588624931144518e-01 4.9440372795099513e-01 2.1922452554214242e-01 3.2502488365742954e-01 1.9251994116352922e-02 1.1328631633502765e+01 4.9519580951438114e-01 -3.2129534903722790e-01 -7.4170502433721797e-01 1.7404012808916980e+00 -1.8709043427617333e-01 -2.7108699505171779e-01 -1.7534856949370442e-01 -2.1485292968744965e-01 -1.0317351525339188e-01 -9.0075991510035767e+00 -2.4858006843945918e-01 3.7331116328307434e-02 5.1775571722322755e-01 -2.0463743636239773e+00 -3.4626832154301829e-01 -8.4232052201084789e-02 2.6982732075858895e-01 -9.3676424705146644e-02 1.9909681967901116e-01 1.4059866194541026e+00 3.3953599503126863e-01 -3.0979341905551772e-01 1.1553840023883866e-01 5.0114100328747146e-01 3.2845576459745740e-01 -5.6206600942976248e-03 -7.9724816642150054e-01 6.7497907710837995e-02 1.9109097374921464e-02 -3.1615898327254102e+00 7.4951431186867090e-03 4.6033530563698521e-02 -6.1511010980307979e-02 -1.7486819938809894e+00 -2.2138395594310190e-01 -3.9916695874477659e-02 3.6864808164148216e-01 3.8068632064546359e-02 1.1262740540582328e-01 -2.7281271765165664e+00 1.5905340337216989e-01 1.5489872276021854e-01 -8.0614607473132482e-02 -1.3786586006916961e+00 -1.5909732806186866e-01 8.7378477821532907e-02 -1.4708187229172209e-01 -1.8667531210948857e-02 6.5185678580860745e-02 -1.0700914135277136e+01 -9.0765842290010695e-02 5.3040884307623617e-02 2.8814810490766440e-01 -1.0326472857127941e+01 -1.7413927973495191e-01 
      </Row>
      <Row Index="16">
        3.0237626444875737e-01 -1.2917626982546376e-01 3.6588404608740699e-01 2.2831645010940277e-01 -6.7962618701332678e-01 -3.2824373184246103e-01 -2.5101287123369458e+00 2.7884159743034259e-01 5.3566095237539024e-02 1.2009517032875652e-01 -8.8139098110132874e-01 3.6344766191278965e-01 -4.6798427938382370e-01 -2.0755606287881156e-01 1.3813285915241857e+00 4.9519580950791198e-01 5.1739683237396479e+00 3.4769402736004440e-01 -2.3269762155396778e-02 -9.8469522611189672e-02 5.8539585203555256e-01 -1.3472515321388479e-01 9.7367375561477676e-02 1.7113449342963194e-01 -6.6711957998761950e-01 -1.4530308883085261e-01 -2.3540487818635234e+00 -6.1717476334057231e-01 4.7282948357363797e-02 -1.2947359224555507e-01 -3.1604977671511314e-01 -1.3160596399165181e-01 2.5908530134036031e-02 -2.7134779863325642e-01 -5.7365848495621596e-02 -5.9949035178535059e-02 -4.2262997011775205e-01 2.7085906365645551e-01 1.0636220695668765e-01 1.1487863823010015e-01 2.1856966223293764e-01 -1.5585982736731871e-01 4.0819595490979257e-02 7.9598946250690084e-02 1.1649158112294458e-02 -1.6737752000637707e-02 4.7529672174423981e-01 -9.7438596972658567e-02 6.0686970369427599e-02 -1.1696339020199104e-01 4.4713058766454594e-04 -6.9226340944392867e-02 -1.7484862611614893e-01 1.4459144480484684e-01 2.3392574365302628e-02 6.1824904375410092e-02 -7.9102108351265965e-02 -3.4745618946691892e-01 7.4977220449354398e-02 -1.4306725678029816e-01 -5.1761631148448707e-02 7.4182210065019932e-02 -2.4443335996281637e-02 -3.8012631465720897e-02 -1.5270734983706201e-02 -3.5238074698031635e-01 2.0624933382567395e-01 -1.9962364211313896e-01 2.1229046902359994e-02 -3.6846633778512589e-01 -2.1672444935679047e-02 
      </Row>
      <Row Index="17">
        6.9038279833280747e-01 -2.8945114441413589e-01 2.5623589639465300e-01 6.7426684364917244e-01 -2.6577940066317829e-01 1.6476020357572052e-01 -1.5015924056143160e-02 -1.0891609205200878e+00 7.7499682020852334e-01 2.1001459628222385e-01 -2.6569973343252307e-01 5.9909082734195007e-01 -4.3184224401342319e-01 -1.9513439781778534e+00 -2.7198872058656920e-01 -3.2129534903917367e-01 3.4769402735983934e-01 4.5532966145235756e+00 -1.7206572463085863e+00 -3.7373448576244234e-01 4.2660772716933237e-01 -3.4946858871503417e-01 1.9254878397451325e-02 9.6355946445750185e-01 2.6816310481924582e-01 1.6727806459637806e-01 -2.4829210470785798e-01 -3.7268106362906277e+00 1.2062701341373014e+00 4.4640833132122726e-01 -8.0100886100084734e-01 7.3780133918228200e-02 -5.6580853122532408e-02 1.4399879635697255e-01 -2.1061222509713357e-01 -4.9560119196589508e-02 7.4225783528961836e-03 3.2127832311370619e-01 6.2881983597956748e-01 -4.2339696159849338e-02 2.3686852907610878e-01 -2.5428528890026766e-02 -1.0648040737625764e-01 7.5817540890746604e-02 -1.7430364751303461e-02 1.2096791977339888e-01 -6.5795504436332974e-02 -1.3998419421699237e-01 -1.1097133941421422e-02 1.8575856198759993e-01 -4.5508926564389096e-01 1.1503277297925496e-02 -1.1058747830046402e-01 -3.3502467979374939e-01 -1.2052387008448621e-01 3.8849915548770375e-02 1.5971637579228481e-03 -5.4053110800769610e-01 1.0870927678817170e-01 2.1374746934906369e-01 -4.7539684289927309e-01 5.0332644919115183e-02 -6.2144095326710343e-02 6.4804993632100766e-02 -7.4474431502672883e-02 6.4563483985470205e-01 2.4909197469706185e-03 -3.3824963149404075e-01 2.7358562536398112e-01 4.9033332878874947e-01 -2.0747236545992115e-01 
      </Row>
      <Row Index="18">
        -7.2708482531435148e-01 1.3759501231309373e-01 5.3766868873846052e-01 -7.2510434695111869e-02 -5.9373688911005806e-01 2.4680956105552743e-01 -5.3973256194896402e-02 5.2785852815952139e-01 -9.9473907693279084e-01 -1.8039555978220490e-01 7.1462657656314388e-01 -2.7733002716383859e-01 -7.8322451775337509e-01 7.5591207435155505e-01 1.1591616036318766e+00 -7.4170502434157981e-01 -2.3269762155625984e-02 -1.7206572463087701e+00 2.1519889020647005e+00 5.1517540000127116e-01 -4.5540445988811185e-01 1.1359631918840035e-01 4.6609691499975153e-01 -4.8335838331058711e-01 -6.3247789381644381e-01 2.3827093207801980e-01 1.3207232138306207e-01 1.4215042308913532e+00 -1.4242477722240285e+00 -7.2350146361577022e-02 5.3475824058558930e-01 3.4982716117486642e-02 -1.9914712837843654e-01 7.5954194877644182e-03 -9.1561482922238466e-02 -1.7651494051054331e-02 -7.8522038385658355e-02 1.4208858758382348e-01 -3.2691842192954834e-01 -1.8799412375483104e-03 -1.4528601489470083e-01 4.1234554915712984e-02 2.8353548190188915e-01 -7.5140330394473764e-02 -2.6460779697044003e-03 -1.0951253881929368e-01 3.6810587629480196e-02 5.3910180788400819e-02 -2.4271383510353628e-03 1.2469074930011678e-01 3.1313318319038319e-01 1.6061174075352819e-02 -1.5646360048687882e-01 1.0775093828910050e-01 -2.5199219328520879e-02 -1.3549271216652523e-01 1.1873395533975595e-02 2.2823374192644283e-02 -4.9167812183005158e-02 1.7725027718089159e-01 3.1153296719185875e-01 -5.9259765957398569e-02 2.2042332000761095e-01 -1.2886927547660250e-02 -3.6230135985804809e-02 -1.5025938913542924e-01 6.5527888821235239e-03 6.7181877546494684e-02 -2.7632675415373414e-01 -3.9056031926507206e-01 1.8226302987417142e-01 
      </Row>
      <Row Index="19">
        -1.4191320590652873e-01 -1.0346515069184392e-01 2.9000983128194296e-01 1.3002508151246150e-01 -6.6827523576585335e-02 -1.2096658260657605e+00 5.0053355876335082e-02 -1.3944909561518004e-01 -2.1591436059631419e-01 -1.2024853195772356e+00 3.2099104727888239e-01 2.1488345212700721e-01 -3.5880268163233314e-01 -5.5716694426121405e-01 -3.2565760672780153e-01 1.7404012808974845e+00 -9.8469522608999771e-02 -3.7373448576263452e-01 5.1517540000267525e-01 2.7133205691368065e+00 -2.5065318169227718e-02 -9.1654497018469255e-02 9.5416759553131086e-02 2.0095991029628599e-01 2.3172841652187759e-01 -2.3093086921371753e+00 7.1439167332371586e-02 7.8170024311790054e-01 -1.3781442268468960e-02 -1.5117256257769078e+00 -6.8325453862863261e-02 6.6699160474310196e-02 -8.7144985774406936e-02 2.6337775277072456e-01 -1.0440869748150265e-01 4.6331654592586613e-01 1.0688675406553572e-01 -3.8153398709367126e-01 -3.4447342546170767e-02 2.0734769526589145e-01 7.2055084007069947e-02 3.4798990382709366e-02 -1.0022787177966136e-01 -2.2827272325488535e-02 -8.1290762119122766e-03 -1.4066123621472770e+00 -1.2864109718314309e-02 1.2424785839468011e-01 -6.3107973334883632e-02 -3.6474999916453099e-01 -3.1361573529852471e-02 6.9770000834494736e-02 -4.2158251377124450e-02 -1.9388343013145770e-01 -4.5038055458220289e-02 -1.3304492610114735e+00 9.8002588107769462e-02 4.6658837315762219e-01 6.3208332437750425e-02 -1.3164527771740797e-01 -3.0175478522556878e-02 -1.4943435223582408e-02 1.8258436338802955e-01 9.4032999182195098e-02 -5.1597224040121112e-02 -4.1444468867398463e+00 -3.1816791296556769e-02 2.5572183540049548e-01 1.8920280772470985e-01 -4.4555596529815347e+00 1.5753582094112878e-01 
      </Row>
      <Row Index="20">
        4.7259228449149521e-01 7.5807983931314410e-02 4.7266642737406050e-02 -5.9844852993013620e-02 -9.0161785916229753e-02 8.5098234353956789e-02 -2.6701966367880109e-01 -1.5105008937896552e-01 2.5591500402558509e-01 4.2403863336878046e-02 -1.1224352245157458e+00 -1.8297479218193427e-01 8.7358581541286673e-02 7.4864898387584033e-02 2.7247671386531924e-01 -1.8709043427580582e-01 5.8539585203550937e-01 4.2660772716915574e-01 -4.5540445988808920e-01 -2.5065318168596647e-02 8.8179759035697292e-01 1.5278732526400471e-01 -1.1566984160386734e-01 -1.4995364681773812e-01 -7.4159419470448198e-02 1.3661088150181239e-01 -3.5646019685174091e-01 -3.4166582702858900e-01 4.5656724214321409e-01 4.7782405998032587e-02 -2.1023688685912664e-01 -1.0754805617742073e-01 -1.3925196524635391e-02 1.7239968818927287e-01 1.7519157156520582e-02 -3.2875994032542363e-02 2.7422668365158598e-01 -6.2314006600193872e-02 1.3488634594164128e-01 -8.7596887565428039e-04 4.5661971744027197e-02 -8.0991991712942815e-02 1.5860777132619241e-02 1.9251644682517166e-02 -3.4780949905691416e-03 5.6645883793346702e-02 -9.5008807212638435e-02 -6.4811030921484436e-03 -3.0808424353491515e-02 6.2874202085243164e-02 -5.4060165691944495e-02 -5.6394551501527918e-02 -3.2301463070399120e-02 -1.5072658682442910e-01 6.3551499724008559e-02 3.7657942006176962e-02 1.7208100110845498e-01 2.7926447440046374e-02 7.6036453942842516e-02 4.8625131152565629e-02 -1.4283659440727439e-01 8.4132792963829903e-02 5.9484008011494154e-03 4.9569968005052312e-02 2.1560074138042264e-02 2.6688620019695330e-01 -5.9122530671229509e-02 6.2218937166178094e-03 1.6300823783632207e-01 2.2803241648108616e-01 -1.3012695513837835e-01 
      </Row>
      <Row Index="21">
        -1.1838494907908527e-01 3.7366426463169466e-01 5.4735483466725653e-02 -6.0561996071734445e-02 -2.2571529421439410e-01 1.5235864633736398e-01 1.2063057973113422e-01 1.7660077474926572e-01 -1.4960867696537442e-03 7.3314691877847338e-02 -2.5104882368376158e-01 -9.3144844703152008e-01 -1.9680181539869845e-01 -1.5734026124436529e-02 3.1356841455571316e-01 -2.7108699505107775e-01 -1.3472515321419970e-01 -3.4946858871520387e-01 1.1359631918827792e-01 -9.1654497018269845e-02 1.5278732526395133e-01 6.2677447131005271e-01 1.8818569680269409e-01 1.4431585615522455e-01 -1.6683759934395970e-01 2.4270527961060198e-01 -3.5371441446218649e-02 2.7193785453349795e-01 -1.1111922113437697e-01 7.0637018401432702e-02 4.5661776572862037e-02 1.3529749350780457e-01 -5.2928952152298772e-02 -9.6170770438206155e-02 -5.3712881677880610e-02 -2.8959797402119972e-02 -8.2607294045351470e-02 9.4025494202983839e-02 1.8237161644798910e-02 -3.1138198447958888e-02 -9.1341135483284125e-02 1.4651214344387309e-01 4.0064855547642733e-02 -1.0617157428598145e-02 -2.2252203988444963e-02 1.0683528756978895e-01 -2.3257789141172269e-03 -4.2322948436769064e-02 2.6637779790113787e-02 8.5242567466683003e-02 8.3107006121711846e-02 1.8762899517490159e-01 3.0341021568715695e-02 9.9947687891536963e-02 -3.1825088435379012e-02 9.5694776691987518e-02 -1.2134676636967406e-01 -2.8256940251550164e-02 -1.1523102008222498e-02 4.9347772629035752e-02 9.7724326861908531e-02 -9.7774480641120057e-02 1.3919380675650760e-02 -1.1096711856883159e-02 -2.9445019101009492e-02 4.2574495883008590e-01 2.0275373894994498e-02 -4.9895992305271475e-02 -4.1819758400450768e-02 3.9953734412728670e-01 5.7226675649075243e-03 
      </Row>
      <Row Index="22">
        -3.3921830732713709e-01 1.1822687762648401e-02 1.1932948198880760e+00 1.5148283103103063e-01 -1.5617280079835555e-01 1.8339557908040360e-01 -2.9597692420941832e-02 -1.2303526017096739e-01 -2.9174285578137393e-01 -5.6874477070476867e-02 5.6903696811737736e-02 -1.7766909745388285e-01 -2.7024502311311496e+00 -2.6151790994490343e-01 2.8297651039430555e-01 -1.7534856949437216e-01 9.7367375561237535e-02 1.9254878397436739e-02 4.6609691499981815e-01 9.5416759553042962e-02 -1.1566984160383256e-01 1.8818569680266992e-01 2.0737182671950936e+00 3.3769062895795854e-01 -1.6930440799638000e-01 -5.8459444603392224e-02 -8.9876274621162933e-02 1.9859423383981251e-01 -3.3120360577089170e-01 1.9749996995258731e-01 3.4069402508147306e-01 1.4705768495038909e-01 -3.0538653326282666e-01 -1.3803191468014231e-02 -7.2883866183303392e-02 -2.1740794987338941e-02 2.3919781716137239e-01 -3.2659992576429320e-02 -5.7325127503233486e-02 -3.4454087184700610e-02 4.5789093648200427e-02 1.0430833462149164e-01 4.6513289380696210e-01 3.4066747317135160e-02 -2.0147191697162045e-02 7.1989273627505734e-02 -6.8202586324651537e-02 8.5176934052273848e-02 -2.2779618870802987e-02 1.4196696029245687e-01 1.5688085364895321e-01 1.8659952179122047e-01 -2.0553770275692045e-02 1.4193494054946523e-01 -2.3266016245684678e-02 -1.7672089258578549e-02 1.6102829856225576e-01 9.7134512258030631e-02 3.1800708251118165e-02 1.8916012958322984e-01 2.5025101761416751e-01 -6.2052954309519105e-02 2.8423123349900448e-01 -1.5471391688728124e-02 -2.1991572054801314e-02 2.7904220786176076e-01 -5.9598116158968158e-02 -5.0207120999710697e-03 -1.5667816282695937e-01 3.8266787795441390e-02 3.5849144478424355e-02 
      </Row>
      <Row Index="23">
        -4.0718371782912655e-02 4.9568448917697683e-02 9.6299190608002155e-02 1.1486136710464721e+00 2.2931129563570624e-01 5.0886702737717365e-02 7.4420942493169162e-02 -1.6071744466043497e-01 8.1425693778434949e-02 1.0845512816576336e-02 3.0711034288245309e-01 -1.6765971195139839e-01 -5.0381992742573600e-01 -3.8744132987156057e+00 -6.7635404541443178e-01 -2.1485292968448461e-01 1.7113449342938525e-01 9.6355946445736440e-01 -4.8335838331059799e-01 2.0095991029663471e-01 -1.4995364681790013e-01 1.4431585615524412e-01 3.3769062895809621e-01 3.3456702775486815e+00 4.0526616728174936e-01 2.0359602577673608e-01 -1.8135662079702985e-01 -1.1364927109995904e+00 5.4128741454653218e-01 -1.8842523194813390e-01 -1.7622987008317040e-01 5.0481064016027304e-02 8.8010077403994302e-02 -6.0833942935407115e-01 -5.0428099587548000e-03 -4.0272541233775216e-02 -2.2672888541157238e-01 -2.0308929762587491e-01 1.5189760748926096e-01 1.0062800862888441e-02 2.0289884237906342e-02 -7.7010756243490186e-03 -5.2051668829016073e-02 3.4997450851951051e-02 -8.7525208966212353e-03 7.6247559147157529e-02 5.8173547333003117e-02 -7.5593680658751161e-02 7.6701864212838866e-02 4.1232945519414921e-04 -9.5412566222164708e-02 6.4048334731888257e-02 5.2527132602166710e-02 6.2536974015804914e-01 -1.4031039433518966e-02 3.0502501140909744e-02 -1.7164176967557790e-01 -2.1372100882962805e-01 7.5624737796146799e-02 2.0840645395618702e-02 -6.5424541534293543e-02 -3.0446613809441400e-02 -5.4582955411509711e-02 -6.8279714273792355e-02 -7.0636771635093978e-03 2.2138371009023983e-01 6.2011571466577459e-02 9.5717854050584028e-03 4.6857707730914161e-03 2.9279632921344506e-01 8.8995451187653118e-02 
      </Row>
      <Row Index="24">
        8.0671605992775786e-02 -1.6198988686071267e-01 -9.5012433752968473e-02 2.9337942653414550e-02 5.2157729095174044e-01 2.2709640487964644e-02 3.5628938354048434e-01 3.8149281682230474e-01 2.8045123274035966e-01 -6.3582558228609462e-02 9.0354332209069188e-02 2.6846411383414953e-01 2.4062538691075919e-01 -5.2768475230186107e-01 -2.3688523628791125e+00 -1.0317351524901391e-01 -6.6711957998758309e-01 2.6816310481912048e-01 -6.3247789381636288e-01 2.3172841652270870e-01 -7.4159419470604199e-02 -1.6683759934402687e-01 -1.6930440799614943e-01 4.0526616728163523e-01 1.4009026036684935e+00 1.2561518330488713e-01 3.8112909863409861e-01 -4.5939287354253361e-01 4.6845501061663353e-01 -1.9260942152652097e-01 -7.6825438040304728e-02 9.4553847474329850e-02 9.6106653195905056e-02 -6.1998390012661830e-02 -2.2752393648294944e-01 -2.1591247197156604e-02 -3.1377550720468117e-01 2.9556052506453651e-01 1.1309440882784499e-01 8.5550056458684187e-03 4.1014237976802870e-02 5.0586683468053728e-02 -1.2536997396992736e-01 2.4272316438517239e-03 -3.9360520696747225e-02 3.2821700879532067e-02 9.7962827397349406e-02 -2.4591018744360205e-02 4.7496410041109577e-02 -7.5807463784758056e-03 -7.6378323750393218e-02 5.4171236572742476e-02 3.5147078808849930e-02 1.0792198257072255e-02 -1.6228912970207476e-01 3.6981561662469159e-02 -1.9510280768482011e-01 -2.0678226641899183e-01 1.6089923472018375e-02 -2.5017604548446162e-02 -3.9597247100786541e-02 -4.3997436718723193e-02 -7.9152490345794371e-02 1.6503179075388827e-03 -1.0643396713781084e-01 6.6204990407490769e-02 8.7427848654748494e-02 -1.5997282451351472e-01 5.4825926309486489e-03 5.4253607656364805e-02 -7.7402665347780952e-02 
      </Row>
      <Row Index="25">
        -1.0129814249054073e-01 2.3628232883110750e-01 3.1902616753054680e-01 -1.8222324616009394e-02 -9.6492478060925230e-02 4.4238242802553760e+00 3.9468387370846458e-02 2.3109038935996437e-01 -2.6368963120906758e-01 1.4684444651186519e+00 -2.9156177519273369e-01 -4.5046829456531079e-01 1.6908546171017563e-01 -1.6618963078165272e-01 -1.4355518791285271e-01 -9.0075991510039533e+00 -1.4530308883642973e-01 1.6727806459496744e-01 2.3827093207411421e-01 -2.3093086921325217e+00 1.3661088150226885e-01 2.4270527961109917e-01 -5.8459444603944859e-02 2.0359602577915603e-01 1.2561518330860125e-01 7.8994304926048731e+00 8.1235073895181462e-02 -2.4402868071532607e-01 -3.1114753900760733e-01 1.8290916499262109e+00 2.9975230300595901e-01 -6.1121713659769705e-03 -1.4279246397978634e-01 -8.7325031854061430e-02 -1.0304486391821639e-01 -1.2714578537243313e+00 -3.8922233229091391e-01 4.3924426261509664e-01 -1.0203477166460989e-01 -3.9955815514874748e-01 -2.1420177035763191e-01 -2.0126022082464459e-02 6.5909867068107120e-01 -3.6114734590544290e-02 -8.8910300942882381e-03 2.9668466989255466e+00 4.2576321001296852e-02 -8.7931487826895804e-02 1.0966136050924490e-01 1.3500096255533576e+00 2.0063898609755704e-01 -1.4152452097872678e-02 -3.0373093854357924e-01 8.6266623221367023e-02 -6.7979901778433729e-02 2.7553622986046937e+00 -2.0606071046266572e-01 -3.3398434693856138e-01 3.5515010456768942e-02 9.0586919142358813e-01 1.5101223181539569e-01 -4.0247660722637212e-02 1.8032688062429841e-02 -3.7339572075086674e-02 -2.5338246884314491e-02 9.5046133422472270e+00 1.0796024968551697e-01 -1.6514544732812053e-01 -2.9070875750940528e-01 9.3913283160927339e+00 3.9718690546705127e-02 
      </Row>
      <Row Index="26">
        -7.5093410909324559e-02 4.4579559042664266e-02 -1.5265991442261123e-02 -7.2326350885783292e-02 4.0852526334832184e-01 1.3754465483057832e-01 9.3247408116564034e-01 -2.4673632945536736e-01 -3.9471461970453925e-02 -5.7505046448054362e-02 4.7018530236606804e-01 -5.2242266128416759e-02 1.6834716971761929e-01 3.4534528480531845e-02 -7.1011846701233439e-01 -2.4858006843591840e-01 -2.3540487818634150e+00 -2.4829210470797364e-01 1.3207232138289751e-01 7.1439167333613801e-02 -3.5646019685174746e-01 -3.5371441446403779e-02 -8.9876274621353336e-02 -1.8135662079709094e-01 3.8112909863415900e-01 8.1235073892139048e-02 1.4144221384464328e+00 4.6992742234941121e-01 -7.4673252018683189e-02 2.7674872063343663e-02 1.2165554057974394e-01 4.7665413019805120e-02 -4.7077303829880429e-02 2.1894001158705881e-01 9.9878749589005861e-02 5.4849837243740041e-03 3.7186080882778316e-01 -2.3000969105190483e-01 -5.2288106077988089e-02 -2.1960676453811931e-02 -1.4175171876397932e-01 5.2734624466520524e-02 6.1671519438021363e-02 -4.6415018387243934e-02 -3.7168784424513601e-03 -4.9833529207510968e-03 -2.5269044378573774e-01 5.8617114741251558e-02 -5.1910738529791556e-02 4.1274928233703642e-02 -3.9765696309843057e-02 -1.7114744571493368e-03 1.4603501672100033e-02 -1.7779903676988112e-01 3.4440938805693468e-02 -2.9789596992722545e-02 3.1892801559121842e-01 2.5997145723139292e-01 -4.4930712573678963e-02 5.0348383726403309e-02 -1.2276828822969313e-02 -3.4139213040447258e-02 3.8066989654319969e-02 4.8061858159710633e-02 3.3108685184013040e-02 1.2056339067952990e-01 -1.2168743310666960e-01 1.6908057340824567e-01 5.2395677876941535e-02 1.3863739578320550e-01 5.9057768453576000e-02 
      </Row>
      <Row Index="27">
        -5.5449938321616110e-01 1.4058576440632897e-01 1.0581132378842506e-01 -3.0504969306741714e-01 8.0142469186993859e-02 -7.3550994031736788e-02 8.4499760526376200e-02 -1.1316710360116760e+00 -3.4818479417785930e-01 -3.9416120132946375e-01 4.8545583330772946e-01 -3.2819734333682787e-01 -6.2638802241858527e-02 1.4141195932285209e+00 6.9576161031868855e-01 3.7331116338482295e-02 -6.1717476334002352e-01 -3.7268106362907054e+00 1.4215042308903945e+00 7.8170024312058395e-01 -3.4166582702893189e-01 2.7193785453299607e-01 1.9859423383915309e-01 -1.1364927109991485e+00 -4.5939287354203168e-01 -2.4402868072354655e-01 4.6992742234916207e-01 5.2468389926521350e+00 -8.2998729779470881e-01 -5.2530148358172823e-01 4.7047115370450610e-01 5.5709068438402939e-02 -8.0121319132256508e-02 8.1563211664620439e-02 1.8753748096369127e-01 9.9792633887142365e-02 2.5787191340849530e-01 -1.7431839081373506e+00 -6.2996046323253752e-01 2.8135012156846422e-02 -2.2481218675889103e-01 2.9246645015451003e-02 2.4006839885141806e-01 -1.1302373438791680e-01 3.7548642286115319e-02 -2.7668966220459890e-01 -5.4032196386081921e-02 3.9066195149718896e-01 -1.4291696842213875e-01 -1.1132291975991762e-01 3.3412866904885985e-01 1.0097247455012301e-01 5.7410543237214687e-03 -2.6320976446735679e-03 1.4433910722633000e-01 -1.9956910075006287e-01 2.3149359657370111e-01 1.9707804044895401e+00 -8.1118196245106494e-02 -1.3289056681652958e-01 2.1988138887851003e-01 -5.0250655043846806e-02 1.7414473011640702e-01 3.3847538639541111e-02 9.3846105265919980e-02 -9.1621589525830127e-01 -9.8323256020080907e-02 1.1000135496542875e+00 2.8030772041783497e-01 -8.9621573582477554e-01 5.9860335703253886e-01 
      </Row>
      <Row Index="28">
        7.3796147739697293e-01 -1.2915289934871182e-01 -2.7579555161806796e-01 2.7231578172374044e-01 4.1897433972518983e-01 -1.9867786348448044e-01 7.0132745201163638e-02 -5.5914384057473832e-01 6.5095454848984502e-01 -2.6158460428191362e-02 -3.8396292543190957e-01 2.8602410414778318e-01 4.4548954888029069e-01 -1.0934930661591618e+00 -8.7949125249067550e-01 5.1775571722853808e-01 4.7282948357739704e-02 1.2062701341371229e+00 -1.4242477722240192e+00 -1.3781442266667559e-02 4.5656724214310845e-01 -1.1111922113450623e-01 -3.3120360577100866e-01 5.4128741454672358e-01 4.6845501061685851e-01 -3.1114753901222847e-01 -7.4673252018919292e-02 -8.2998729779531022e-01 1.4196975237047584e+00 -1.0112035355922454e-01 -6.9420305753682554e-01 4.0566339362671684e-03 8.5427432357172289e-02 1.3507599729537453e-01 7.8960404924890884e-02 3.3223976904085316e-02 1.7179373006037571e-01 -6.1497229044269064e-01 3.1714755322132232e-01 4.1278849700461390e-02 1.7223434809441190e-01 -4.7388888225595713e-02 -2.1797788755457845e-01 3.0350474184437648e-02 1.1699303903597733e-02 -4.7306028878988521e-02 -6.8076921683737218e-02 -2.2627051940693810e-02 -5.4443288899920228e-03 -1.0454397484518875e-01 -4.0567939230934724e-01 1.2830554751662927e-02 6.9550018638019753e-02 -2.4049886625891018e-01 -8.9953833636165631e-03 -4.8281333087189460e-02 1.1396406514277158e-01 2.7904669585929148e-01 1.5807397515926663e-01 -9.0480466953927419e-02 -4.0458820424022690e-01 6.6779698414758490e-02 -1.2904733503243868e-01 6.9862149171130178e-02 3.1628343310789925e-02 -2.4242310282092036e-01 -3.6702312246094035e-02 2.2282163765213683e-01 4.9160087823579846e-01 -1.3612272980292231e-01 -2.0598153354394574e-02 
      </Row>
      <Row Index="29">
        1.7216344711855738e-01 1.0806161204265308e-01 2.7688551644326057e-02 -1.1683263663198207e-01 -1.7673098432628068e-01 1.2405697283535091e+00 7.5795057737783722e-02 -5.5491411918164452e-02 5.7516154768465277e-02 6.7763179632281556e-01 -2.9722649086885106e-01 -1.8029967914342659e-01 -2.0162985705170999e-01 2.9180691025447081e-01 3.0503939636187311e-01 -2.0463743636282032e+00 -1.2947359224735822e-01 4.4640833132107605e-01 -7.2350146362580969e-02 -1.5117256257765537e+00 4.7782405998423899e-02 7.0637018401648696e-02 1.9749996995247426e-01 -1.8842523194775562e-01 -1.9260942152581068e-01 1.8290916499295740e+00 2.7674872064384196e-02 -5.2530148357898665e-01 -1.0112035355778344e-01 1.2038918142849666e+00 4.4219020691351391e-02 -9.7431255256260341e-03 -3.2216709496925844e-02 1.6501864982348523e-02 -5.1646232682366719e-02 -3.4017517006799380e-01 -2.2525671621902277e-02 2.2160895389099133e-01 7.3459208591836717e-02 -1.9891005565018005e-01 -8.2148940946886462e-02 -1.7084438324341270e-02 1.3142582360107383e-01 1.2129781701796793e-02 1.8788354628812565e-03 9.7159940999783245e-01 -3.2031750842346718e-02 -4.0033783919749211e-02 1.7414913687361415e-02 4.5901573034203091e-01 -2.0606580072209058e-02 -3.6188280308164580e-02 -5.9739253886372246e-03 -5.4557727150698621e-03 -4.8657374669145201e-02 7.9940164364491895e-01 -3.4470913961219846e-02 -2.4696930627367636e-01 -3.5894808043604703e-02 3.7032748426262702e-01 7.3972125303841882e-03 -5.6119113904526258e-03 -3.7770622969292955e-02 -5.5041374573910617e-03 -1.8345910350949263e-02 3.1930611652309016e+00 3.2924291957372037e-03 -1.3575053338872770e-01 -1.0081195035203777e-01 3.1840016796187784e+00 -6.5647760182756074e-02 
      </Row>
      <Row Index="30">
        -9.7792811434981353e-01 4.4494970849156559e-02 7.0602931425786025e-02 -1.3288954558836519e-01 -6.7286734062909220e-03 1.7797333441637153e-01 2.1303593857536385e-01 2.8160825357317409e-01 -5.0261943325358227e-01 4.1795370591079940e-02 5.1486784225457383e-03 -1.7137576714224242e-01 -2.8592960127913208e-01 4.2410425034199856e-01 1.7543163874052042e-01 -3.4626832154373116e-01 -3.1604977671544332e-01 -8.0100886100057334e-01 5.3475824058565213e-01 -6.8325453863254171e-02 -2.1023688685909611e-01 4.5661776572820417e-02 3.4069402508170443e-01 -1.7622987008347621e-01 -7.6825438040607166e-02 2.9975230300645545e-01 1.2165554057992514e-01 4.7047115370461512e-01 -6.9420305753692191e-01 4.4219020691773192e-02 1.4172834517875317e+00 1.0066273387791441e-01 -3.9443348888778262e-03 2.5857790994846856e-02 7.7106079974823116e-03 -2.8621925481566102e-02 -2.1218807191315092e-01 3.2562476542221397e-01 -4.6747055543519245e-01 -4.6652907076432146e-02 -2.3155052787614078e-01 5.4327653426587436e-02 1.6296922832317579e-01 -3.6914631732281017e-02 1.7834046703782760e-02 1.1750759180095827e-01 4.4734337075051783e-03 -5.6947255936828527e-02 1.1641355921927034e-01 4.1364288193273355e-02 8.2651358223948901e-01 5.1752530083619450e-02 1.0480387406118433e-02 1.0468002243167679e-01 4.8398011233888760e-02 1.1345156114636974e-01 -1.5874954245887946e-01 -1.9714963820399953e-01 -1.2063314550947041e-01 1.9116099890446114e-02 5.3768993713090574e-01 -5.8986554846002265e-02 5.9558751978113750e-02 -8.2429530909433932e-02 2.3418173556340176e-02 3.3960641681014581e-01 -1.5575362642921647e-02 -1.1595164602444274e-01 -6.1695869146785043e-01 3.7342972364273808e-01 2.6396457481501243e-02 
      </Row>
      <Row Index="31">
        -2.0023981778646893e-01 -1.7487856693481518e-02 4.2118872874123303e-02 -3.3988622486787134e-02 1.1571341877714358e-02 1.7077256342541716e-02 1.4880263930988358e-01 -2.5126877984572948e-01 -5.5661271096192344e-03 -2.4423342101097437e-02 1.6413343342464626e-01 -2.1374997304763727e-01 -6.9477940000239463e-02 8.3444515461538998e-02 -2.5541674341465143e-01 -8.4232052198063845e-02 -1.3160596399168703e-01 7.3780133918039226e-02 3.4982716117413375e-02 6.6699160475210906e-02 -1.0754805617753793e-01 1.3529749350767059e-01 1.4705768495030663e-01 5.0481064016019178e-02 9.4553847474409078e-02 -6.1121713684521017e-03 4.7665413019852845e-02 5.5709068438509785e-02 4.0566339363393503e-03 -9.7431255264699181e-03 1.0066273387789848e-01 6.1179962374307217e-01 -1.7397610010748910e-02 -1.5606020977517557e-01 -4.2409388611883439e-02 1.9192551356204957e-03 -8.0828117301142866e-02 -2.7919754549389075e-01 3.0705261381035132e-02 6.7162874265993188e-03 -1.2974386537700333e-01 3.2595947182784585e-01 8.5497147021578845e-02 -4.0567710450303496e-02 -1.9497781634244538e-03 -2.7149178009533540e-02 -1.7178318104697721e-02 -6.7219593332534064e-02 5.0347868747870436e-02 -1.5355861877537750e-03 8.3894768246379328e-02 4.4887732182413104e-01 -3.4997781163864060e-03 1.1916158636591587e-01 -7.2168324509834014e-02 -3.3950909766779239e-02 -4.2152681077495986e-02 1.2484026865061770e-01 -1.9860331686792618e-02 1.2739530589597890e-02 6.4364714840873000e-02 -2.3226936310478927e-01 2.6094239157431767e-02 -3.8744175616317454e-02 -1.9416284943324799e-02 -5.6265907248462865e-02 -2.8599427889503953e-03 9.2795481381399758e-02 -1.2095761758746736e-02 -2.4205366570137159e-02 2.3360240910849223e-01 
      </Row>
      <Row Index="32">
        2.4864566892663365e-02 -1.1255220717029404e-02 -2.7291230011608580e-01 2.6636676155689487e-02 8.8320237534044416e-02 -1.3212330194154806e-01 -1.3829634812945288e-02 9.7074249314370642e-02 7.2072299647904403e-02 3.2398824916160036e-02 -4.2934678946338956e-02 4.0248025528632478e-02 4.4305408790949063e-01 -4.7454472170693235e-02 -1.3366781151791474e-01 2.6982732075856064e-01 2.5908530134128666e-02 -5.6580853122412490e-02 -1.9914712837836784e-01 -8.7144985774560313e-02 -1.3925196524621375e-02 -5.2928952152305246e-02 -3.0538653326276294e-01 8.8010077403922179e-02 9.6106653195827216e-02 -1.4279246397976367e-01 -4.7077303829943726e-02 -8.0121319132612320e-02 8.5427432357050151e-02 -3.2216709496785331e-02 -3.9443348888236474e-03 -1.7397610010818697e-02 1.6305684419999220e-01 -8.6996050943980885e-02 2.9383001951186902e-02 1.2104102970944709e-02 -5.8705763317752711e-03 5.2248474050653186e-02 -3.9170396758566317e-03 5.9448970956378052e-03 -1.4871116722380034e-02 -1.0863566115477168e-02 -1.3626117484002892e-01 2.2846686126886423e-02 1.2276677013488599e-02 -2.5420313458846239e-02 3.3703537130218841e-03 -1.0833182891139548e-03 1.3199016368132456e-02 -6.5871176009277832e-02 3.7726481714129428e-03 -3.2866891955050645e-02 6.5631665763304925e-02 7.1426336163552012e-02 2.6802542063633892e-02 -1.6365161279796734e-02 -2.4605472889647630e-02 -6.1047861250102552e-02 -1.0448715042667926e-02 -6.8451847080676767e-02 -2.1628366520667899e-03 3.9324103275695452e-03 -6.9447919174776149e-02 -2.9920783397150479e-02 1.0370393279009836e-02 -1.3897817516220290e-01 1.0109104220778543e-04 -4.8027177573080504e-02 -3.1925332715314669e-02 -5.1120428473378082e-02 -4.1488160641102265e-02 
      </Row>
      <Row Index="33">
        1.0252451721599007e-01 3.4410094677671574e-02 1.5595409652258169e-01 -3.9405460419126670e-01 -6.6523046835003152e-02 6.5063275466726092e-02 -4.2680906953490722e-03 -3.1654450923496735e-01 8.9283679388849180e-02 -1.7236466957958782e-01 -1.1580881620043598e-01 1.6132283396646571e-01 -1.0230807283692853e-01 1.2700698453676706e-01 2.1616878381196514e-01 -9.3676424705197311e-02 -2.7134779863307962e-01 1.4399879635698984e-01 7.5954194878159187e-03 2.6337775277096903e-01 1.7239968818932136e-01 -9.6170770438222503e-02 -1.3803191468106782e-02 -6.0833942935401220e-01 -6.1998390012697274e-02 -8.7325031854162460e-02 2.1894001158696469e-01 8.1563211664718985e-02 1.3507599729543540e-01 1.6501864982261312e-02 2.5857790994679872e-02 -1.5606020977521343e-01 -8.6996050943994013e-02 1.1732959237369864e+00 4.0118559120371225e-02 -3.2419640307403477e-03 3.9429595645538018e-01 -1.7519965907277185e-01 5.0557283925606711e-02 4.3976640576227348e-02 6.9130266420156600e-02 -6.4059197346777952e-02 1.3704575980586164e-02 4.6709990519486655e-02 2.0641406222638575e-02 -1.1146786959975026e-01 -1.4176345788733927e-01 7.2665904350812743e-02 -4.0500854488944582e-02 9.4976603311088273e-02 -1.8421965630693211e-02 -1.2237011131383455e-01 -4.6018316824375051e-02 -7.3934403043321850e-01 4.6909577931393040e-02 -9.7859164861674938e-02 3.1228875733358707e-01 1.7835546037411831e-01 -1.1695835132592244e-02 9.1851895150316401e-02 -6.2724360359837444e-02 7.8559332520306627e-02 5.5121410871523821e-02 2.4798815310518701e-01 2.1456582239897271e-02 -1.7377359116985366e-01 -1.0111201315505970e-01 1.4261978458360630e-01 1.3063275325383072e-01 -4.0169440697112391e-01 -5.5444387939729042e-02 
      </Row>
      <Row Index="34">
        -1.3331251044575942e-02 2.3264960583472133e-02 -1.1182669760261188e-01 9.5628980994609369e-02 5.4178443150134070e-01 -1.0842174644653968e-01 -1.0237101237582347e-01 -3.5908167208264957e-01 -9.4371558272217215e-02 5.2278901844197867e-02 -7.2705319110274558e-02 3.8141504429313883e-02 1.4058707295196640e-01 -9.0531232386072746e-02 4.0802479614865544e-01 1.9909681967872317e-01 -5.7365848495528352e-02 -2.1061222509693553e-01 -9.1561482922314322e-02 -1.0440869748133155e-01 1.7519157156594689e-02 -5.3712881677939028e-02 -7.2883866183434315e-02 -5.0428099586213582e-03 -2.2752393648290939e-01 -1.0304486391803909e-01 9.9878749588952181e-02 1.8753748096349621e-01 7.8960404924996216e-02 -5.1646232682452872e-02 7.7106079973791042e-03 -4.2409388611921187e-02 2.9383001951193033e-02 4.0118559120390140e-02 4.5856902802276167e-01 -1.0779366729886802e-03 2.4736827703253056e-01 -3.9184867948777363e-01 -8.0132765941652473e-02 3.7074992601381480e-02 -5.0221413125192793e-02 -7.9417183618339226e-03 -3.3661813903072602e-02 -2.3290657451648933e-03 4.0734802695536587e-02 -6.6029809642457653e-03 -6.4896789173264691e-02 -1.4492653893086628e-02 -3.2138406204702454e-03 -9.2161481817940982e-02 2.7170509477163918e-02 -4.2214005151933034e-02 2.4467644627067575e-02 -4.3319071600483275e-02 3.2997348579782881e-01 -1.4821289663951047e-02 1.9849588155528619e-01 1.6716561236435562e-01 3.3945447416015267e-02 -7.9276093917175050e-02 -2.5252461740836018e-03 9.6569460532954857e-03 -2.3230858461147849e-02 -1.2369077085257627e-02 1.7309154158823747e-01 -1.1669798079871230e-01 -5.4252370671740553e-02 1.7121484908799361e-01 -2.0805762183625502e-02 6.5279851728704277e-02 1.3124124638161194e-01 
      </Row>
      <Row Index="35">
        2.4449604910132886e-02 -3.2885906848002876e-02 -8.0447295146507461e-02 1.2632714332993303e-02 -2.3935701550109406e-02 -7.0359401418312073e-01 4.8657963036274891e-02 -4.4777369023157196e-02 4.7893484415192325e-02 -2.7673469723527228e-01 4.9617573948143825e-02 4.6849507662556265e-02 -1.4214701438143892e-02 4.0892070376316675e-02 3.1408118461442487e-02 1.4059866194545148e+00 -5.9949035177617516e-02 -4.9560119196409708e-02 -1.7651494050401749e-02 4.6331654592520516e-01 -3.2875994032653552e-02 -2.8959797402210042e-02 -2.1740794987258463e-02 -4.0272541234176638e-02 -2.1591247197747951e-02 -1.2714578537246177e+00 5.4849837238774846e-03 9.9792633885837728e-02 3.3223976903310845e-02 -3.4017517006754172e-01 -2.8621925481477743e-02 1.9192551352170541e-03 1.2104102970951568e-02 -3.2419640307649864e-03 -1.0779366729684221e-03 2.5268383040880982e-01 5.8207058564400935e-02 -6.8664682511996783e-02 9.4086640734500557e-03 3.3606451190026518e-02 3.0946144856551769e-02 3.8146321652163567e-03 -1.2676090525869024e-01 -3.7497416617779944e-03 6.7832835315341164e-03 -5.1785177304610608e-01 -1.8336615334797829e-02 1.8368037797346776e-02 -2.0824642420883749e-02 -2.1438242137735519e-01 -2.8648790093725590e-02 2.3094386998915592e-03 5.3652964946375399e-02 -4.0548329594498542e-03 -2.3780987660996390e-03 -4.7984032946021365e-01 2.0077271191451869e-02 8.8795275478555064e-02 -1.0879765008866130e-02 -1.3663451689609415e-01 -2.4220927883362310e-02 5.8559642363575672e-03 -6.9235795848023376e-04 -5.0438018780832889e-03 -7.0864097181297381e-03 -1.6037675559135576e+00 -2.0205143439734001e-02 2.6103054539542838e-02 5.1768135753592411e-02 -1.5910410075373751e+00 -1.5608920433077192e-02 
      </Row>
      <Row Index="36">
        4.5809449275129177e-01 6.6724216360710520e-02 1.4867464119345725e-01 1.4479392797952406e-02 8.8068877821077085e-02 -1.2492659240522969e-01 -1.5272282954890770e-01 -3.2839496214608938e-01 2.3719207209640158e-01 -1.1121090520853105e-01 -5.0641267528946154e-01 7.0824543882907515e-02 -2.6772224312505222e-01 -9.2342894402515294e-03 6.8678125587773087e-01 3.3953599503344789e-01 -4.2262997011721043e-01 7.4225783526665756e-03 -7.8522038385432036e-02 1.0688675406707195e-01 2.7422668365166925e-01 -8.2607294045499768e-02 2.3919781716110047e-01 -2.2672888541160144e-01 -3.1377550720469605e-01 -3.8922233229301800e-01 3.7186080882756223e-01 2.5787191340870613e-01 1.7179373006043297e-01 -2.2525671622955313e-02 -2.1218807191350503e-01 -8.0828117301361385e-02 -5.8705763317820070e-03 3.9429595645550797e-01 2.4736827703250347e-01 5.8207058564779882e-02 1.9541750154449811e+00 -1.9023715064231378e-01 1.1514971089372994e-01 3.1052553874938785e-03 -9.5723958974811452e-02 -1.9867400009246576e-02 7.5918631161238426e-02 -2.6156321492009305e-02 5.7049828155828819e-02 -1.2075980578827045e-01 -7.4957618437822082e-01 9.9231098186022659e-02 -1.5428318059828353e-01 -5.7042594036200198e-02 -1.9299698168111690e-01 -8.6724694349595788e-02 1.2588424224891752e-02 -2.7586228292216280e-01 1.9820978751626814e-01 -1.4464319388878891e-01 1.3797047642134073e+00 3.0921916791054260e-01 -1.0790253943571911e-02 -1.6708992813839661e-02 -1.9884361038190462e-01 4.0343224627587659e-02 8.1487995202554120e-02 8.7665027762046682e-02 1.0595897985038316e-01 -4.0989867927821444e-01 -3.8121554860659163e-01 1.5101737037612711e-01 2.9819060735220276e-01 -3.9622039336490589e-01 -2.2268636983125206e-01 
      </Row>
      <Row Index="37">
        -2.0342258573923200e-01 6.7649833539653148e-02 -3.6353422317421114e-02 -2.4243753280555680e-01 -4.8003819349486720e-01 1.9517711601129620e-01 -6.7262427018559778e-02 2.4396982750608638e+00 -9.8134890526617280e-02 2.2373020113495998e-01 -1.4918323533930788e-01 -1.5391868119680513e-01 -1.8260171222160615e-02 7.2436561652545095e-01 -3.5286840017320442e-01 -3.0979341906345859e-01 2.7085906365592483e-01 3.2127832311376792e-01 1.4208858758453213e-01 -3.8153398709618452e-01 -6.2314006599994864e-02 9.4025494203373916e-02 -3.2659992575689772e-02 -2.0308929762644878e-01 2.9556052506397146e-01 4.3924426262156735e-01 -2.3000969105163016e-01 -1.7431839081369465e+00 -6.1497229044323687e-01 2.2160895389340796e-01 3.2562476542240815e-01 -2.7919754549382780e-01 5.2248474050360816e-02 -1.7519965907257951e-01 -3.9184867948776558e-01 -6.8664682513053465e-02 -1.9023715064221924e-01 2.6465563787212365e+00 -7.9808470044014701e-02 -7.2751301088418624e-02 1.5546776636821136e-04 -6.2314519387287187e-02 -1.9668206605154115e-02 6.7310947167346313e-02 -7.0900110579702913e-02 2.3328968206860370e-01 9.0979646229541355e-02 -2.2582821490239030e-01 4.4216338502679670e-02 1.4003886169545265e-01 2.1591252246067077e-01 -1.9641732313750671e-01 -9.7591030286261482e-03 2.5334350527033511e-01 -2.2578007998011282e-01 2.5055085749070549e-01 -2.0007081243416694e-01 -1.5686636766101485e+00 -9.0870561802908686e-02 5.1090460592347890e-02 2.4197644415757488e-01 4.6428851927424783e-02 -4.7609901058386611e-02 -8.0559140415635569e-02 -1.8433418136107893e-01 7.8892466253570570e-01 1.1568938324128145e-01 -1.1632106940856854e+00 -5.0563657072298640e-01 6.4983886377736200e-01 -7.5903129710129735e-01 
      </Row>
      <Row Index="38">
        4.2430974392369275e-01 4.0556161666783580e-02 3.4112390552045069e-02 8.5056308178780737e-02 -1.0689468130178453e-01 -4.7804538009092602e-02 -5.3515632086866771e-02 -1.0359090192460318e-01 3.9099482409588759e-01 3.5337080880728823e-03 -1.9321719126960135e-01 -3.0019072407152653e-02 1.4714587462291581e-02 -4.6616975922255355e-01 -1.9541265487992376e-01 1.1553840023902601e-01 1.0636220695674663e-01 6.2881983597931523e-01 -3.2691842192940912e-01 -3.4447342545934935e-02 1.3488634594162807e-01 1.8237161644834077e-02 -5.7325127503248731e-02 1.5189760748923231e-01 1.1309440882788557e-01 -1.0203477166477957e-01 -5.2288106078008004e-02 -6.2996046323237864e-01 3.1714755322126698e-01 7.3459208591671224e-02 -4.6747055543516836e-01 3.0705261381038646e-02 -3.9170396758667625e-03 5.0557283925587351e-02 -8.0132765941688139e-02 9.4086640734915294e-03 1.1514971089366408e-01 -7.9808470043981977e-02 4.4805867552274814e-01 -4.9074152220171148e-03 9.4487900188194474e-02 -9.3735490341091687e-03 -4.7619458229276046e-02 1.4495024689473945e-02 -1.0480856874081235e-02 -7.3603054031649434e-03 -4.6316943635434316e-02 2.4678534198367463e-02 -4.8782958500574708e-02 4.4325372395390000e-03 -3.3809455188712551e-01 1.4235477991776886e-02 -2.7063807438098414e-04 -1.7857680223411129e-01 -9.7097336585923330e-02 -2.4582387026721164e-02 7.9721300457513175e-02 -5.5491602946462000e-02 -7.6552654909593700e-03 3.2347215188839339e-02 -2.3070156758132179e-01 7.8312175203473170e-03 -2.1397967016837483e-02 4.8080524086575184e-02 -5.3749341972149041e-02 -2.2551899807474601e-02 -1.4046532149599077e-02 -7.2741556581020966e-02 2.6242772942118148e-01 -6.7014368565275720e-02 -1.1982715485132860e-01 
      </Row>
      <Row Index="39">
        -3.5164033365060521e-02 -2.5019410814799699e-02 9.9145561946845928e-03 -1.3250331276761784e-03 7.4339171023879144e-02 -2.7980829497352028e-01 -6.4516868998556715e-02 -9.3620796424779412e-03 -1.2215457264180024e-02 -9.9056271433073079e-02 7.6048505524106191e-02 6.8619167696339273e-02 6.0567951378885543e-02 -3.9245754946644208e-02 -2.4021518234775108e-02 5.0114100328783096e-01 1.1487863823046802e-01 -4.2339696159767674e-02 -1.8799412373595864e-03 2.0734769526567431e-01 -8.7596887569412613e-04 -3.1138198447994196e-02 -3.4454087184685275e-02 1.0062800862821367e-02 8.5550056457070270e-03 -3.9955815514901294e-01 -2.1960676454026724e-02 2.8135012156242534e-02 4.1278849700191161e-02 -1.9891005565004960e-01 -4.6652907076364596e-02 6.7162874264233823e-03 5.9448970956597069e-03 4.3976640576214962e-02 3.7074992601371731e-02 3.3606451190049312e-02 3.1052553873089916e-03 -7.2751301087927545e-02 -4.9074152220377892e-03 7.5184614876391137e-02 2.8052978888809463e-02 9.1852038897955266e-03 -1.0266052127620676e-02 9.5464957222033131e-03 -6.7284771401801002e-03 -1.7460500274556950e-01 2.0714093688030927e-02 -7.9875909125456980e-03 5.1494906604802049e-03 -1.0168048902560230e-01 -9.3144933716183265e-03 1.2491955951597914e-02 -4.2521085062468059e-03 -2.9103442839400764e-02 2.7220735396968697e-02 -1.3563123177433642e-01 1.8896798886680045e-02 1.6444659653508949e-02 1.1285532111788803e-02 -9.0712703071493234e-02 -1.1484851473830235e-02 6.7610269399823349e-04 1.9212412511604767e-03 1.9981938662407772e-02 1.9873824756071832e-02 -6.1952883634122669e-01 2.0064589631325676e-03 3.9818337110720366e-02 2.5757506626165303e-02 -6.1030275573439474e-01 3.4679431223699334e-02 
      </Row>
      <Row Index="40">
        2.2210277530413505e-01 -1.2379835962849386e-01 4.6497592547930178e-02 4.1177413442388067e-02 -3.1646473494682054e-02 -1.6296192298157811e-01 -1.3684385913907482e-01 2.3326445164797899e-02 1.0894331871549268e-01 -5.4230714533104935e-02 5.6419350255538292e-02 1.9526142723122558e-01 -1.3463988097543822e-01 -1.0716931127066145e-01 -9.3904941292198174e-02 3.2845576459634629e-01 2.1856966223312313e-01 2.3686852907619732e-01 -1.4528601489457360e-01 7.2055084006433123e-02 4.5661971744029070e-02 -9.1341135483217789e-02 4.5789093648252538e-02 2.0289884237884789e-02 4.1014237976715051e-02 -2.1420177035663118e-01 -1.4175171876410195e-01 -2.2481218675928319e-01 1.7223434809422489e-01 -8.2148940946389096e-02 -2.3155052787606262e-01 -1.2974386537706833e-01 -1.4871116722393163e-02 6.9130266420098452e-02 -5.0221413125226703e-02 3.0946144856366365e-02 -9.5723958975035828e-02 1.5546776669797535e-04 9.4487900188187673e-02 2.8052978888724919e-02 2.8646415453429658e-01 -9.2128672478275830e-02 -7.5603919541172515e-02 2.2665841650105767e-02 -1.3715983064379239e-02 -9.4507475853088524e-02 5.2895661546656592e-02 -1.7655041621495615e-02 2.4081301900564497e-02 -4.5868470661515420e-02 -1.6515018292549727e-01 -8.9762871279504858e-02 1.6703869189910750e-02 -6.8305891759768630e-02 -4.3597207241241324e-02 -5.9674395953264764e-02 -7.9904557168998275e-02 -3.8316649556245870e-02 3.9108412318378839e-02 -3.7933460251170004e-02 -1.0200680978520105e-01 1.0653073789431147e-01 -5.4422994684068769e-03 3.0122840453247951e-02 -1.9596810442759276e-02 -3.2615397035465415e-01 4.4756420089826665e-02 -1.0961314920787536e-02 1.0243800569345088e-01 -3.6402868039338637e-01 -7.2847408900463026e-02 
      </Row>
      <Row Index="41">
        -2.2015129372056580e-01 4.1854184129797911e-02 4.5423218065749588e-02 -6.4688839112028829e-02 9.7185356754097008e-03 -1.3079523721126585e-02 8.4836575404936387e-02 -3.8340574348234346e-02 -4.4136035268318552e-02 -8.8181075806533782e-03 1.2481411510603857e-01 -2.2591354377396705e-01 -6.9525285824662872e-02 9.6181321176383477e-02 -9.9250799618759059e-02 -5.6206600926496809e-03 -1.5585982736733639e-01 -2.5428528890107160e-02 4.1234554915698191e-02 3.4798990383184417e-02 -8.0991991713000921e-02 1.4651214344378810e-01 1.0430833462145714e-01 -7.7010756243830331e-03 5.0586683468050800e-02 -2.0126022083815504e-02 5.2734624466550889e-02 2.9246645015499392e-02 -4.7388888225570885e-02 -1.7084438324777077e-02 5.4327653426566508e-02 3.2595947182782603e-01 -1.0863566115444645e-02 -6.4059197346728103e-02 -7.9417183617949069e-03 3.8146321654355525e-03 -1.9867400009095079e-02 -6.2314519387337453e-02 -9.3735490341119720e-03 9.1852038898906155e-03 -9.2128672478236251e-02 2.6339556372200312e-01 4.6036973887882082e-02 -1.4828181248105587e-02 -1.2498660765784875e-02 -2.0828883359368694e-02 -5.3824034354293004e-02 -2.0632623054176839e-02 2.1684900862845660e-02 -1.1499513278548858e-03 8.1623017222539257e-02 2.7661962126142720e-01 7.7834666757176595e-04 5.2735165374165616e-02 -9.9767502745173632e-03 -1.9272940856342090e-02 -1.3814014433369062e-02 1.6332714537983423e-02 -9.3496135193614632e-03 -1.1903206977349375e-03 7.7752170086364258e-02 -1.6038013344242202e-01 1.6162615316343262e-02 -1.5193831811018025e-02 -7.8273213114081058e-03 -4.2241557476613928e-02 -6.8289454446042244e-03 1.3846561139386405e-02 -4.6530363302720555e-02 -3.3862940581578307e-02 1.1932744469553302e-01 
      </Row>
      <Row Index="42">
        -1.6271369631012081e-01 9.2722716078540157e-04 3.7829306964175913e-01 -3.4178028256527826e-02 -8.3913299318688128e-02 3.8797836527995228e-01 -6.9036178544493149e-02 -3.4773675688120093e-02 -1.1367554485702572e-01 8.2457991629978619e-02 -6.7928469299141259e-02 -3.6541432926434664e-02 -4.6232245971111363e-01 1.0433334094216010e-01 1.6596741559387271e-01 -7.9724816642034080e-01 4.0819595490544119e-02 -1.0648040737646926e-01 2.8353548190154249e-01 -1.0022787177879394e-01 1.5860777132628553e-02 4.0064855547615921e-02 4.6513289380685618e-01 -5.2051668828814790e-02 -1.2536997396961444e-01 6.5909867068003858e-01 6.1671519438280982e-02 2.4006839885231196e-01 -2.1797788755411712e-01 1.3142582360039567e-01 1.6296922832306215e-01 8.5497147021778241e-02 -1.3626117484001049e-01 1.3704575980638293e-02 -3.3661813903045040e-02 -1.2676090525849371e-01 7.5918631161475056e-02 -1.9668206605893690e-02 -4.7619458229274964e-02 -1.0266052127515510e-02 -7.5603919541214815e-02 4.6036973887992383e-02 3.7177492850135552e-01 -1.4509460298126053e-03 -1.3834167743729225e-02 2.3489451649790991e-01 -2.6933807283095190e-02 3.2197778723573545e-02 -2.2137617224726319e-02 1.3011144952340764e-01 1.2272987706859184e-01 7.6340854634978902e-02 -8.5430295863384048e-02 2.3512412545959489e-02 -2.8257276211556884e-02 2.4220253196353858e-01 1.0727312578523274e-01 7.2373565705521462e-02 -9.1402874577936645e-03 7.6304285802061028e-02 8.8823937985378534e-02 -4.3797634080391147e-02 1.0978826992680900e-01 -2.2432569777706994e-03 -1.0057075013517918e-02 7.7882256049313425e-01 -1.2806907885981326e-02 2.7319778616022236e-02 -2.7476862883462502e-02 7.1008963304728900e-01 6.0132348026151687e-02 
      </Row>
      <Row Index="43">
        2.7874563219969631e-02 -1.3534762489076230e-02 -3.5359371149182237e-03 5.4033837744100338e-03 1.6185771681687375e-02 -1.8357782995433017e-02 -4.2688132780541690e-02 6.6208838201273795e-02 1.9117717763984937e-02 3.9144967558024484e-04 -1.8478992232039970e-02 3.3448596124385312e-02 -5.3154498659604157e-02 -2.9196824830843224e-03 1.4173802886788996e-02 6.7497907710251159e-02 7.9598946250699576e-02 7.5817540890796786e-02 -7.5140330394440236e-02 -2.2827272325699297e-02 1.9251644682543582e-02 -1.0617157428574071e-02 3.4066747317159474e-02 3.4997450851940642e-02 2.4272316438142191e-03 -3.6114734590018086e-02 -4.6415018387256077e-02 -1.1302373438798763e-01 3.0350474184405722e-02 1.2129781701990510e-02 -3.6914631732281655e-02 -4.0567710450315542e-02 2.2846686126872739e-02 4.6709990519484788e-02 -2.3290657451691746e-03 -3.7497416618547177e-03 -2.6156321492021441e-02 6.7310947167393276e-02 1.4495024689483021e-02 9.5464957221652758e-03 2.2665841650092333e-02 -1.4828181248114556e-02 -1.4509460297747190e-03 9.8826727453850349e-02 3.4820420305645139e-04 2.5513880465537174e-03 9.0295110537881168e-03 -2.1985230854118187e-02 1.9964440019769811e-03 4.7516048407811665e-04 -1.7493721215901065e-02 -2.7031171678778738e-02 1.0766531094302737e-02 5.6279231760693813e-03 1.1461151588318423e-02 2.9082294456431136e-03 -2.0158073814080451e-02 -5.9730767436212015e-02 1.0986735204999591e-02 -4.2399174413023967e-03 -9.1946568851461827e-03 1.6643979740469779e-02 -6.9381881145477841e-03 1.2248651035955689e-02 3.1449432363579166e-03 -1.7798916708476054e-03 5.6192230421578350e-03 -4.1450789899010694e-02 -6.1536952081948934e-03 -2.4716477753528775e-02 -2.7907422175611995e-02 
      </Row>
      <Row Index="44">
        5.5777762793741970e-04 7.0074538936963464e-03 -2.1393372500637855e-02 4.7488724454466329e-02 2.6916768861384232e-02 -6.6083579067459791e-03 -1.8567112398223052e-02 -7.1844970006240447e-02 -1.0863376020486704e-02 -2.6800629988093013e-03 -3.7646864863512819e-03 2.4433147830932866e-02 2.6043399884757335e-02 -3.0439836756663591e-02 1.0153845833852709e-01 1.9109097374888636e-02 1.1649158112304013e-02 -1.7430364751278876e-02 -2.6460779697178929e-03 -8.1290762118659092e-03 -3.4780949905585459e-03 -2.2252203988457096e-02 -2.0147191697191643e-02 -8.7525208966068614e-03 -3.9360520696740300e-02 -8.8910300942881635e-03 -3.7168784424551188e-03 3.7548642286101754e-02 1.1699303903617958e-02 1.8788354628525138e-03 1.7834046703759251e-02 -1.9497781634331655e-03 1.2276677013489518e-02 2.0641406222642131e-02 4.0734802695535990e-02 6.7832835315337747e-03 5.7049828155839061e-02 -7.0900110579710407e-02 -1.0480856874074011e-02 -6.7284771401774556e-03 -1.3715983064372404e-02 -1.2498660765793332e-02 -1.3834167743734097e-02 3.4820420305650690e-04 3.8997707268520622e-02 6.0992448951796736e-04 -8.5790200693971613e-03 7.7290408083210589e-03 1.1671199914578767e-02 -1.1632873448831082e-02 3.3089362681888931e-03 -8.9587625872807677e-03 5.8801020361534794e-03 -1.7265362419138383e-02 3.8189815952745169e-02 -3.4497846341713214e-03 4.0776320375046644e-02 4.4381320008629419e-02 1.4813876442198407e-03 -2.6094457000532404e-03 1.3521804004757601e-03 2.1675634200097422e-03 -4.9361256747584934e-03 -2.9274918075039512e-03 1.7690981995217406e-02 -1.6526976643419504e-02 -1.7282174329173301e-02 2.4763840507047254e-02 -5.3104480957611166e-03 -7.0989595162292965e-03 1.3451068619212614e-02 
      </Row>
      <Row Index="45">
        1.3001236711198516e-02 9.9802887148730521e-02 5.0749099576469406e-02 2.8757058079280307e-02 3.8235185199500324e-02 1.6883415586471375e+00 4.0116072431855138e-03 1.4376140708737500e-01 -1.6538282470990318e-02 7.4168325833252857e-01 -2.2534907791632747e-01 -1.9428261935284577e-01 4.7956192232380450e-02 -4.0013392191508790e-02 -7.2980257824826311e-02 -3.1615898327265701e+00 -1.6737752002915465e-02 1.2096791977298715e-01 -1.0951253882082035e-01 -1.4066123621456572e+00 5.6645883793652228e-02 1.0683528756998009e-01 7.1989273627324199e-02 7.6247559147977179e-02 3.2821700880864550e-02 2.9668466989263318e+00 -4.9833529194948630e-03 -2.7668966220137747e-01 -4.7306028877117538e-02 9.7159940999676198e-01 1.1750759180071127e-01 -2.7149178008548346e-02 -2.5420313458887206e-02 -1.1146786959964271e-01 -6.6029809642427599e-03 -5.1785177304611640e-01 -1.2075980578719407e-01 2.3328968206597156e-01 -7.3603054030407233e-03 -1.7460500274552077e-01 -9.4507475853556511e-02 -2.0828883358831693e-02 2.3489451649842269e-01 2.5513880463489125e-03 6.0992448952437717e-04 1.3234995671622523e+00 1.2032905300844332e-02 -3.7082214955928533e-02 3.9261662951645779e-02 4.8953757523923641e-01 6.6576315930920893e-02 -2.5412004563313023e-02 -7.0690542253025582e-02 6.9673247561129539e-02 -1.4983979316390407e-02 1.1970261209250512e+00 -7.5790622617712536e-02 -2.2457631593978658e-01 6.4354318655479494e-04 3.1691279638944075e-01 5.7259942565067369e-02 -8.6860682626454105e-03 -3.5789212428301673e-02 -3.6980979940349407e-02 4.2060424141918580e-03 4.0029044532462690e+00 3.5950747511753915e-02 -1.2227586530257351e-01 -1.3521591158305046e-01 4.0451924477819974e+00 -4.0016013979868044e-02 
      </Row>
      <Row Index="46">
        -1.8860536113637130e-01 -3.7644397506725907e-02 -4.8321247408024431e-02 -3.7291140439939752e-02 -4.6320826005136206e-03 -2.1520236403075859e-02 -1.1943004474431911e-01 1.6627866181369855e-01 -9.4272603303838354e-02 3.1102799821342956e-02 1.5531101789445323e-01 6.8220715490029601e-02 8.5424379846748472e-02 2.6079448082606843e-02 -2.1860444383295743e-01 7.4951431173983039e-03 4.7529672174410398e-01 -6.5795504436179222e-02 3.6810587629433025e-02 -1.2864109719097544e-02 -9.5008807212669008e-02 -2.3257789140511270e-03 -6.8202586324523362e-02 5.8173547333018868e-02 9.7962827397311811e-02 4.2576321002455009e-02 -2.5269044378570077e-01 -5.4032196386319266e-02 -6.8076921683818792e-02 -3.2031750841773607e-02 4.4734337076644259e-03 -1.7178318104634389e-02 3.3703537130196359e-03 -1.4176345788740161e-01 -6.4896789173253491e-02 -1.8336615335008209e-02 -7.4957618437829965e-01 9.0979646229664257e-02 -4.6316943635466984e-02 2.0714093687931919e-02 5.2895661546571715e-02 -5.3824034354248151e-02 -2.6933807282993660e-02 9.0295110537897960e-03 -8.5790200693936225e-03 1.2032905301422588e-02 4.3865987181818394e-01 -2.6553567914085030e-02 4.7707366930010500e-02 -7.6675009267491642e-03 6.4073668703119216e-02 -3.4838602467595916e-03 6.5699147782377855e-03 9.1262716732091784e-02 -4.6430715907653880e-02 2.8847394055164184e-02 -5.3014197443439270e-01 -1.1427449686583899e-01 1.1920242174361054e-02 -2.4532578344054021e-02 7.8334091073971171e-02 8.9458516180694302e-03 -2.4306130225661554e-02 -2.6771743057296394e-02 -3.0863145246869769e-02 1.3928726593268173e-02 1.8041082553015025e-01 -6.0489689708545687e-02 -9.0164389617006888e-02 1.5443302645692658e-02 8.5230392304077071e-02 
      </Row>
      <Row Index="47">
        1.3542879487576993e-02 -5.5064141706425915e-03 1.0694977327869476e-01 -1.6840332094759880e-02 -5.0470482254605889e-02 -2.1473218513590943e-02 -5.0239566856611836e-03 -2.4625026342662196e-01 2.8424912567176219e-02 -7.0296915554867279e-02 4.3183508651544467e-03 7.4146666532501460e-02 -1.3677568517630925e-01 -4.0670862963875558e-02 4.7154179888323204e-02 4.6033530565033488e-02 -9.7438596972538150e-02 -1.3998419421700325e-01 5.3910180788311009e-02 1.2424785839509547e-01 -6.4811030921736214e-03 -4.2322948436836275e-02 8.5176934052170750e-02 -7.5593680658705267e-02 -2.4591018744312920e-02 -8.7931487828002128e-02 5.8617114741197310e-02 3.9066195149716781e-01 -2.2627051940614568e-02 -4.0033783920126451e-02 -5.6947255936884662e-02 -6.7219593332572103e-02 -1.0833182890753884e-03 7.2665904350805333e-02 -1.4492653893071260e-02 1.8368037797524477e-02 9.9231098185988409e-02 -2.2582821490242541e-01 2.4678534198365493e-02 -7.9875909124643707e-03 -1.7655041621426823e-02 -2.0632623054200445e-02 3.2197778723450324e-02 -2.1985230854107682e-02 7.7290408083204795e-03 -3.7082214956373628e-02 -2.6553567914047921e-02 2.1136048072106428e-01 -9.8058943441531779e-02 -9.1134478974896713e-03 -4.6208363005683130e-02 -4.8188288629106790e-02 -8.3863315448275983e-03 -8.0616319325420668e-02 -5.4381374372185452e-03 -4.1953421536838592e-02 6.8039956483279804e-02 2.5508479255149008e-01 -1.1759866206391523e-02 1.2547886539511915e-03 -1.9242226219854240e-02 1.7848596233131953e-02 4.0533549016196158e-02 2.9765542746560757e-02 -7.3186668420424043e-03 -1.4637276432236024e-01 -3.4307804839033756e-02 1.1575572000569029e-01 8.3745962805646793e-02 -1.9497139966887700e-01 2.1190250707572491e-02 
      </Row>
      <Row Index="48">
        -7.6125580840609233e-02 1.2264168417995172e-02 -3.7307485764477767e-02 3.7026001591404317e-02 3.7586535037737082e-02 2.3175807738314458e-02 1.7764322114810313e-02 9.9898757302416263e-02 -7.2939956416725071e-02 4.1985753215450304e-02 3.7962460599241354e-02 -4.9983965985241990e-02 5.8455173437125030e-02 -4.6640729181873106e-02 -7.2256825068480690e-02 -6.1511010981038894e-02 6.0686970369306370e-02 -1.1097133941351284e-02 -2.4271383510447858e-03 -6.3107973335201739e-02 -3.0808424353478699e-02 2.6637779790146393e-02 -2.2779618870739676e-02 7.6701864212823656e-02 4.7496410041087456e-02 1.0966136050987232e-01 -5.1910738529741179e-02 -1.4291696842218354e-01 -5.4443288900162673e-03 1.7414913687622754e-02 1.1641355921931740e-01 5.0347868747897769e-02 1.3199016368119487e-02 -4.0500854488942979e-02 -3.2138406204739872e-03 -2.0824642420988589e-02 -1.5428318059824228e-01 4.4216338502710881e-02 -4.8782958500572973e-02 5.1494906604271796e-03 2.4081301900517271e-02 2.1684900862863225e-02 -2.2137617224659026e-02 1.9964440019733243e-03 1.1671199914580960e-02 3.9261662951922585e-02 4.7707366929975875e-02 -9.8058943441534235e-02 1.0603121223038227e-01 8.7102607090888441e-03 6.2939606562711733e-02 4.1084439883263921e-02 1.2993173848521545e-02 4.3559099479244939e-02 3.8692280522421209e-03 5.1378014714201753e-02 -1.1270757645738951e-01 -1.2904833378690028e-01 8.9506551683701495e-03 2.3961211691410390e-03 6.1708284614950544e-02 -1.4580818918058474e-02 -2.4620115082828936e-02 -2.0151676692972246e-02 1.0206602053963740e-03 1.2569396117107842e-01 3.3696142018057824e-02 -3.8708156807918954e-02 -1.1133099957127662e-01 1.3660882513226597e-01 3.5637678045024962e-02 
      </Row>
      <Row Index="49">
        7.9584060215024226e-03 7.2146346695177915e-02 1.7656280587359788e-01 -7.6978475094569371e-02 -1.7916133009130084e-01 8.7394898932516174e-01 5.9754648735588181e-02 -2.9804990162467741e-03 -6.7003744683011610e-02 2.3917456677957008e-01 -1.0016716973765391e-01 -1.3537700831690069e-01 -2.5797884322199044e-01 1.6902521268304535e-02 8.0822388874544654e-02 -1.7486819938820075e+00 -1.1696339020307460e-01 1.8575856198733284e-01 1.2469074929946697e-01 -3.6474999916390899e-01 6.2874202085343694e-02 8.5242567466820060e-02 1.4196696029237624e-01 4.1232945559525631e-04 -7.5807463778731262e-03 1.3500096255541407e+00 4.1274928234307846e-02 -1.1132291975817572e-01 -1.0454397484433513e-01 4.5901573034163012e-01 4.1364288193097995e-02 -1.5355861872281198e-03 -6.5871176009318771e-02 9.4976603311078239e-02 -9.2161481817962312e-02 -2.1438242137742533e-01 -5.7042594035798901e-02 1.4003886169403068e-01 4.4325372395870970e-03 -1.0168048902560094e-01 -4.5868470661745424e-02 -1.1499513275763699e-03 1.3011144952368411e-01 4.7516048397444610e-04 -1.1632873448829613e-02 4.8953757523938563e-01 -7.6675009269878518e-03 -9.1134478972637115e-03 8.7102607089573833e-03 3.4661489957038022e-01 2.3003689006469416e-02 3.3411050862849540e-03 -6.1592314037273152e-02 -3.1538914726905086e-02 -4.3726329373868042e-02 4.1280139377314518e-01 -4.0370388935973799e-02 -7.2544716580601520e-02 8.5073022502746669e-03 2.8134219876990491e-01 2.9475824293541890e-02 -9.7425189053123706e-03 3.5377599391206910e-02 2.6007259011343667e-02 -3.5892516777425915e-02 1.8038867922192496e+00 1.5140943455318209e-02 -5.0036094238351037e-02 -5.5576016590109661e-02 1.6731847297028293e+00 -5.6518483544019645e-03 
      </Row>
      <Row Index="50">
        -8.4616014856752231e-01 1.7648150481849076e-02 6.1632679735701232e-02 -6.4523683615590272e-02 -5.7920166660466232e-02 8.8845947629154529e-02 8.7162379958034275e-03 1.4805944982933225e-01 -3.5052792380393449e-01 5.1879734040114742e-02 6.1109452632602590e-02 -1.2350941552881220e-01 -1.3961336197767685e-01 2.2574609726019781e-01 2.8134572442139355e-01 -2.2138395594308613e-01 4.4713058744469403e-04 -4.5508926564371838e-01 3.1313318319039241e-01 -3.1361573529886291e-02 -5.4060165691946924e-02 8.3107006121670296e-02 1.5688085364908336e-01 -9.5412566222275175e-02 -7.6378323750535965e-02 2.0063898609745318e-01 -3.9765696309724548e-02 3.3412866904892280e-01 -4.0567939230936728e-01 -2.0606580072109238e-02 8.2651358223949589e-01 8.3894768246412524e-02 3.7726481713916127e-03 -1.8421965630583417e-02 2.7170509477233012e-02 -2.8648790093711986e-02 -1.9299698168089069e-01 2.1591252246050452e-01 -3.3809455188714532e-01 -9.3144933716286828e-03 -1.6515018292553668e-01 8.1623017222567262e-02 1.2272987706862347e-01 -1.7493721215900315e-02 3.3089362682043322e-03 6.6576315930897384e-02 6.4073668703019726e-02 -4.6208363005649400e-02 6.2939606562687378e-02 2.3003689006495843e-02 6.3361577924714363e-01 8.6691804228305414e-02 -2.1741166955326647e-02 7.3298482103648463e-02 9.5819078714603531e-02 7.3617614448914917e-02 -1.5645442632385947e-01 -1.0260908087820918e-01 -3.8135412601663199e-02 -1.3905244091999058e-02 3.5033302129795535e-01 -6.3956218118589286e-02 3.6300901238386384e-02 -5.6192169934882123e-02 2.6529877157181844e-02 2.0145919733819462e-01 2.6235767117621756e-02 -6.2166679493460553e-02 -3.6903891934088195e-01 2.3487723822371337e-01 6.0493829901118519e-02 
      </Row>
      <Row Index="51">
        -2.4990960384618366e-01 -2.2941609351571413e-02 7.1736988272605107e-02 -6.2050932962804839e-02 -2.6377648466645587e-02 2.9841640254600343e-03 9.8563640316419010e-02 -1.4999623809394314e-01 -2.3189611666932120e-02 -1.8912041750937698e-02 1.5931086375121595e-01 -1.8386064383160985e-01 -1.3184322199042503e-01 7.9040833195134191e-02 -1.4141599246043096e-01 -3.9916695871903669e-02 -6.9226340944421427e-02 1.1503277297789133e-02 1.6061174075294560e-02 6.9770000835209026e-02 -5.6394551501633222e-02 1.8762899517479104e-01 1.8659952179117062e-01 6.4048334731877654e-02 5.4171236572791923e-02 -1.4152452099985835e-02 -1.7114744571129110e-03 1.0097247455017938e-01 1.2830554751708079e-02 -3.6188280308837618e-02 5.1752530083622683e-02 4.4887732182412954e-01 -3.2866891954991539e-02 -1.2237011131380100e-01 -4.2214005151894309e-02 2.3094387002337013e-03 -8.6724694349431614e-02 -1.9641732313755114e-01 1.4235477991767165e-02 1.2491955951741716e-02 -8.9762871279451373e-02 2.7661962126144396e-01 7.6340854634805444e-02 -2.7031171678766341e-02 -8.9587625872736276e-03 -2.5412004564140597e-02 -3.4838602468040269e-03 -4.8188288629080034e-02 4.1084439883246004e-02 3.3411050858485197e-03 8.6691804228288760e-02 3.9185355292870633e-01 6.6605298351614306e-03 1.0414375913970628e-01 -4.9632001579075123e-02 -2.4203434907897985e-02 -6.6094881366502781e-02 1.0430337976799096e-01 -1.7139059880754079e-03 -9.1474177588055745e-04 7.8417475988588878e-02 -1.8005408407344631e-01 2.7416180944441176e-02 -2.4397178343993190e-02 -1.8947281942587976e-02 -5.1292694631239227e-02 7.0113693593600139e-03 6.0841338252183241e-02 -1.5125976109255944e-02 -4.4643706173543476e-02 1.6110779888994650e-01 
      </Row>
      <Row Index="52">
        4.8599038655554691e-02 9.2633783497893044e-03 -2.5389888249127113e-01 -5.9050711241897938e-02 9.8924798967260780e-02 -1.3266346093963183e-01 1.2765986997445780e-01 4.8664428792688438e-02 6.2524113403183507e-02 -2.3803576272585836e-02 -6.7007001392316190e-02 -3.0373655718119785e-02 2.3928411932112140e-01 7.3643941884431616e-02 -1.0772739542849602e-01 3.6864808164145385e-01 -1.7484862611601576e-01 -1.1058747830035101e-01 -1.5646360048675387e-01 -4.2158251377352574e-02 -3.2301463070397565e-02 3.0341021568693987e-02 -2.0553770275631801e-02 5.2527132602024823e-02 3.5147078808692438e-02 -3.0373093854355859e-01 1.4603501672026935e-02 5.7410543233840233e-03 6.9550018637857203e-02 -5.9739253884528616e-03 1.0480387406141357e-02 -3.4997781164613382e-03 6.5631665763301164e-02 -4.6018316824369451e-02 2.4467644627086331e-02 5.3652964946362333e-02 1.2588424224903272e-02 -9.7591030283793456e-03 -2.7063807437120724e-04 -4.2521085062704553e-03 1.6703869189926016e-02 7.7834666753338346e-04 -8.5430295863405697e-02 1.0766531094318868e-02 5.8801020361565759e-03 -7.0690542252969071e-02 6.5699147782389417e-03 -8.3863315448653372e-03 1.2993173848532720e-02 -6.1592314037228639e-02 -2.1741166955328288e-02 6.6605298350918395e-03 1.2734197824998578e-01 7.1980436064752656e-02 6.2153360091325525e-03 -8.2572247724116601e-02 -3.9931981097992605e-02 -2.0226711334907076e-02 -1.0828167970029331e-02 -4.6590520237065634e-02 1.5501280206949887e-02 1.7905221581877764e-03 -3.7581738624854324e-02 -1.8664877567030239e-02 1.0001008429889480e-02 -2.4130411267476559e-01 -4.4327520785291952e-03 -1.6950496606071317e-02 -2.2792717889357092e-02 -1.7595619281107647e-01 -2.2883710812181407e-02 
      </Row>
      <Row Index="53">
