<?xml version="1.0"?>
<MethodSetup Method="MLP::MLP">
  <GeneralInfo>
    <Info name="TMVA Release" value="4.2.0 [262656]"/>
    <Info name="ROOT Release" value="6.02/08 [393736]"/>
    <Info name="Creator" value="aocampor"/>
    <Info name="Date" value="Sun May 10 01:55:02 2015"/>
    <Info name="Host" value="Linux DaMachine 3.16.0-34-generic #45-Ubuntu SMP Mon Mar 23 17:21:27 UTC 2015 x86_64 x86_64 x86_64 GNU/Linux"/>
    <Info name="Dir" value="/home/aocampor/DiabeticRetinophaty/macros"/>
    <Info name="Training events" value="200000"/>
    <Info name="TrainingTime" value="3.96245425e+03"/>
    <Info name="AnalysisType" value="Classification"/>
  </GeneralInfo>
  <Options>
    <Option name="NCycles" modified="Yes">500</Option>
    <Option name="HiddenLayers" modified="Yes">N+20</Option>
    <Option name="NeuronType" modified="No">sigmoid</Option>
    <Option name="RandomSeed" modified="No">1</Option>
    <Option name="EstimatorType" modified="No">MSE</Option>
    <Option name="NeuronInputType" modified="No">sum</Option>
    <Option name="V" modified="Yes">False</Option>
    <Option name="VerbosityLevel" modified="No">Default</Option>
    <Option name="VarTransform" modified="Yes">N</Option>
    <Option name="H" modified="Yes">False</Option>
    <Option name="CreateMVAPdfs" modified="No">False</Option>
    <Option name="IgnoreNegWeightsInTraining" modified="No">False</Option>
    <Option name="TrainingMethod" modified="No">BP</Option>
    <Option name="LearningRate" modified="No">2.000000e-02</Option>
    <Option name="DecayRate" modified="No">1.000000e-02</Option>
    <Option name="TestRate" modified="Yes">10</Option>
    <Option name="EpochMonitoring" modified="No">False</Option>
    <Option name="Sampling" modified="No">1.000000e+00</Option>
    <Option name="SamplingEpoch" modified="No">1.000000e+00</Option>
    <Option name="SamplingImportance" modified="No">1.000000e+00</Option>
    <Option name="SamplingTraining" modified="No">True</Option>
    <Option name="SamplingTesting" modified="No">False</Option>
    <Option name="ResetStep" modified="No">50</Option>
    <Option name="Tau" modified="No">3.000000e+00</Option>
    <Option name="BPMode" modified="No">sequential</Option>
    <Option name="BatchSize" modified="No">-1</Option>
    <Option name="ConvergenceImprove" modified="No">1.000000e-30</Option>
    <Option name="ConvergenceTests" modified="No">-1</Option>
    <Option name="UseRegulator" modified="No">False</Option>
    <Option name="UpdateLimit" modified="No">10000</Option>
    <Option name="CalculateErrors" modified="No">False</Option>
    <Option name="WeightRange" modified="No">1.000000e+00</Option>
  </Options>
  <Variables NVar="5">
    <Variable VarIndex="0" Expression="Red" Label="Red" Title="Red" Unit="" Internal="Red" Type="F" Min="0.00000000e+00" Max="2.55000000e+02"/>
    <Variable VarIndex="1" Expression="Green" Label="Green" Title="Green" Unit="" Internal="Green" Type="F" Min="0.00000000e+00" Max="2.55000000e+02"/>
    <Variable VarIndex="2" Expression="Blue" Label="Blue" Title="Blue" Unit="" Internal="Blue" Type="F" Min="0.00000000e+00" Max="2.55000000e+02"/>
    <Variable VarIndex="3" Expression="GreenOverRed" Label="GreenOverRed" Title="GreenOverRed" Unit="" Internal="GreenOverRed" Type="F" Min="0.00000000e+00" Max="2.30000000e+01"/>
    <Variable VarIndex="4" Expression="BlueOverRed" Label="BlueOverRed" Title="BlueOverRed" Unit="" Internal="BlueOverRed" Type="F" Min="0.00000000e+00" Max="2.80000000e+01"/>
  </Variables>
  <Spectators NSpec="0"/>
  <Classes NClass="2">
    <Class Name="Background" Index="0"/>
    <Class Name="Signal" Index="1"/>
  </Classes>
  <Transformations NTransformations="1">
    <Transform Name="Normalize">
      <Selection>
        <Input NInputs="5">
          <Input Type="Variable" Label="Red" Expression="Red"/>
          <Input Type="Variable" Label="Green" Expression="Green"/>
          <Input Type="Variable" Label="Blue" Expression="Blue"/>
          <Input Type="Variable" Label="GreenOverRed" Expression="GreenOverRed"/>
          <Input Type="Variable" Label="BlueOverRed" Expression="BlueOverRed"/>
        </Input>
        <Output NOutputs="5">
          <Output Type="Variable" Label="Red" Expression="Red"/>
          <Output Type="Variable" Label="Green" Expression="Green"/>
          <Output Type="Variable" Label="Blue" Expression="Blue"/>
          <Output Type="Variable" Label="GreenOverRed" Expression="GreenOverRed"/>
          <Output Type="Variable" Label="BlueOverRed" Expression="BlueOverRed"/>
        </Output>
      </Selection>
      <Class ClassIndex="0">
        <Ranges>
          <Range Index="0" Min="0.0000000000000000e+00" Max="2.5500000000000000e+02"/>
          <Range Index="1" Min="0.0000000000000000e+00" Max="2.5500000000000000e+02"/>
          <Range Index="2" Min="0.0000000000000000e+00" Max="2.5500000000000000e+02"/>
          <Range Index="3" Min="0.0000000000000000e+00" Max="2.3000000000000000e+01"/>
          <Range Index="4" Min="0.0000000000000000e+00" Max="2.8000000000000000e+01"/>
        </Ranges>
      </Class>
      <Class ClassIndex="1">
        <Ranges>
          <Range Index="0" Min="0.0000000000000000e+00" Max="2.5500000000000000e+02"/>
          <Range Index="1" Min="0.0000000000000000e+00" Max="2.5500000000000000e+02"/>
          <Range Index="2" Min="0.0000000000000000e+00" Max="2.5200000000000000e+02"/>
          <Range Index="3" Min="0.0000000000000000e+00" Max="1.1000000000000000e+01"/>
          <Range Index="4" Min="0.0000000000000000e+00" Max="1.2000000000000000e+01"/>
        </Ranges>
      </Class>
      <Class ClassIndex="2">
        <Ranges>
          <Range Index="0" Min="0.0000000000000000e+00" Max="2.5500000000000000e+02"/>
          <Range Index="1" Min="0.0000000000000000e+00" Max="2.5500000000000000e+02"/>
          <Range Index="2" Min="0.0000000000000000e+00" Max="2.5500000000000000e+02"/>
          <Range Index="3" Min="0.0000000000000000e+00" Max="2.3000000000000000e+01"/>
          <Range Index="4" Min="0.0000000000000000e+00" Max="2.8000000000000000e+01"/>
        </Ranges>
      </Class>
    </Transform>
  </Transformations>
  <MVAPdfs/>
  <Weights>
    <Layout NLayers="3">
      <Layer Index="0" NNeurons="6">
        <Neuron NSynapses="25">
          -8.0895893582419254e-01 -3.0511603542951762e+00 4.7550796983735673e+00 6.6231709423747125e+00 -1.0493085654889343e+01 -1.9113301728623058e+00 -8.7716475644605829e+00 4.1498648962906453e+00 -5.4278118326502645e+00 -6.5018353436526799e-01 -6.7959544687742435e+00 -2.7796257811696217e+00 -1.5554686927274737e+00 3.6791476139405819e+00 -4.2248991430432161e+00 -3.7415425209332359e-01 -1.1086462851948489e+00 -1.4564622997725638e+00 6.5228596396828667e-02 1.1897234768372369e+00 6.1074838667137206e+00 -7.2279378550914830e-01 -1.4447628062623447e-01 -2.0972950319778243e+00 -3.5018599713517782e+00 
        </Neuron>
        <Neuron NSynapses="25">
          -9.5749696342677793e-01 1.3884629935667558e+01 -4.6315043999576178e+00 -9.4044473951365397e+00 1.7673886701805790e+00 3.1935854949233006e-01 1.0257212431426614e+01 2.4514478160503499e+00 2.0791290954951069e+00 1.1491072091902928e-02 -8.0413574153539769e-01 -3.3068941077295881e+00 2.4738813158235322e+00 -9.6829592331506973e+00 2.6297161774640401e+00 7.8156658763777971e+00 1.5621714548821297e+00 1.4339895590273214e+01 4.4302154446032640e+00 -5.1767825282562618e-01 -2.3772827888305173e+01 2.1339880558284356e+00 -2.4952359693196555e-01 -6.6561559735280140e-01 -4.4587291036145453e+00 
        </Neuron>
        <Neuron NSynapses="25">
          2.4660420400644556e+00 7.4391174570863408e+00 -1.0064461117407117e+01 -2.6728121438545758e+00 -2.0664623243362756e+00 -1.5164056014451881e+00 -4.3797151001840309e+00 -1.0257283089357063e+00 5.2497966923780774e+00 2.0674297231449246e+00 8.3579818597465572e-01 -1.9281146998617711e+00 -2.2113707315111336e-01 1.8691341074500731e+00 6.5725551053998652e+00 -2.7938430171791295e+00 7.7877569396497537e-01 -1.3717733507315895e+01 1.7500241557779458e-02 8.9645123464683271e-03 1.4880744120342392e+01 -5.3133653424946470e-01 1.1257730592850892e+00 7.0369997818780456e+00 1.9668392619690252e+01 
        </Neuron>
        <Neuron NSynapses="25">
          1.3082117503831387e+00 -3.1855407390413704e+00 1.2682674812099417e+00 3.2110347405586599e+00 -2.2408279152474087e-01 2.7959869677555882e+00 2.8874365070696861e-01 3.4021653048343925e+00 -1.3364949391801066e+00 9.6435569093287044e-02 5.4085552129700378e+00 5.5043684814140104e+00 -4.8032309222254455e-01 1.3500637668732629e+00 -4.9471975004923008e-01 1.4914112988672987e+00 5.1774361119576195e-01 2.8504923881735253e+00 4.3946266646531151e-01 6.8656173615344240e-01 -3.8399752333336118e-01 1.4405043086868541e-01 9.6710958707554220e-03 -1.6084609881710408e+00 -2.6562042838816060e+00 
        </Neuron>
        <Neuron NSynapses="25">
          -1.1143890169059589e-01 -2.4539262124626142e+00 2.3271606418435118e+00 3.1493303699213153e+00 -1.8539350938068557e+00 2.2101004535446318e+00 -2.4001543492605166e+00 1.9292826186236303e+00 -1.2085898839756987e-01 1.4691730903215900e+00 2.1587498021098313e+00 4.6469511922665996e+00 8.7164416251061272e-01 1.6969268706626848e+00 -3.3498910433315088e-01 2.7250217121181959e+00 8.7626818342787538e-01 -1.3354344405792118e+00 2.7007748757297754e+00 5.4624096290518454e-01 -6.1074420085883585e-01 1.3891961692875459e+00 1.2267777955429546e+00 2.3534252772577768e+00 -1.0768921226618451e-01 
        </Neuron>
        <Neuron NSynapses="25">
          -1.8265239672749476e+00 7.6195702386580715e+00 -1.0044335274659987e+01 -4.4017723391843484e+00 2.1719773340093380e+00 -3.6712854329525091e-01 -8.2682478293306649e-01 -1.8460954070280191e+00 -2.5696016190389099e+00 -1.0405497982072296e+00 1.4045141085529875e+00 4.8897159055024247e-01 -2.7254836832574432e+00 -2.7663365157937694e+00 2.7406876140435943e-01 -8.5399743765489722e-01 -7.9837166675264393e-01 -7.9814567169647899e-01 -2.4870996133379646e+00 -3.0071797910572386e+00 6.7520159599972074e-01 -1.7657065292643789e-01 -2.3185147592990432e+00 -3.7805794221504069e-01 1.4018005497806196e+00 
        </Neuron>
      </Layer>
      <Layer Index="1" NNeurons="26">
        <Neuron NSynapses="1">
          2.2447123454576980e-02 
        </Neuron>
        <Neuron NSynapses="1">
          1.0880633025727289e+00 
        </Neuron>
        <Neuron NSynapses="1">
          4.0275673026139254e+00 
        </Neuron>
        <Neuron NSynapses="1">
          -5.4541182055710102e+00 
        </Neuron>
        <Neuron NSynapses="1">
          -6.8893671468801665e-01 
        </Neuron>
        <Neuron NSynapses="1">
          -1.3003221286626627e+00 
        </Neuron>
        <Neuron NSynapses="1">
          1.2391044107315734e+00 
        </Neuron>
        <Neuron NSynapses="1">
          2.1830074712247933e+00 
        </Neuron>
        <Neuron NSynapses="1">
          -2.0295468167120490e+00 
        </Neuron>
        <Neuron NSynapses="1">
          7.5859104815811074e-01 
        </Neuron>
        <Neuron NSynapses="1">
          1.6693801456449626e+00 
        </Neuron>
        <Neuron NSynapses="1">
          -2.0744740329324198e+00 
        </Neuron>
        <Neuron NSynapses="1">
          7.2005375847385666e-01 
        </Neuron>
        <Neuron NSynapses="1">
          5.0094116062758127e+00 
        </Neuron>
        <Neuron NSynapses="1">
          -1.4096829824252206e+00 
        </Neuron>
        <Neuron NSynapses="1">
          -2.5667067612709142e+00 
        </Neuron>
        <Neuron NSynapses="1">
          9.3295366258342938e-01 
        </Neuron>
        <Neuron NSynapses="1">
          1.7711920994051031e+00 
        </Neuron>
        <Neuron NSynapses="1">
          -1.1638168772330322e+00 
        </Neuron>
        <Neuron NSynapses="1">
          5.1243851442514803e-02 
        </Neuron>
        <Neuron NSynapses="1">
          1.4267058528251355e+00 
        </Neuron>
        <Neuron NSynapses="1">
          1.8707333556908692e+00 
        </Neuron>
        <Neuron NSynapses="1">
          -3.7649965877402172e-03 
        </Neuron>
        <Neuron NSynapses="1">
          3.0825483934375497e+00 
        </Neuron>
        <Neuron NSynapses="1">
          1.1149386479652463e+00 
        </Neuron>
        <Neuron NSynapses="1">
          -3.1909581030356389e+00 
        </Neuron>
      </Layer>
      <Layer Index="2" NNeurons="1">
        <Neuron NSynapses="0"/>
      </Layer>
    </Layout>
  </Weights>
</MethodSetup>
