<?xml version="1.0"?>
<MethodSetup Method="MLP::MLP">
  <GeneralInfo>
    <Info name="TMVA Release" value="4.2.0 [262656]"/>
    <Info name="ROOT Release" value="6.02/08 [393736]"/>
    <Info name="Creator" value="aocampor"/>
    <Info name="Date" value="Sun May 10 14:21:01 2015"/>
    <Info name="Host" value="Linux DaMachine 3.16.0-34-generic #45-Ubuntu SMP Mon Mar 23 17:21:27 UTC 2015 x86_64 x86_64 x86_64 GNU/Linux"/>
    <Info name="Dir" value="/home/aocampor/DiabeticRetinophaty/macros"/>
    <Info name="Training events" value="1029832"/>
    <Info name="TrainingTime" value="6.28785276e+03"/>
    <Info name="AnalysisType" value="Classification"/>
  </GeneralInfo>
  <Options>
    <Option name="NCycles" modified="Yes">800</Option>
    <Option name="HiddenLayers" modified="Yes">N+10</Option>
    <Option name="NeuronType" modified="No">sigmoid</Option>
    <Option name="RandomSeed" modified="No">1</Option>
    <Option name="EstimatorType" modified="No">MSE</Option>
    <Option name="NeuronInputType" modified="No">sum</Option>
    <Option name="V" modified="Yes">False</Option>
    <Option name="VerbosityLevel" modified="No">Default</Option>
    <Option name="VarTransform" modified="Yes">N</Option>
    <Option name="H" modified="Yes">False</Option>
    <Option name="CreateMVAPdfs" modified="No">False</Option>
    <Option name="IgnoreNegWeightsInTraining" modified="No">False</Option>
    <Option name="TrainingMethod" modified="No">BP</Option>
    <Option name="LearningRate" modified="No">2.000000e-02</Option>
    <Option name="DecayRate" modified="No">1.000000e-02</Option>
    <Option name="TestRate" modified="Yes">10</Option>
    <Option name="EpochMonitoring" modified="No">False</Option>
    <Option name="Sampling" modified="No">1.000000e+00</Option>
    <Option name="SamplingEpoch" modified="No">1.000000e+00</Option>
    <Option name="SamplingImportance" modified="No">1.000000e+00</Option>
    <Option name="SamplingTraining" modified="No">True</Option>
    <Option name="SamplingTesting" modified="No">False</Option>
    <Option name="ResetStep" modified="No">50</Option>
    <Option name="Tau" modified="No">3.000000e+00</Option>
    <Option name="BPMode" modified="No">sequential</Option>
    <Option name="BatchSize" modified="No">-1</Option>
    <Option name="ConvergenceImprove" modified="No">1.000000e-30</Option>
    <Option name="ConvergenceTests" modified="No">-1</Option>
    <Option name="UseRegulator" modified="No">False</Option>
    <Option name="UpdateLimit" modified="No">10000</Option>
    <Option name="CalculateErrors" modified="No">False</Option>
    <Option name="WeightRange" modified="No">1.000000e+00</Option>
  </Options>
  <Variables NVar="5">
    <Variable VarIndex="0" Expression="Red" Label="Red" Title="Red" Unit="" Internal="Red" Type="F" Min="0.00000000e+00" Max="2.55000000e+02"/>
    <Variable VarIndex="1" Expression="Green" Label="Green" Title="Green" Unit="" Internal="Green" Type="F" Min="0.00000000e+00" Max="2.55000000e+02"/>
    <Variable VarIndex="2" Expression="Blue" Label="Blue" Title="Blue" Unit="" Internal="Blue" Type="F" Min="0.00000000e+00" Max="2.55000000e+02"/>
    <Variable VarIndex="3" Expression="GreenOverRed" Label="GreenOverRed" Title="GreenOverRed" Unit="" Internal="GreenOverRed" Type="F" Min="0.00000000e+00" Max="3.40000000e+01"/>
    <Variable VarIndex="4" Expression="BlueOverRed" Label="BlueOverRed" Title="BlueOverRed" Unit="" Internal="BlueOverRed" Type="F" Min="0.00000000e+00" Max="5.00000000e+01"/>
  </Variables>
  <Spectators NSpec="0"/>
  <Classes NClass="2">
    <Class Name="Background" Index="0"/>
    <Class Name="Signal" Index="1"/>
  </Classes>
  <Transformations NTransformations="1">
    <Transform Name="Normalize">
      <Selection>
        <Input NInputs="5">
          <Input Type="Variable" Label="Red" Expression="Red"/>
          <Input Type="Variable" Label="Green" Expression="Green"/>
          <Input Type="Variable" Label="Blue" Expression="Blue"/>
          <Input Type="Variable" Label="GreenOverRed" Expression="GreenOverRed"/>
          <Input Type="Variable" Label="BlueOverRed" Expression="BlueOverRed"/>
        </Input>
        <Output NOutputs="5">
          <Output Type="Variable" Label="Red" Expression="Red"/>
          <Output Type="Variable" Label="Green" Expression="Green"/>
          <Output Type="Variable" Label="Blue" Expression="Blue"/>
          <Output Type="Variable" Label="GreenOverRed" Expression="GreenOverRed"/>
          <Output Type="Variable" Label="BlueOverRed" Expression="BlueOverRed"/>
        </Output>
      </Selection>
      <Class ClassIndex="0">
        <Ranges>
          <Range Index="0" Min="0.0000000000000000e+00" Max="2.5500000000000000e+02"/>
          <Range Index="1" Min="0.0000000000000000e+00" Max="2.5500000000000000e+02"/>
          <Range Index="2" Min="0.0000000000000000e+00" Max="2.5500000000000000e+02"/>
          <Range Index="3" Min="0.0000000000000000e+00" Max="3.0000000000000000e+01"/>
          <Range Index="4" Min="0.0000000000000000e+00" Max="5.0000000000000000e+01"/>
        </Ranges>
      </Class>
      <Class ClassIndex="1">
        <Ranges>
          <Range Index="0" Min="0.0000000000000000e+00" Max="2.5500000000000000e+02"/>
          <Range Index="1" Min="0.0000000000000000e+00" Max="2.5500000000000000e+02"/>
          <Range Index="2" Min="0.0000000000000000e+00" Max="2.5500000000000000e+02"/>
          <Range Index="3" Min="0.0000000000000000e+00" Max="3.4000000000000000e+01"/>
          <Range Index="4" Min="0.0000000000000000e+00" Max="4.9000000000000000e+01"/>
        </Ranges>
      </Class>
      <Class ClassIndex="2">
        <Ranges>
          <Range Index="0" Min="0.0000000000000000e+00" Max="2.5500000000000000e+02"/>
          <Range Index="1" Min="0.0000000000000000e+00" Max="2.5500000000000000e+02"/>
          <Range Index="2" Min="0.0000000000000000e+00" Max="2.5500000000000000e+02"/>
          <Range Index="3" Min="0.0000000000000000e+00" Max="3.4000000000000000e+01"/>
          <Range Index="4" Min="0.0000000000000000e+00" Max="5.0000000000000000e+01"/>
        </Ranges>
      </Class>
    </Transform>
  </Transformations>
  <MVAPdfs/>
  <Weights>
    <Layout NLayers="3">
      <Layer Index="0" NNeurons="6">
        <Neuron NSynapses="15">
          -1.1124246521458032e+00 3.3654146035911681e+00 -1.6863866246158687e+00 1.4388159882710976e+01 -1.0270545691536038e+01 5.4948326698019923e+00 2.7245234753257317e+00 3.2227684520038120e+00 -4.6273336235267930e+00 -7.8142591742318857e-01 -5.0896765650048192e-01 -8.7844660494173485e+00 -1.1207242984046635e+01 5.3774462555763964e+00 -3.7611202687805485e+00 
        </Neuron>
        <Neuron NSynapses="15">
          1.2259464524987060e+01 1.6579704163830824e+00 1.1255446634999259e+01 3.0459066493401661e+00 7.7418229317865466e+00 -2.2089359863889023e+01 4.0222796901804729e+00 1.8513760275608934e+01 -1.1595962708115026e+01 -1.9587850299983909e+01 -2.1220198124978193e+01 1.6433033064375849e+01 5.7202983828828717e+00 -1.0305004371617871e+01 -4.9059889228513036e+00 
        </Neuron>
        <Neuron NSynapses="15">
          8.9189667102218328e-01 6.5841239732775740e+00 -1.1021921451924538e+01 -3.2055814620396433e+01 8.7291227608469573e+00 1.7592608874533003e+01 -1.4222400064515829e+01 4.8065719552430970e+00 6.9429144017149325e+00 6.7567858673448526e+00 2.9211694629441737e+01 -4.4325828681459255e-02 1.0713030644882936e+01 -3.8635576996060061e+00 -1.3709820867293818e+01 
        </Neuron>
        <Neuron NSynapses="15">
          1.7921817165327578e+00 1.8641432464889196e+00 6.5357097766462935e-01 6.7014984218061908e+00 8.1366118719756440e+00 9.0821928072250167e+00 -3.6871753885666445e+00 -8.2266382431472991e+00 -1.2289615930715597e-02 -2.8352244906412070e+00 -1.3853341533708394e+00 -5.3772389586903913e+00 -5.6606355977984917e+00 -7.0995798635952765e+00 7.1761396785802911e-01 
        </Neuron>
        <Neuron NSynapses="15">
          1.7956969871537480e+00 1.3074298642423940e+00 7.2962782798243686e-01 2.1760917125975254e+00 4.5629803728622305e+00 -1.1782963240744437e+00 -1.2253835143922287e+00 -5.9897564366448748e+00 1.4541238155362779e+01 1.9434774832373720e+00 -9.0783240799235276e+00 -2.7192523376483062e+00 1.9436404714348614e+00 2.8996595556522946e-02 5.2740711452126599e+00 
        </Neuron>
        <Neuron NSynapses="15">
          -3.9531222235320360e+00 -3.2622994687685249e+00 -4.8533765617382025e+00 -5.4294849772489417e+00 1.5048578035493549e+01 5.8495389816912340e+00 -1.3791686669060908e+01 6.8135009699811553e+00 5.8101044205163257e+00 -5.5604568749417096e+00 9.0767532459629194e-02 -6.3197217613191778e+00 6.8810177535913364e-01 -1.3713703148334947e+01 -1.1108558117916061e+01 
        </Neuron>
      </Layer>
      <Layer Index="1" NNeurons="16">
        <Neuron NSynapses="1">
          -3.6613226058999890e+00 
        </Neuron>
        <Neuron NSynapses="1">
          4.1172060789184561e+00 
        </Neuron>
        <Neuron NSynapses="1">
          4.2713791498753286e+00 
        </Neuron>
        <Neuron NSynapses="1">
          -1.0086047199514778e+00 
        </Neuron>
        <Neuron NSynapses="1">
          2.7835659095446528e+00 
        </Neuron>
        <Neuron NSynapses="1">
          -1.5141604164199201e+00 
        </Neuron>
        <Neuron NSynapses="1">
          -4.6099986659085443e+00 
        </Neuron>
        <Neuron NSynapses="1">
          -1.9124937707118108e+00 
        </Neuron>
        <Neuron NSynapses="1">
          -1.7205815251762755e+00 
        </Neuron>
        <Neuron NSynapses="1">
          -4.6226482206521313e-01 
        </Neuron>
        <Neuron NSynapses="1">
          -1.3127052362753433e+00 
        </Neuron>
        <Neuron NSynapses="1">
          -1.8052470365471369e+00 
        </Neuron>
        <Neuron NSynapses="1">
          -1.8565210989383492e+00 
        </Neuron>
        <Neuron NSynapses="1">
          2.7972565166075256e+00 
        </Neuron>
        <Neuron NSynapses="1">
          -1.4281794191391306e+00 
        </Neuron>
        <Neuron NSynapses="1">
          4.2393990636098433e+00 
        </Neuron>
      </Layer>
      <Layer Index="2" NNeurons="1">
        <Neuron NSynapses="0"/>
      </Layer>
    </Layout>
  </Weights>
</MethodSetup>
