<?xml version="1.0"?>
<MethodSetup Method="MLP::MLP">
  <GeneralInfo>
    <Info name="TMVA Release" value="4.2.0 [262656]"/>
    <Info name="ROOT Release" value="6.02/08 [393736]"/>
    <Info name="Creator" value="aocampor"/>
    <Info name="Date" value="Thu May 14 23:51:48 2015"/>
    <Info name="Host" value="Linux DaMachine 3.16.0-34-generic #45-Ubuntu SMP Mon Mar 23 17:21:27 UTC 2015 x86_64 x86_64 x86_64 GNU/Linux"/>
    <Info name="Dir" value="/home/aocampor/GIT/Diabetic/macros"/>
    <Info name="Training events" value="609"/>
    <Info name="TrainingTime" value="7.79420853e-01"/>
    <Info name="AnalysisType" value="Classification"/>
  </GeneralInfo>
  <Options>
    <Option name="NCycles" modified="Yes">100</Option>
    <Option name="HiddenLayers" modified="Yes">N+1</Option>
    <Option name="NeuronType" modified="No">sigmoid</Option>
    <Option name="RandomSeed" modified="No">1</Option>
    <Option name="EstimatorType" modified="No">MSE</Option>
    <Option name="NeuronInputType" modified="No">sum</Option>
    <Option name="V" modified="Yes">False</Option>
    <Option name="VerbosityLevel" modified="No">Default</Option>
    <Option name="VarTransform" modified="Yes">N</Option>
    <Option name="H" modified="Yes">False</Option>
    <Option name="CreateMVAPdfs" modified="No">False</Option>
    <Option name="IgnoreNegWeightsInTraining" modified="No">False</Option>
    <Option name="TrainingMethod" modified="No">BP</Option>
    <Option name="LearningRate" modified="No">2.000000e-02</Option>
    <Option name="DecayRate" modified="No">1.000000e-02</Option>
    <Option name="TestRate" modified="Yes">10</Option>
    <Option name="EpochMonitoring" modified="No">False</Option>
    <Option name="Sampling" modified="No">1.000000e+00</Option>
    <Option name="SamplingEpoch" modified="No">1.000000e+00</Option>
    <Option name="SamplingImportance" modified="No">1.000000e+00</Option>
    <Option name="SamplingTraining" modified="No">True</Option>
    <Option name="SamplingTesting" modified="No">False</Option>
    <Option name="ResetStep" modified="No">50</Option>
    <Option name="Tau" modified="No">3.000000e+00</Option>
    <Option name="BPMode" modified="No">sequential</Option>
    <Option name="BatchSize" modified="No">-1</Option>
    <Option name="ConvergenceImprove" modified="No">1.000000e-30</Option>
    <Option name="ConvergenceTests" modified="No">-1</Option>
    <Option name="UseRegulator" modified="No">False</Option>
    <Option name="UpdateLimit" modified="No">10000</Option>
    <Option name="CalculateErrors" modified="No">False</Option>
    <Option name="WeightRange" modified="No">1.000000e+00</Option>
  </Options>
  <Variables NVar="12">
    <Variable VarIndex="0" Expression="MeanR" Label="MeanR" Title="MeanR" Unit="" Internal="MeanR" Type="D" Min="5.32279110e+00" Max="2.37646301e+02"/>
    <Variable VarIndex="1" Expression="RMSR" Label="RMSR" Title="RMSR" Unit="" Internal="RMSR" Type="D" Min="3.19233799e+00" Max="9.51415405e+01"/>
    <Variable VarIndex="2" Expression="SkewR" Label="SkewR" Title="SkewR" Unit="" Internal="SkewR" Type="D" Min="-4.31201410e+00" Max="7.57039309e+00"/>
    <Variable VarIndex="3" Expression="KurR" Label="KurR" Title="KurR" Unit="" Internal="KurR" Type="D" Min="-1.20547283e+00" Max="6.87088318e+01"/>
    <Variable VarIndex="4" Expression="MeanG" Label="MeanG" Title="MeanG" Unit="" Internal="MeanG" Type="D" Min="2.51841903e+00" Max="1.75134460e+02"/>
    <Variable VarIndex="5" Expression="RMSG" Label="RMSG" Title="RMSG" Unit="" Internal="RMSG" Type="D" Min="2.79691935e+00" Max="7.65744858e+01"/>
    <Variable VarIndex="6" Expression="SkewG" Label="SkewG" Title="SkewG" Unit="" Internal="SkewG" Type="D" Min="-3.34339619e+00" Max="7.41583347e+00"/>
    <Variable VarIndex="7" Expression="KurG" Label="KurG" Title="KurG" Unit="" Internal="KurG" Type="D" Min="-1.13637185e+00" Max="6.91488953e+01"/>
    <Variable VarIndex="8" Expression="MeanB" Label="MeanB" Title="MeanB" Unit="" Internal="MeanB" Type="D" Min="5.35993624e+00" Max="1.84992386e+02"/>
    <Variable VarIndex="9" Expression="RMSB" Label="RMSB" Title="RMSB" Unit="" Internal="RMSB" Type="D" Min="3.44189668e+00" Max="8.30091171e+01"/>
    <Variable VarIndex="10" Expression="SkewB" Label="SkewB" Title="SkewB" Unit="" Internal="SkewB" Type="D" Min="-3.50835776e+00" Max="7.73473263e+00"/>
    <Variable VarIndex="11" Expression="KurB" Label="KurB" Title="KurB" Unit="" Internal="KurB" Type="D" Min="-9.79629815e-01" Max="7.11976089e+01"/>
  </Variables>
  <Spectators NSpec="0"/>
  <Classes NClass="2">
    <Class Name="Background" Index="0"/>
    <Class Name="Signal" Index="1"/>
  </Classes>
  <Transformations NTransformations="1">
    <Transform Name="Normalize">
      <Selection>
        <Input NInputs="12">
          <Input Type="Variable" Label="MeanR" Expression="MeanR"/>
          <Input Type="Variable" Label="RMSR" Expression="RMSR"/>
          <Input Type="Variable" Label="SkewR" Expression="SkewR"/>
          <Input Type="Variable" Label="KurR" Expression="KurR"/>
          <Input Type="Variable" Label="MeanG" Expression="MeanG"/>
          <Input Type="Variable" Label="RMSG" Expression="RMSG"/>
          <Input Type="Variable" Label="SkewG" Expression="SkewG"/>
          <Input Type="Variable" Label="KurG" Expression="KurG"/>
          <Input Type="Variable" Label="MeanB" Expression="MeanB"/>
          <Input Type="Variable" Label="RMSB" Expression="RMSB"/>
          <Input Type="Variable" Label="SkewB" Expression="SkewB"/>
          <Input Type="Variable" Label="KurB" Expression="KurB"/>
        </Input>
        <Output NOutputs="12">
          <Output Type="Variable" Label="MeanR" Expression="MeanR"/>
          <Output Type="Variable" Label="RMSR" Expression="RMSR"/>
          <Output Type="Variable" Label="SkewR" Expression="SkewR"/>
          <Output Type="Variable" Label="KurR" Expression="KurR"/>
          <Output Type="Variable" Label="MeanG" Expression="MeanG"/>
          <Output Type="Variable" Label="RMSG" Expression="RMSG"/>
          <Output Type="Variable" Label="SkewG" Expression="SkewG"/>
          <Output Type="Variable" Label="KurG" Expression="KurG"/>
          <Output Type="Variable" Label="MeanB" Expression="MeanB"/>
          <Output Type="Variable" Label="RMSB" Expression="RMSB"/>
          <Output Type="Variable" Label="SkewB" Expression="SkewB"/>
          <Output Type="Variable" Label="KurB" Expression="KurB"/>
        </Output>
      </Selection>
      <Class ClassIndex="0">
        <Ranges>
          <Range Index="0" Min="1.6550003051757812e+01" Max="2.3764630126953125e+02"/>
          <Range Index="1" Min="8.3772611618041992e+00" Max="9.2290977478027344e+01"/>
          <Range Index="2" Min="-4.3120141029357910e+00" Max="3.1979408264160156e+00"/>
          <Range Index="3" Min="-1.2054728269577026e+00" Max="2.2646358489990234e+01"/>
          <Range Index="4" Min="2.5184190273284912e+00" Max="1.7513446044921875e+02"/>
          <Range Index="5" Min="3.0634906291961670e+00" Max="7.1794075012207031e+01"/>
          <Range Index="6" Min="-3.3433961868286133e+00" Max="5.1583032608032227e+00"/>
          <Range Index="7" Min="-1.1363718509674072e+00" Max="4.3889579772949219e+01"/>
          <Range Index="8" Min="7.3850727081298828e+00" Max="1.8499238586425781e+02"/>
          <Range Index="9" Min="5.6854000091552734e+00" Max="6.6922164916992188e+01"/>
          <Range Index="10" Min="-3.5083577632904053e+00" Max="4.2374582290649414e+00"/>
          <Range Index="11" Min="-6.8998581171035767e-01" Max="3.0877370834350586e+01"/>
        </Ranges>
      </Class>
      <Class ClassIndex="1">
        <Ranges>
          <Range Index="0" Min="5.3227910995483398e+00" Max="2.3195587158203125e+02"/>
          <Range Index="1" Min="3.1923379898071289e+00" Max="9.5141540527343750e+01"/>
          <Range Index="2" Min="-3.1416277885437012e+00" Max="7.5703930854797363e+00"/>
          <Range Index="3" Min="-1.0723220109939575e+00" Max="6.8708831787109375e+01"/>
          <Range Index="4" Min="3.6686711311340332e+00" Max="1.6217868041992188e+02"/>
          <Range Index="5" Min="2.7969193458557129e+00" Max="7.6574485778808594e+01"/>
          <Range Index="6" Min="-2.0015106201171875e+00" Max="7.4158334732055664e+00"/>
          <Range Index="7" Min="-9.0678346157073975e-01" Max="6.9148895263671875e+01"/>
          <Range Index="8" Min="5.3599362373352051e+00" Max="1.8229994201660156e+02"/>
          <Range Index="9" Min="3.4418966770172119e+00" Max="8.3009117126464844e+01"/>
          <Range Index="10" Min="-2.2900159358978271e+00" Max="7.7347326278686523e+00"/>
          <Range Index="11" Min="-9.7962981462478638e-01" Max="7.1197608947753906e+01"/>
        </Ranges>
      </Class>
      <Class ClassIndex="2">
        <Ranges>
          <Range Index="0" Min="5.3227910995483398e+00" Max="2.3764630126953125e+02"/>
          <Range Index="1" Min="3.1923379898071289e+00" Max="9.5141540527343750e+01"/>
          <Range Index="2" Min="-4.3120141029357910e+00" Max="7.5703930854797363e+00"/>
          <Range Index="3" Min="-1.2054728269577026e+00" Max="6.8708831787109375e+01"/>
          <Range Index="4" Min="2.5184190273284912e+00" Max="1.7513446044921875e+02"/>
          <Range Index="5" Min="2.7969193458557129e+00" Max="7.6574485778808594e+01"/>
          <Range Index="6" Min="-3.3433961868286133e+00" Max="7.4158334732055664e+00"/>
          <Range Index="7" Min="-1.1363718509674072e+00" Max="6.9148895263671875e+01"/>
          <Range Index="8" Min="5.3599362373352051e+00" Max="1.8499238586425781e+02"/>
          <Range Index="9" Min="3.4418966770172119e+00" Max="8.3009117126464844e+01"/>
          <Range Index="10" Min="-3.5083577632904053e+00" Max="7.7347326278686523e+00"/>
          <Range Index="11" Min="-9.7962981462478638e-01" Max="7.1197608947753906e+01"/>
        </Ranges>
      </Class>
    </Transform>
  </Transformations>
  <MVAPdfs/>
  <Weights>
    <Layout NLayers="3">
      <Layer Index="0" NNeurons="13">
        <Neuron NSynapses="13">
          -1.8375489272493528e-01 1.8247339075965003e+00 5.2343401139676393e-01 1.7224674438405370e+00 -2.4698047077849821e+00 -1.6051881571601896e+00 -4.4375590871315240e-01 1.7543667764252329e+00 -1.1595418131468544e+00 -1.1081951603838260e+00 -1.4279094015753475e+00 -2.3768435103709762e-01 -1.3203198184320397e+00 
        </Neuron>
        <Neuron NSynapses="13">
          -1.8281564032722017e-01 -8.8365045242724305e-01 3.2910973538625127e-01 -3.6928293920672201e-01 9.9483111779801703e-01 3.7531278089717783e-02 1.2009061038089373e+00 -6.0842550148280850e-01 -3.3453819684306940e-01 7.2023529183657686e-01 -3.1521178192714810e-01 -9.7145077742553343e-01 -4.3579257198999494e-02 
        </Neuron>
        <Neuron NSynapses="13">
          1.4711475827366951e+00 -1.1452974346035405e+00 -1.6067062979270497e+00 1.8438662047501508e-01 7.6159994556639343e-01 1.4725411597758444e+00 -6.5585866866475506e-01 -9.5915169956427557e-02 2.6080160523672102e-01 -2.8909286429492731e-01 -1.6339166327254970e+00 1.7461293567464591e+00 -1.1505600277805097e+00 
        </Neuron>
        <Neuron NSynapses="13">
          9.2875409540739107e-01 1.5508574057023636e+00 1.1576371924123596e+00 1.8337502673383395e+00 1.3412945857542244e+00 -2.0612870347613999e-01 -2.1231334457747786e+00 8.8648575334917057e-01 1.6077265886634182e-01 1.4181959410675562e+00 8.6198914503672752e-01 1.3213537860587252e+00 1.3138614589060591e+00 
        </Neuron>
        <Neuron NSynapses="13">
          -1.7280798848283383e+00 1.4191808914914150e+00 -1.6712701927958795e+00 -8.2661527794341128e-01 -1.3341361139511441e+00 -1.2532793108358522e+00 1.6378030826652732e+00 8.8853332368398852e-01 -1.6402070441431147e+00 4.6389630669031290e-01 -8.0623786552597532e-01 2.4176414724273698e-01 1.8703515382543487e+00 
        </Neuron>
        <Neuron NSynapses="13">
          -1.5265609182723427e-01 -8.4477691147165274e-02 -1.2774702100657997e+00 8.4254245360473834e-01 -1.2766108895835495e+00 -9.2678806222620447e-01 -1.6235148259490650e+00 7.8103430979106581e-01 1.4499212054379029e+00 1.3027781826436340e+00 -7.6324025072725743e-01 -1.8748541954688021e+00 -1.6216626838935415e+00 
        </Neuron>
        <Neuron NSynapses="13">
          8.1230999272436255e-01 4.8837906236749534e-01 2.3134875639165569e+00 6.7717702311927164e-01 1.2164691267578331e+00 -9.4231813586594226e-01 -9.3018577662849322e-01 -2.3290878890749248e-01 1.2198004650753125e+00 -1.1536643032751421e+00 -1.2962543374411619e+00 -1.4965286351333627e+00 -1.1245379813127743e-01 
        </Neuron>
        <Neuron NSynapses="13">
          -7.2317171041228687e-02 1.4609622761260739e+00 -1.6240152135488886e+00 -7.2502641677438162e-01 1.2024633250570096e+00 -1.0248682536860592e+00 -1.5849547263058608e+00 -1.6165969748640736e+00 4.4753891419269132e-01 -2.0759540903551366e+00 -1.7717287465529268e+00 6.4150224381427268e-01 1.5344351139313321e+00 
        </Neuron>
        <Neuron NSynapses="13">
          -1.0947132429552020e+00 1.6213635845808110e+00 -1.0792884251026877e+00 -8.5616710101117299e-01 -9.7962627126452637e-02 4.7179450837895615e-01 -1.4785634351179873e+00 3.2419927542552701e-01 2.6617765685105371e-01 5.0429474210619907e-01 -1.4283888828696267e+00 1.5920596169633088e+00 2.8587877536752204e-01 
        </Neuron>
        <Neuron NSynapses="13">
          -9.1604480511191677e-01 7.9988634017177473e-01 -1.0852326425254992e+00 -1.6425691711128461e+00 -1.0609485287164110e-01 -4.9308180070055260e-02 1.5726622407751307e+00 7.2173512606644574e-01 1.6174768898201700e-01 -2.9422468523997036e-01 -3.2093823057123760e-01 -1.8351735748445652e+00 1.3149158790987456e+00 
        </Neuron>
        <Neuron NSynapses="13">
          -9.3410875445395905e-02 -1.7243100232353323e+00 1.1171288674144306e+00 -1.3828965139634550e+00 2.6390044444410837e-01 1.3691117996098421e+00 1.5196844524361175e+00 -1.8309301534500664e+00 3.8115320681463355e-01 1.5100668430929736e+00 1.4760879568581742e+00 1.4481819566665435e-01 -1.3133553734806014e+00 
        </Neuron>
        <Neuron NSynapses="13">
          -2.7680010530141808e-01 -1.3002614950505658e+00 1.7152359836347817e+00 1.2357110238218596e+00 -5.7264547816889899e-01 -1.4095707635925450e-01 -2.7531781453352566e-01 -1.2903184871340601e+00 7.7563912254731626e-01 1.5544686847812175e+00 -1.0340862896434249e+00 -8.2274935760553336e-01 2.2859225568168190e-01 
        </Neuron>
        <Neuron NSynapses="13">
          1.1845284785148764e+00 2.2842442742508989e-01 5.9390361582419660e-01 -1.3699593954511395e+00 1.4936383070546049e+00 1.7616214394786256e-01 1.2778308693191951e+00 5.1044785183598851e-01 8.3768571703690375e-01 -5.9856967444167586e-01 4.5203748090169471e-01 1.2967753226720442e+00 -1.2068395115928410e+00 
        </Neuron>
      </Layer>
      <Layer Index="1" NNeurons="14">
        <Neuron NSynapses="1">
          -7.5806164985553681e-01 
        </Neuron>
        <Neuron NSynapses="1">
          7.5619094797877096e-01 
        </Neuron>
        <Neuron NSynapses="1">
          8.0036331942240824e-01 
        </Neuron>
        <Neuron NSynapses="1">
          -7.9544026147154667e-01 
        </Neuron>
        <Neuron NSynapses="1">
          7.4993159291363354e-01 
        </Neuron>
        <Neuron NSynapses="1">
          1.5045265044540699e+00 
        </Neuron>
        <Neuron NSynapses="1">
          -1.6795467865069849e+00 
        </Neuron>
        <Neuron NSynapses="1">
          5.1922286247603555e-01 
        </Neuron>
        <Neuron NSynapses="1">
          -4.6525098245726537e-01 
        </Neuron>
        <Neuron NSynapses="1">
          5.0147517818221432e-01 
        </Neuron>
        <Neuron NSynapses="1">
          -6.3588143843459854e-01 
        </Neuron>
        <Neuron NSynapses="1">
          -4.9202195699597201e-01 
        </Neuron>
        <Neuron NSynapses="1">
          2.6744341222255419e-01 
        </Neuron>
        <Neuron NSynapses="1">
          9.7788081249486924e-01 
        </Neuron>
      </Layer>
      <Layer Index="2" NNeurons="1">
        <Neuron NSynapses="0"/>
      </Layer>
    </Layout>
  </Weights>
</MethodSetup>
