<?xml version="1.0"?>
<MethodSetup Method="MLP::MLP">
  <GeneralInfo>
    <Info name="TMVA Release" value="4.2.0 [262656]"/>
    <Info name="ROOT Release" value="6.02/08 [393736]"/>
    <Info name="Creator" value="aocampor"/>
    <Info name="Date" value="Sun May 10 09:36:56 2015"/>
    <Info name="Host" value="Linux DaMachine 3.16.0-34-generic #45-Ubuntu SMP Mon Mar 23 17:21:27 UTC 2015 x86_64 x86_64 x86_64 GNU/Linux"/>
    <Info name="Dir" value="/home/aocampor/DiabeticRetinophaty/macros"/>
    <Info name="Training events" value="99147"/>
    <Info name="TrainingTime" value="3.82096090e+02"/>
    <Info name="AnalysisType" value="Classification"/>
  </GeneralInfo>
  <Options>
    <Option name="NCycles" modified="Yes">100</Option>
    <Option name="HiddenLayers" modified="Yes">N+100</Option>
    <Option name="NeuronType" modified="No">sigmoid</Option>
    <Option name="RandomSeed" modified="No">1</Option>
    <Option name="EstimatorType" modified="No">MSE</Option>
    <Option name="NeuronInputType" modified="No">sum</Option>
    <Option name="V" modified="Yes">False</Option>
    <Option name="VerbosityLevel" modified="No">Default</Option>
    <Option name="VarTransform" modified="Yes">N</Option>
    <Option name="H" modified="Yes">False</Option>
    <Option name="CreateMVAPdfs" modified="No">False</Option>
    <Option name="IgnoreNegWeightsInTraining" modified="No">False</Option>
    <Option name="TrainingMethod" modified="No">BP</Option>
    <Option name="LearningRate" modified="No">2.000000e-02</Option>
    <Option name="DecayRate" modified="No">1.000000e-02</Option>
    <Option name="TestRate" modified="Yes">10</Option>
    <Option name="EpochMonitoring" modified="No">False</Option>
    <Option name="Sampling" modified="No">1.000000e+00</Option>
    <Option name="SamplingEpoch" modified="No">1.000000e+00</Option>
    <Option name="SamplingImportance" modified="No">1.000000e+00</Option>
    <Option name="SamplingTraining" modified="No">True</Option>
    <Option name="SamplingTesting" modified="No">False</Option>
    <Option name="ResetStep" modified="No">50</Option>
    <Option name="Tau" modified="No">3.000000e+00</Option>
    <Option name="BPMode" modified="No">sequential</Option>
    <Option name="BatchSize" modified="No">-1</Option>
    <Option name="ConvergenceImprove" modified="No">1.000000e-30</Option>
    <Option name="ConvergenceTests" modified="No">-1</Option>
    <Option name="UseRegulator" modified="No">False</Option>
    <Option name="UpdateLimit" modified="No">10000</Option>
    <Option name="CalculateErrors" modified="No">False</Option>
    <Option name="WeightRange" modified="No">1.000000e+00</Option>
  </Options>
  <Variables NVar="5">
    <Variable VarIndex="0" Expression="Red" Label="Red" Title="Red" Unit="" Internal="Red" Type="F" Min="0.00000000e+00" Max="2.55000000e+02"/>
    <Variable VarIndex="1" Expression="Green" Label="Green" Title="Green" Unit="" Internal="Green" Type="F" Min="0.00000000e+00" Max="2.55000000e+02"/>
    <Variable VarIndex="2" Expression="Blue" Label="Blue" Title="Blue" Unit="" Internal="Blue" Type="F" Min="0.00000000e+00" Max="2.26000000e+02"/>
    <Variable VarIndex="3" Expression="GreenOverRed" Label="GreenOverRed" Title="GreenOverRed" Unit="" Internal="GreenOverRed" Type="F" Min="0.00000000e+00" Max="4.00000000e+00"/>
    <Variable VarIndex="4" Expression="BlueOverRed" Label="BlueOverRed" Title="BlueOverRed" Unit="" Internal="BlueOverRed" Type="F" Min="0.00000000e+00" Max="8.00000000e+00"/>
  </Variables>
  <Spectators NSpec="0"/>
  <Classes NClass="2">
    <Class Name="Background" Index="0"/>
    <Class Name="Signal" Index="1"/>
  </Classes>
  <Transformations NTransformations="1">
    <Transform Name="Normalize">
      <Selection>
        <Input NInputs="5">
          <Input Type="Variable" Label="Red" Expression="Red"/>
          <Input Type="Variable" Label="Green" Expression="Green"/>
          <Input Type="Variable" Label="Blue" Expression="Blue"/>
          <Input Type="Variable" Label="GreenOverRed" Expression="GreenOverRed"/>
          <Input Type="Variable" Label="BlueOverRed" Expression="BlueOverRed"/>
        </Input>
        <Output NOutputs="5">
          <Output Type="Variable" Label="Red" Expression="Red"/>
          <Output Type="Variable" Label="Green" Expression="Green"/>
          <Output Type="Variable" Label="Blue" Expression="Blue"/>
          <Output Type="Variable" Label="GreenOverRed" Expression="GreenOverRed"/>
          <Output Type="Variable" Label="BlueOverRed" Expression="BlueOverRed"/>
        </Output>
      </Selection>
      <Class ClassIndex="0">
        <Ranges>
          <Range Index="0" Min="0.0000000000000000e+00" Max="2.5500000000000000e+02"/>
          <Range Index="1" Min="0.0000000000000000e+00" Max="2.5500000000000000e+02"/>
          <Range Index="2" Min="0.0000000000000000e+00" Max="2.2600000000000000e+02"/>
          <Range Index="3" Min="0.0000000000000000e+00" Max="3.0000000000000000e+00"/>
          <Range Index="4" Min="0.0000000000000000e+00" Max="6.0000000000000000e+00"/>
        </Ranges>
      </Class>
      <Class ClassIndex="1">
        <Ranges>
          <Range Index="0" Min="0.0000000000000000e+00" Max="2.5500000000000000e+02"/>
          <Range Index="1" Min="0.0000000000000000e+00" Max="2.5100000000000000e+02"/>
          <Range Index="2" Min="0.0000000000000000e+00" Max="1.8700000000000000e+02"/>
          <Range Index="3" Min="0.0000000000000000e+00" Max="4.0000000000000000e+00"/>
          <Range Index="4" Min="0.0000000000000000e+00" Max="8.0000000000000000e+00"/>
        </Ranges>
      </Class>
      <Class ClassIndex="2">
        <Ranges>
          <Range Index="0" Min="0.0000000000000000e+00" Max="2.5500000000000000e+02"/>
          <Range Index="1" Min="0.0000000000000000e+00" Max="2.5500000000000000e+02"/>
          <Range Index="2" Min="0.0000000000000000e+00" Max="2.2600000000000000e+02"/>
          <Range Index="3" Min="0.0000000000000000e+00" Max="4.0000000000000000e+00"/>
          <Range Index="4" Min="0.0000000000000000e+00" Max="8.0000000000000000e+00"/>
        </Ranges>
      </Class>
    </Transform>
  </Transformations>
  <MVAPdfs/>
  <Weights>
    <Layout NLayers="3">
      <Layer Index="0" NNeurons="6">
        <Neuron NSynapses="105">
          -7.4896475896817716e-01 1.8835044486615964e+00 2.6357600099618810e+00 1.3596461107931568e-01 -2.2726422512326465e+00 -1.3478513587319045e+00 -9.0653331837426432e-01 1.5524630980453273e+00 -4.7372148068230286e+00 -5.3480860625269226e+00 -1.4065418947945461e+00 -5.1569517034101620e-01 -1.1380070902726875e+00 -6.2171580608920740e-01 -7.3150423956031907e-01 1.1555438539257252e+00 -3.8676279377414946e-01 1.6461046822295962e+00 -2.2067695460137293e-01 8.5181924554193367e-01 -5.4622589912228459e-01 -7.5780928800194802e-01 3.0585911775599034e-01 -1.8466430294897551e-01 -1.2732482348570855e+00 -4.0727491305071822e-01 1.9307968525006669e+00 -1.4329597996012102e+00 -3.0364304068185191e+00 -4.7452886589820317e-02 1.2437404495984151e+01 3.2375353950562733e+00 -2.6600289025622498e-01 -4.5032606171051887e-01 9.7902802857690485e-01 -7.1558127011725414e-01 -1.5005656022854159e+00 1.8966293992139729e+00 -1.0602122537054499e+00 9.8075604284702189e-01 1.0042339300694312e+00 5.9670751147185153e-01 1.4603007419198160e+00 1.1283836124977245e+00 -9.5796963003362223e-01 -1.3339508236134081e+00 5.8157375419853163e-01 -3.5231330861730484e-02 1.0854100490939305e+00 6.0759552837064523e-01 3.4235691256663991e+00 7.7407105933069220e-01 -1.5242082910691888e+00 1.6510585551770056e+00 -1.2394051316544623e+00 -1.3625299901333718e+00 -8.5488074156915161e-01 -1.7629095641430492e+00 1.1974469392704636e+00 2.5195457629212004e-01 -1.2718887645400310e+00 1.5554217518356792e-01 -3.5396165453553552e-01 9.2236116434836335e-01 1.4564279430773597e+00 -5.1774802120487506e-01 -1.2202957587911915e-01 -1.4180741781920172e+00 2.3207073486458509e+00 -8.7996424629493974e-01 -4.4898297283245941e-01 -3.3114332610932862e+00 4.0301356932657895e-01 1.0506007039361138e+00 1.7066840693155947e+00 -5.2017859929763954e-01 -1.7666102189938939e+00 -1.7851109476898799e+00 1.3935638982654852e+00 6.5968556713920667e-01 1.4064640619080524e+00 1.0155111372010726e+00 5.2080232828919462e+00 -8.4030770713644953e-01 -9.1688375110910647e-01 -2.4935169355117029e-01 1.2733942154103164e+00 -8.2448189558941398e-01 -1.4723921361636090e+00 -1.3855961519290689e+00 -8.1504205347686409e-01 1.0471932556438899e+00 1.4416850712836855e+00 -1.4636151134083155e+00 -5.2148419031779447e-01 1.1456679841599295e+00 -1.0022445359850689e+00 -1.4084946019433719e+00 -1.9449835818306174e+00 -5.4511151275445535e-02 -1.8237741455799459e+00 -2.1872674416422759e+00 3.7079709034584585e-01 2.8591714123904897e+00 -1.1916014212342572e+00 
        </Neuron>
        <Neuron NSynapses="105">
          1.8862413688398041e+00 -9.9604715431138635e-01 -2.2794650966216516e+00 1.2117367968205302e-01 6.5667131833964398e-01 -1.1758427448553519e+00 4.4394730008303745e-01 7.8900182615571468e-01 1.7990508186622494e+00 -6.2605603188510965e+00 2.6458815631803421e+00 5.3609150792764537e-01 -2.4522706612832690e-01 1.0104633189432430e+00 -1.1812708987704508e+00 -1.6546901160151519e+00 2.4669350140004090e-01 -1.6331616817944750e-01 2.2234185865881861e+00 1.0903833980470889e+00 2.0086885973186383e-01 -3.1263434168378082e-02 2.0139287641297934e-01 -9.4092551039095673e-01 1.2765791913746891e+00 6.6602697089138907e-01 -2.0119530005854003e+00 2.5324563655718263e-01 -1.9171397822500362e+00 4.6433589159744126e-01 -7.8476498914848811e+00 3.4426968666946722e+00 -1.1987859083069401e+00 2.2502711210000675e-01 1.3974594813707988e+00 1.8467206492997381e+00 6.2249193649810142e-01 -8.3167413091638109e-01 -1.4050325441537106e-01 -1.0051245743922370e+00 2.0205528685205665e+00 1.4370196639142641e+00 -6.5120084365164510e-01 -4.6679092408101286e-01 -5.9423764260991156e-02 -2.3117846175852141e-01 7.3702656840221359e-01 2.3700340810345164e+00 -7.4935594535130823e-02 -1.6614488298048831e+00 -7.1428910733015494e-01 1.3991222869243349e+00 6.5724194795510038e-01 1.2314417259184258e+00 -7.0660596167887479e-01 2.7578072947655516e+00 1.3958313193919445e+00 8.4320646146291878e-01 3.6174158773736226e-01 5.1488733336003067e-01 8.8800614938314718e-02 -2.1572305285080901e-01 9.6567068956890667e-01 -8.1286215824439823e-01 -3.8205509944353705e-01 1.6162931495897916e+00 1.5114672631271870e+00 2.3256366265220366e-01 3.8764304840894486e+00 2.1873415049495293e+00 -1.4511762525441494e+00 2.3495768706839191e+00 4.2809300839048070e-01 5.0640122200882676e-01 -1.1235913600181833e+00 -7.7269975101501776e-01 1.7132652326589908e+00 2.0615288536103238e+00 -1.6493096097805986e+00 9.0880854678088943e-02 -1.0691303707462836e-02 2.7845653155078859e-01 4.7850998473605575e+00 -4.1691785313362079e-01 -1.0558763485568418e-01 -4.8178934905193432e-01 1.2644885599523270e+00 2.0228788076040383e+00 2.4162965585208287e+00 9.2950270400629287e-01 -1.6857723475290270e-01 -3.2978281391623563e+00 2.1056808211857243e+00 8.6872088879037823e-01 -8.8527532848819135e-01 -1.9695210482209594e-01 9.6273045023685677e-01 7.4986669199938671e-01 -1.4191482445764887e+00 3.1773610886457457e+00 9.5838073169512672e-01 -7.3914991442581535e-01 5.7022516096082865e-01 -1.0249219672903966e+00 1.3159597972647012e+00 
        </Neuron>
        <Neuron NSynapses="105">
          1.1029762180480178e+00 -1.5090147388265732e-01 -5.1660512760941533e+00 3.9001431140275017e-01 3.3197621600838945e+00 2.1051188246081152e+00 1.5303212139860027e+00 1.1261993223814601e+00 3.9387584358665886e+00 -6.5423717691342924e+00 -1.1098451060606722e+00 4.0851592842291312e-01 -5.6276040563044138e-01 1.4125172681645510e+00 1.6299971878853201e+00 -1.8333970583350034e+00 2.0478170830590092e+00 2.8859776466987164e-01 -8.5793048418929474e-01 -3.9571429579466982e-01 1.4996867744651003e+00 7.3240349563009699e-01 2.0236999377658380e+00 3.2901999917749164e-01 2.1044656245741193e+00 -9.9914109591748601e-01 1.1864251630900902e+00 1.7704525648090899e-01 -1.2228564889323972e+00 -5.8609193454255837e-01 -1.4049072191356810e+01 4.6760379253278950e-01 -9.5538594012109024e-01 -1.1605771972896621e+00 -2.2747180507671634e+00 3.2435218610137501e-01 -6.6644104734239806e-01 -9.1310830089785400e-01 1.3533386442644406e+00 -1.8927622378572515e-01 1.2362015830034019e+00 -5.3362671607534184e-01 4.9269534225797017e-02 2.1361057985218022e+00 1.0448670135058047e+00 -4.1816452239889274e-01 -1.3189453950855028e+00 6.1017534063099843e-02 1.7245922992042750e-01 -3.2690767085004593e+00 7.1718165024442737e-01 1.1277998835258372e+00 1.6731280364540062e+00 -2.3814300176321709e-01 8.8970404526881042e-01 -1.8102268060325638e-01 -1.2419263468992996e+00 1.9543172669780255e+00 1.6286936253870750e+00 -7.5768474182039336e-01 -5.0245848116858438e-01 1.4876535961073356e+00 1.0350687908176324e+00 6.3090914956702393e-01 5.0940089290953484e-02 -6.7030839259432318e-02 3.7754943871177415e+00 1.8364125778925855e+00 3.8795958756063076e+00 -3.4847732461912961e-01 6.6961187119539001e-01 1.4370645495534842e+00 -8.9598345121979850e-01 -3.7177837783602169e-01 -1.7429480355847380e+00 -1.0625042362184600e-01 -9.0823564023652004e-01 2.1720566512668107e+00 -2.1616680089946785e+00 2.4719186373765867e+00 -3.2487911100741429e-01 9.5272007569817330e-01 -1.9236905220545188e+00 4.2620925650692731e-01 1.5675809834568133e+00 -9.1209952680185935e-01 2.1623019528958320e-01 2.2977727266219796e+00 -1.0599312211218130e+00 -9.4484539628130937e-01 -4.8742995222478708e-01 -2.8074989702765754e+00 2.0903189089580310e+00 8.2443194338350068e-02 7.2546589931813510e-01 1.0721052373361778e-01 -1.6689851352847732e-01 -8.3599403537478889e-01 5.8741050646075854e-01 -7.6732637966989925e-01 9.9474376546232213e-01 -7.0099449132087810e-01 -4.5992436466816600e-01 5.4635965319947983e+00 5.8174526613195365e-01 
        </Neuron>
        <Neuron NSynapses="105">
          4.6945193565155202e-01 2.5087550285231894e+00 -2.8976302127151460e-01 2.6503946150041480e+00 4.2595677978345298e-01 -1.6851566157620276e-01 -2.5659207201376222e-01 1.4249947690060596e+00 2.8760660899345475e-01 2.5495402257376916e+00 2.1351369485754788e+00 2.0227242541190842e+00 2.5209725313161377e+00 -7.2142984364761953e-01 1.2002438937213760e+00 -1.1751379799455475e+00 1.0910953448529475e+00 -5.6747257524565342e-01 -6.1642701130450228e-01 1.0780655952852436e+00 1.9504976172118047e+00 1.3016548984119360e+00 1.2660661654649847e+00 1.8515752882304348e+00 4.3344872555714969e-01 2.4832543845871713e-01 4.7489862430295454e-01 2.1207681807170893e+00 -5.0774959110512108e-01 1.2907411192257148e+00 -1.4273713917407644e+00 3.0387239597511639e-01 9.5692995650648360e-01 8.7143990092020129e-01 -5.1255204429784595e-01 2.0129675894063137e+00 2.4236877077571477e+00 2.2490979893233130e+00 4.0591984363930406e-01 -3.4055896729218572e-03 -7.2073246866625451e-01 -7.7656698695216986e-01 1.2452375385875034e+00 -2.3959983517060786e-03 -1.0215364407067011e+00 1.8365523686930689e+00 -2.8394568256745800e-01 1.6357533463309260e-02 -5.1483710134588058e-02 1.8912309833239263e+00 -9.1060549711651884e-01 -4.6234828188211746e-01 5.5450663316763134e-02 -8.0221174172963580e-02 -8.8154295333387223e-01 2.2518596523990917e+00 -2.7985837502280592e-01 -1.3571992621524173e-01 1.7119139708642830e+00 1.4630186405838381e+00 1.0186357043056533e+00 1.0450059730948729e+00 1.5633846300053411e+00 1.8069917737901171e+00 1.4091531292546482e+00 -6.1696799769515098e-01 4.8521179586199625e-01 -7.5742314878840489e-01 1.0304267759924579e+00 1.0646915797685379e+00 7.1826306180251831e-01 2.9237517947905212e+00 1.7991452604373779e+00 2.2163545714898381e+00 1.1407679589766427e-01 3.3843491340213898e+00 1.6700243253449882e+00 -9.5632298443320152e-01 -3.6831689580682135e-02 -3.2946352049309674e-01 2.4021414018949212e+00 6.5259403898636348e-01 1.8358427632710248e+00 1.8208804414143769e+00 3.3636868240158413e-01 2.8616341543400718e+00 2.2748995596202146e+00 -5.8955582129630271e-02 -3.3246728197734864e-03 2.3126210603650854e+00 -5.0824798424258510e-01 1.5594199045758756e+00 2.3732318604068796e+00 2.4050656648957364e-01 -2.4994757038910853e-01 1.4766045702496133e+00 9.7440542518548636e-03 1.5666337267874466e+00 -4.0689710702058463e-01 1.0945170189144182e+00 -3.1453351779329904e-02 2.8709644944139896e+00 1.6418794913132773e+00 7.9273427098082505e-01 -9.1208557384341596e-02 
        </Neuron>
        <Neuron NSynapses="105">
          8.9104877096801993e-01 1.4463676594359187e+00 3.5571532759004834e+00 -4.6746651708421905e-01 -9.7954386557202677e-01 4.3279221268868362e-01 -5.0921274390007498e-01 1.2418214107541166e-01 -4.6672885854479434e-01 3.4265547949816186e+00 1.1741265226783511e-02 -8.5403560339866857e-01 -7.8481816782659730e-01 7.4235427570982770e-01 1.7232186566525636e+00 3.2135890592448040e+00 1.6861001512871023e+00 8.7908987171163444e-01 -3.2474802061576252e-01 1.2415975756630624e+00 -3.7949114480766138e-01 -3.1789120203181143e-01 -8.2310348175669665e-02 1.9114225135038156e+00 -6.6881393903553132e-01 2.6910066857138926e+00 2.2383215115417676e+00 8.2601232346269549e-01 1.0971866751203887e+00 3.9836085917456798e-01 4.7983542337904117e+00 2.3218544917291284e-01 1.3808821758620824e+00 3.0522840908279600e+00 2.0576780747037851e+00 2.0428582788023475e-01 2.1691279642679495e+00 7.2114986325386143e-01 2.2578172406881682e+00 3.0392043387133443e+00 8.6887483576331348e-01 1.0021434727416982e+00 4.7866292591379178e-01 1.3267290442937249e-01 2.7435049302445225e+00 1.7905697420161932e+00 1.1711190732611199e+00 1.8326359228481640e-01 2.0871760575375817e+00 4.9828586706808426e+00 1.7475129436021286e+00 9.0432918709532351e-01 -1.3236804551321109e+00 2.8342698053638005e+00 1.1391012805809106e+00 -5.5690644237562770e-01 1.2235785513470623e+00 5.3543202754621488e-01 1.3045628050204929e+00 2.2942760944371994e+00 5.7977515868095256e-02 -1.2900654847019740e-03 1.8990167562317468e+00 1.4008321386821507e+00 1.4795940278249682e+00 6.2171097985156853e-01 5.8377277315789879e-02 -1.5276503479315652e-02 1.6391077155389613e+00 2.5359091756194763e-01 1.2430152364223579e+00 -4.0119743708560647e-02 -9.4856716198831004e-01 -9.9028083402521050e-01 1.2840220574782184e+00 1.2589270994522420e-01 1.7922011935203879e+00 1.0634068090072928e+00 2.1008957257066037e+00 1.4452005817783442e+00 -7.6881695453673904e-02 2.0779329389030772e+00 2.3579141427829335e+00 1.1900788120503918e+00 5.0887551303749756e-01 3.3440392981139061e-01 2.7035116314833183e+00 -1.1481370908616972e+00 1.5479736254725360e+00 -6.2472722931259517e-01 3.6942150929477440e+00 1.3656654464751319e+00 1.0412802364972753e+00 5.9240495052021336e-01 1.7321401230727471e+00 1.4099267816677579e+00 8.5435302377975608e-01 2.2404787723584572e+00 2.0357964642030564e+00 1.4024137519356106e+00 1.2942771433050038e+00 -3.2809729787146036e-01 2.1853226159385892e+00 -1.4191755578534462e+00 1.5852230123531830e+00 
        </Neuron>
        <Neuron NSynapses="105">
          -2.9494692460713301e-01 -3.7011843548480367e-01 -3.3638196993180007e+00 2.6751995055436312e-02 -2.2588408414086989e+00 -1.8739551006410118e+00 -2.1323549875429375e+00 -1.3261598851288019e+00 -6.5161187937739296e-01 -4.1663554080965861e+00 -7.4661558181112042e-01 -1.7319384639357560e+00 -2.3420970148338962e+00 -1.3361729027442175e+00 -1.7411057193160584e+00 -2.2539198185127609e+00 -1.3735092862259682e-01 -2.4852895324792810e+00 -3.2680222276939213e+00 -9.9822226211036724e-01 -7.7637239966930305e-01 -1.6747947891519568e+00 -1.7847515686625564e+00 -1.2000428178659665e-01 -1.2252179387020974e+00 -5.2681908102289332e-01 -3.4648048382027075e-01 -1.3572986760270960e+00 -3.0965019925352024e+00 -1.7054584704741544e+00 -1.0166005761639989e+01 -1.7580695787984466e+00 -2.2638829842845514e+00 -1.0326562528906211e-01 -3.0303127710118214e+00 -1.3646644256007640e-01 8.4705328961521276e-01 -1.2436614085207494e+00 3.3585033981159573e-01 -6.4928501545124273e-01 -1.5176916693018281e+00 -2.4549905909245426e+00 -2.2671978763188814e+00 -1.8173240165423836e+00 -1.4991369454084547e+00 -3.1932081770444715e-01 -2.2334464198177764e+00 -1.7977403053303955e+00 -8.9096114456123632e-01 -7.5126061398487431e-01 -2.8694929050992730e+00 -1.5224078895356918e+00 -2.4609240592462669e+00 -4.5583693023480276e-01 -2.6787685042817557e+00 -8.1973887717040683e-01 -2.0712108790463484e+00 -6.9730665388736401e-01 -1.9028205663873212e+00 -7.1655987862245119e-01 -2.6285424270129254e+00 -1.3148588757206872e+00 8.0493464648884971e-01 -1.0309877782195318e+00 -7.8319830698109316e-01 -2.2258253566643176e+00 -9.1551816467582425e-02 -1.8618035859012321e+00 2.3354622002842662e-01 -1.6400222153766137e+00 -1.8836535818230811e+00 8.6512785930286795e-01 -2.7529042609224317e+00 -2.3607520968514484e+00 -3.1611138141799944e+00 -9.4357822920365864e-01 2.2065210292562640e-01 -2.4048117487875387e-01 -2.2375626142585592e+00 -3.5115374856019627e-01 -1.4547607409978154e+00 -3.9676106169577119e-01 -2.1083044774792197e+00 -1.3650963243326666e+00 -1.0410061958298109e+00 -1.5103816969227950e+00 4.7540908681261301e-01 -1.1791112318459140e+00 -1.4541070064398505e+00 -2.0590746395669397e+00 -3.8666896048543836e-01 -3.1095327804388950e+00 5.6866827893985994e-01 -1.7997081359965579e+00 -2.4295382616154626e+00 -5.7512494349382870e-01 -1.7391765177879763e+00 1.5866583993870417e-02 -2.1738526981411459e+00 -1.6045877206868868e+00 -1.3990000053927554e+00 -3.2337940557258946e+00 -1.1557405822891236e+00 -1.1489946400448989e+00 -6.9748564818689363e-01 
        </Neuron>
      </Layer>
      <Layer Index="1" NNeurons="106">
        <Neuron NSynapses="1">
          3.2537197423322721e-02 
        </Neuron>
        <Neuron NSynapses="1">
          1.9989378062133639e-01 
        </Neuron>
        <Neuron NSynapses="1">
          2.4373918356364035e+00 
        </Neuron>
        <Neuron NSynapses="1">
          -2.0274195323117036e-01 
        </Neuron>
        <Neuron NSynapses="1">
          -1.2186011614850214e+00 
        </Neuron>
        <Neuron NSynapses="1">
          -3.6551880504076029e-01 
        </Neuron>
        <Neuron NSynapses="1">
          -5.8201472366775642e-01 
        </Neuron>
        <Neuron NSynapses="1">
          -9.2035785785080454e-02 
        </Neuron>
        <Neuron NSynapses="1">
          1.0411060982542157e+00 
        </Neuron>
        <Neuron NSynapses="1">
          -1.5074003030578507e+00 
        </Neuron>
        <Neuron NSynapses="1">
          9.3343688174064898e-01 
        </Neuron>
        <Neuron NSynapses="1">
          1.3179136671583513e-01 
        </Neuron>
        <Neuron NSynapses="1">
          -2.0739364488627707e-01 
        </Neuron>
        <Neuron NSynapses="1">
          -3.9826047025242006e-01 
        </Neuron>
        <Neuron NSynapses="1">
          -1.2591145769050940e+00 
        </Neuron>
        <Neuron NSynapses="1">
          6.8227528993582398e-01 
        </Neuron>
        <Neuron NSynapses="1">
          -1.6855738716997291e+00 
        </Neuron>
        <Neuron NSynapses="1">
          4.7957940697596629e-01 
        </Neuron>
        <Neuron NSynapses="1">
          9.4713958178232388e-02 
        </Neuron>
        <Neuron NSynapses="1">
          4.9759527544370574e-02 
        </Neuron>
        <Neuron NSynapses="1">
          -8.1831308480107764e-02 
        </Neuron>
        <Neuron NSynapses="1">
          -1.8867686781281731e-01 
        </Neuron>
        <Neuron NSynapses="1">
          -1.3070209507784281e+00 
        </Neuron>
        <Neuron NSynapses="1">
          -5.5701485683315044e-01 
        </Neuron>
        <Neuron NSynapses="1">
          -1.3713781511829901e-01 
        </Neuron>
        <Neuron NSynapses="1">
          -1.2274264822915375e-01 
        </Neuron>
        <Neuron NSynapses="1">
          7.3937422029886490e-01 
        </Neuron>
        <Neuron NSynapses="1">
          -1.2898700007593855e+00 
        </Neuron>
        <Neuron NSynapses="1">
          8.7042501279147133e-01 
        </Neuron>
        <Neuron NSynapses="1">
          3.7411409065882834e-02 
        </Neuron>
        <Neuron NSynapses="1">
          -1.9252846095401444e+00 
        </Neuron>
        <Neuron NSynapses="1">
          -1.0294353950358126e+00 
        </Neuron>
        <Neuron NSynapses="1">
          -1.8264498833682394e-02 
        </Neuron>
        <Neuron NSynapses="1">
          -5.4141483197078977e-01 
        </Neuron>
        <Neuron NSynapses="1">
          -2.9341407095080563e-01 
        </Neuron>
        <Neuron NSynapses="1">
          3.3608682520964861e-01 
        </Neuron>
        <Neuron NSynapses="1">
          1.9083938213717797e-01 
        </Neuron>
        <Neuron NSynapses="1">
          5.1699086763872470e-01 
        </Neuron>
        <Neuron NSynapses="1">
          -2.7886455148967237e-01 
        </Neuron>
        <Neuron NSynapses="1">
          3.3596044745337317e-01 
        </Neuron>
        <Neuron NSynapses="1">
          -6.2680614166527304e-01 
        </Neuron>
        <Neuron NSynapses="1">
          -7.1525753624632857e-02 
        </Neuron>
        <Neuron NSynapses="1">
          1.1569325246840977e-01 
        </Neuron>
        <Neuron NSynapses="1">
          8.8608620134776370e-02 
        </Neuron>
        <Neuron NSynapses="1">
          1.3159201509881981e+00 
        </Neuron>
        <Neuron NSynapses="1">
          -1.6049393210694229e-01 
        </Neuron>
        <Neuron NSynapses="1">
          3.5222274631031114e-01 
        </Neuron>
        <Neuron NSynapses="1">
          -1.9361571645717512e-01 
        </Neuron>
        <Neuron NSynapses="1">
          1.4254330258706130e-01 
        </Neuron>
        <Neuron NSynapses="1">
          -1.5567553626020185e+00 
        </Neuron>
        <Neuron NSynapses="1">
          2.0141614156435348e+00 
        </Neuron>
        <Neuron NSynapses="1">
          -3.4503257636477980e-01 
        </Neuron>
        <Neuron NSynapses="1">
          -4.1669129661450033e-01 
        </Neuron>
        <Neuron NSynapses="1">
          -8.9966386459614314e-02 
        </Neuron>
        <Neuron NSynapses="1">
          -7.9932615223962764e-02 
        </Neuron>
        <Neuron NSynapses="1">
          1.3784431065450866e+00 
        </Neuron>
        <Neuron NSynapses="1">
          2.1680735426025513e-01 
        </Neuron>
        <Neuron NSynapses="1">
          -2.4365434659584270e-01 
        </Neuron>
        <Neuron NSynapses="1">
          -1.5899989691292429e+00 
        </Neuron>
        <Neuron NSynapses="1">
          -9.7442331709853924e-01 
        </Neuron>
        <Neuron NSynapses="1">
          -8.4251713455010188e-02 
        </Neuron>
        <Neuron NSynapses="1">
          -1.8388238422882061e-01 
        </Neuron>
        <Neuron NSynapses="1">
          -8.5063471870968396e-02 
        </Neuron>
        <Neuron NSynapses="1">
          5.6980177592680492e-01 
        </Neuron>
        <Neuron NSynapses="1">
          1.7879615443302502e-01 
        </Neuron>
        <Neuron NSynapses="1">
          -3.7008312289503423e-02 
        </Neuron>
        <Neuron NSynapses="1">
          4.6850021772483819e-01 
        </Neuron>
        <Neuron NSynapses="1">
          -5.3175497758223422e-01 
        </Neuron>
        <Neuron NSynapses="1">
          -3.0200693624707169e+00 
        </Neuron>
        <Neuron NSynapses="1">
          7.8797780967082343e-01 
        </Neuron>
        <Neuron NSynapses="1">
          7.2401370674377810e-02 
        </Neuron>
        <Neuron NSynapses="1">
          1.6146371236577344e+00 
        </Neuron>
        <Neuron NSynapses="1">
          3.9328921643783443e-01 
        </Neuron>
        <Neuron NSynapses="1">
          2.7960883880479337e-01 
        </Neuron>
        <Neuron NSynapses="1">
          4.7904739984726991e-01 
        </Neuron>
        <Neuron NSynapses="1">
          -5.6771882781972871e-01 
        </Neuron>
        <Neuron NSynapses="1">
          2.6325202558676664e-01 
        </Neuron>
        <Neuron NSynapses="1">
          6.2685818955622502e-02 
        </Neuron>
        <Neuron NSynapses="1">
          8.7468925362265693e-01 
        </Neuron>
        <Neuron NSynapses="1">
          8.4467907039206203e-02 
        </Neuron>
        <Neuron NSynapses="1">
          2.7153326654501386e-01 
        </Neuron>
        <Neuron NSynapses="1">
          3.4821503623689820e-01 
        </Neuron>
        <Neuron NSynapses="1">
          2.5638977840931818e+00 
        </Neuron>
        <Neuron NSynapses="1">
          -3.8839026482210609e-01 
        </Neuron>
        <Neuron NSynapses="1">
          -4.0387205425941053e-01 
        </Neuron>
        <Neuron NSynapses="1">
          -3.6471349474066711e-01 
        </Neuron>
        <Neuron NSynapses="1">
          6.7435017699064104e-01 
        </Neuron>
        <Neuron NSynapses="1">
          -6.9984977872572274e-01 
        </Neuron>
        <Neuron NSynapses="1">
          6.7928963840161871e-01 
        </Neuron>
        <Neuron NSynapses="1">
          1.0764310740647155e-01 
        </Neuron>
        <Neuron NSynapses="1">
          -9.0761383446392430e-01 
        </Neuron>
        <Neuron NSynapses="1">
          1.5526978234057012e+00 
        </Neuron>
        <Neuron NSynapses="1">
          -9.5395160875091567e-01 
        </Neuron>
        <Neuron NSynapses="1">
          -1.3874766426833066e-01 
        </Neuron>
        <Neuron NSynapses="1">
          9.2317495496021307e-01 
        </Neuron>
        <Neuron NSynapses="1">
          3.8395993208623518e-02 
        </Neuron>
        <Neuron NSynapses="1">
          -4.5552459966382006e-02 
        </Neuron>
        <Neuron NSynapses="1">
          -1.5321399781987952e-01 
        </Neuron>
        <Neuron NSynapses="1">
          -1.5712573510120698e-01 
        </Neuron>
        <Neuron NSynapses="1">
          2.1159003795848039e+00 
        </Neuron>
        <Neuron NSynapses="1">
          1.7196533737789355e-01 
        </Neuron>
        <Neuron NSynapses="1">
          -9.4944775290594163e-01 
        </Neuron>
        <Neuron NSynapses="1">
          1.2139217945458114e+00 
        </Neuron>
        <Neuron NSynapses="1">
          1.6013293298632096e+00 
        </Neuron>
        <Neuron NSynapses="1">
          7.9908598637939809e-02 
        </Neuron>
        <Neuron NSynapses="1">
          6.4973147881810223e-01 
        </Neuron>
      </Layer>
      <Layer Index="2" NNeurons="1">
        <Neuron NSynapses="0"/>
      </Layer>
    </Layout>
  </Weights>
</MethodSetup>
