<?xml version="1.0"?>
<MethodSetup Method="MLP::MLP">
  <GeneralInfo>
    <Info name="TMVA Release" value="4.2.0 [262656]"/>
    <Info name="ROOT Release" value="6.02/08 [393736]"/>
    <Info name="Creator" value="aocampor"/>
    <Info name="Date" value="Sun May 10 10:04:22 2015"/>
    <Info name="Host" value="Linux DaMachine 3.16.0-34-generic #45-Ubuntu SMP Mon Mar 23 17:21:27 UTC 2015 x86_64 x86_64 x86_64 GNU/Linux"/>
    <Info name="Dir" value="/home/aocampor/DiabeticRetinophaty/macros"/>
    <Info name="Training events" value="99147"/>
    <Info name="TrainingTime" value="4.11484280e+01"/>
    <Info name="AnalysisType" value="Classification"/>
  </GeneralInfo>
  <Options>
    <Option name="NCycles" modified="Yes">10</Option>
    <Option name="HiddenLayers" modified="Yes">N+100</Option>
    <Option name="NeuronType" modified="No">sigmoid</Option>
    <Option name="RandomSeed" modified="No">1</Option>
    <Option name="EstimatorType" modified="No">MSE</Option>
    <Option name="NeuronInputType" modified="No">sum</Option>
    <Option name="V" modified="Yes">False</Option>
    <Option name="VerbosityLevel" modified="No">Default</Option>
    <Option name="VarTransform" modified="Yes">N</Option>
    <Option name="H" modified="Yes">False</Option>
    <Option name="CreateMVAPdfs" modified="No">False</Option>
    <Option name="IgnoreNegWeightsInTraining" modified="No">False</Option>
    <Option name="TrainingMethod" modified="No">BP</Option>
    <Option name="LearningRate" modified="No">2.000000e-02</Option>
    <Option name="DecayRate" modified="No">1.000000e-02</Option>
    <Option name="TestRate" modified="Yes">10</Option>
    <Option name="EpochMonitoring" modified="No">False</Option>
    <Option name="Sampling" modified="No">1.000000e+00</Option>
    <Option name="SamplingEpoch" modified="No">1.000000e+00</Option>
    <Option name="SamplingImportance" modified="No">1.000000e+00</Option>
    <Option name="SamplingTraining" modified="No">True</Option>
    <Option name="SamplingTesting" modified="No">False</Option>
    <Option name="ResetStep" modified="No">50</Option>
    <Option name="Tau" modified="No">3.000000e+00</Option>
    <Option name="BPMode" modified="No">sequential</Option>
    <Option name="BatchSize" modified="No">-1</Option>
    <Option name="ConvergenceImprove" modified="No">1.000000e-30</Option>
    <Option name="ConvergenceTests" modified="No">-1</Option>
    <Option name="UseRegulator" modified="No">False</Option>
    <Option name="UpdateLimit" modified="No">10000</Option>
    <Option name="CalculateErrors" modified="No">False</Option>
    <Option name="WeightRange" modified="No">1.000000e+00</Option>
  </Options>
  <Variables NVar="5">
    <Variable VarIndex="0" Expression="Red" Label="Red" Title="Red" Unit="" Internal="Red" Type="F" Min="0.00000000e+00" Max="2.55000000e+02"/>
    <Variable VarIndex="1" Expression="Green" Label="Green" Title="Green" Unit="" Internal="Green" Type="F" Min="0.00000000e+00" Max="2.55000000e+02"/>
    <Variable VarIndex="2" Expression="Blue" Label="Blue" Title="Blue" Unit="" Internal="Blue" Type="F" Min="0.00000000e+00" Max="2.26000000e+02"/>
    <Variable VarIndex="3" Expression="GreenOverRed" Label="GreenOverRed" Title="GreenOverRed" Unit="" Internal="GreenOverRed" Type="F" Min="0.00000000e+00" Max="4.00000000e+00"/>
    <Variable VarIndex="4" Expression="BlueOverRed" Label="BlueOverRed" Title="BlueOverRed" Unit="" Internal="BlueOverRed" Type="F" Min="0.00000000e+00" Max="8.00000000e+00"/>
  </Variables>
  <Spectators NSpec="0"/>
  <Classes NClass="2">
    <Class Name="Background" Index="0"/>
    <Class Name="Signal" Index="1"/>
  </Classes>
  <Transformations NTransformations="1">
    <Transform Name="Normalize">
      <Selection>
        <Input NInputs="5">
          <Input Type="Variable" Label="Red" Expression="Red"/>
          <Input Type="Variable" Label="Green" Expression="Green"/>
          <Input Type="Variable" Label="Blue" Expression="Blue"/>
          <Input Type="Variable" Label="GreenOverRed" Expression="GreenOverRed"/>
          <Input Type="Variable" Label="BlueOverRed" Expression="BlueOverRed"/>
        </Input>
        <Output NOutputs="5">
          <Output Type="Variable" Label="Red" Expression="Red"/>
          <Output Type="Variable" Label="Green" Expression="Green"/>
          <Output Type="Variable" Label="Blue" Expression="Blue"/>
          <Output Type="Variable" Label="GreenOverRed" Expression="GreenOverRed"/>
          <Output Type="Variable" Label="BlueOverRed" Expression="BlueOverRed"/>
        </Output>
      </Selection>
      <Class ClassIndex="0">
        <Ranges>
          <Range Index="0" Min="0.0000000000000000e+00" Max="2.5500000000000000e+02"/>
          <Range Index="1" Min="0.0000000000000000e+00" Max="2.5500000000000000e+02"/>
          <Range Index="2" Min="0.0000000000000000e+00" Max="2.2600000000000000e+02"/>
          <Range Index="3" Min="0.0000000000000000e+00" Max="3.0000000000000000e+00"/>
          <Range Index="4" Min="0.0000000000000000e+00" Max="6.0000000000000000e+00"/>
        </Ranges>
      </Class>
      <Class ClassIndex="1">
        <Ranges>
          <Range Index="0" Min="0.0000000000000000e+00" Max="2.5500000000000000e+02"/>
          <Range Index="1" Min="0.0000000000000000e+00" Max="2.5100000000000000e+02"/>
          <Range Index="2" Min="0.0000000000000000e+00" Max="1.8700000000000000e+02"/>
          <Range Index="3" Min="0.0000000000000000e+00" Max="4.0000000000000000e+00"/>
          <Range Index="4" Min="0.0000000000000000e+00" Max="8.0000000000000000e+00"/>
        </Ranges>
      </Class>
      <Class ClassIndex="2">
        <Ranges>
          <Range Index="0" Min="0.0000000000000000e+00" Max="2.5500000000000000e+02"/>
          <Range Index="1" Min="0.0000000000000000e+00" Max="2.5500000000000000e+02"/>
          <Range Index="2" Min="0.0000000000000000e+00" Max="2.2600000000000000e+02"/>
          <Range Index="3" Min="0.0000000000000000e+00" Max="4.0000000000000000e+00"/>
          <Range Index="4" Min="0.0000000000000000e+00" Max="8.0000000000000000e+00"/>
        </Ranges>
      </Class>
    </Transform>
  </Transformations>
  <MVAPdfs/>
  <Weights>
    <Layout NLayers="3">
      <Layer Index="0" NNeurons="6">
        <Neuron NSynapses="105">
          -6.3095919838372017e-01 1.9911660809077647e+00 1.7834385448326795e+00 1.1741932218497120e+00 -2.9594312875831976e+00 -1.4064150890612190e+00 -8.9278830145385490e-01 1.8071048149520086e+00 -3.7857167480703047e+00 -3.5389571687721086e+00 -1.5714608879223402e+00 -4.5709968721178551e-01 -1.2514328965634025e+00 -5.3474021088362100e-01 -6.1303782526945416e-01 1.0586864808340102e+00 -7.5750034590384818e-01 1.5857877791036821e+00 -1.0192227230199685e-01 9.9170058880434186e-01 -4.7278074752044169e-01 -7.3527508049754298e-01 2.2955582912750011e-01 -2.0772506238849844e-01 -1.2368359685081631e+00 -3.4437769512519040e-01 1.3609558682482112e+00 -1.1727093083261841e+00 -3.3491741092538079e+00 -5.7393797246915539e-04 3.4516122115319572e+00 3.2677779851414241e+00 -3.7899037133560043e-01 -1.6001692308272425e-01 9.7630216897384869e-01 -3.8377104462651779e-01 -1.4549920173447597e+00 2.0636836164857595e+00 -1.0817212954519995e+00 9.2486831173168249e-01 1.3931375506919514e+00 7.6634869812830297e-01 1.5781072341621432e+00 1.0064046674582059e+00 -6.3876688821319449e-01 -1.6126010715551871e+00 7.4357159482096580e-01 3.8131401804510509e-02 1.2562011791882717e+00 2.5475605650163078e+00 1.9626778800340916e+00 9.8313607930099856e-01 -1.5060236218634282e+00 1.9340152941162763e+00 -1.4283806687279395e+00 -1.0329029689405649e+00 -9.3290832396521894e-01 -1.7966621879691125e+00 1.1155580970299290e+00 4.7110887960609826e-01 -1.4480527279500972e+00 2.3863897770747045e-01 -3.0297242147113973e-01 6.6541023324036241e-01 1.4978516303303337e+00 -4.5130296046259299e-01 1.4285613847899967e-01 -1.4654239954890735e+00 -3.3691605431902089e-01 -7.6641831402373273e-01 -6.6117978233110475e-01 -3.0481674937142391e+00 4.5478932140245248e-01 1.1629294304596540e+00 1.9339367281170126e+00 -5.5346356019978160e-01 -1.8444306773065819e+00 -1.6981138263900428e+00 1.4604887567002041e+00 5.9262857969595639e-01 1.5937837200385305e+00 9.2415951586460932e-01 2.2896732810794505e+00 -8.0542432625329663e-01 -9.2678206765576521e-01 -2.2229992118150371e-01 1.3009482782409387e+00 -1.8358269233773228e+00 -1.7411980352295704e+00 -1.5931753864438456e+00 -4.5315747540174467e-01 7.0875401046568864e-01 1.1655833366441004e+00 -1.5113499533373163e+00 -7.2355257712993015e-01 1.3123293836138739e+00 -1.0166345161589125e+00 -1.5027540473147112e+00 -2.2301104526681348e+00 4.4836911964535159e-01 -1.8648770867246229e+00 -2.3325436783492424e+00 1.0143777980748735e-01 3.0039993785137544e+00 -1.1541034273297193e+00 
        </Neuron>
        <Neuron NSynapses="105">
          1.8593510336132590e+00 -1.0503924534792852e+00 -1.4846832006588275e+00 -1.5935668872428485e-01 4.8046475757723678e-01 -1.3556013000882610e+00 4.0986097296952251e-01 7.9900558010463196e-01 9.1590933790914308e-01 -4.8012448016004319e+00 1.9552014352499369e+00 3.9057924734886001e-01 -4.4739993037975373e-01 1.0172946640829035e+00 -1.0303826413955861e+00 -1.8101771129281015e+00 3.2979175108249814e-01 2.9730599057076475e-03 2.1532942556153611e+00 1.0615998934601507e+00 1.3787069295455270e-01 -1.2378374352592915e-01 1.2323428502373859e-01 -1.1772516740196279e+00 1.2671304160254611e+00 5.9207318408376952e-01 -1.6859479178802026e+00 6.9796972455590323e-01 -1.3047052021312961e+00 3.7008695391642882e-01 1.6034400162047910e-01 2.8277746051770634e+00 -1.4071503476811782e+00 3.2715652351450736e-01 1.0914562918238166e+00 1.5747534495667577e+00 3.9619016586269690e-01 -1.0481567969558148e+00 -1.8689917119518826e-01 -1.1161277046367795e+00 1.6183360565109128e+00 1.3561804365150845e+00 -6.8435706594160184e-01 -4.1972587902327729e-01 1.2441878993563710e-01 -8.6692747232394285e-01 6.9365492769040660e-01 2.2769011042772318e+00 -1.0832437353582958e-01 -1.1793635884346387e+00 8.1824385935797816e-01 1.3557217188072415e+00 6.2238565069539176e-01 1.1859626464854276e+00 -9.1535757528894435e-01 1.9855798714946105e+00 1.1581796857837199e+00 7.5357929631248510e-01 2.7150135841700113e-01 6.2372594524129565e-01 -1.3032202810592095e-01 -2.4560114156840859e-01 9.6201159328236496e-01 -9.2649633393707398e-01 -4.0728664728505809e-01 1.5800354579678046e+00 1.6761497635307085e+00 1.1116205817617844e-01 2.4610229637570611e+00 1.9629818169898237e+00 -1.6364285216794223e+00 1.1856512633025345e+00 3.8331268406402730e-01 4.8845747786738286e-01 -1.2473899307274499e+00 -8.9706532861245170e-01 1.3603227018377104e+00 1.9354493725789457e+00 -1.5025049448956984e+00 1.0295792039934740e-01 -8.8840691336931912e-02 3.9519953173367889e-01 3.1131857546161767e+00 -3.6854863395866727e-01 -1.7601758053751568e-01 -5.9331958261644091e-01 1.3014960643146321e+00 1.8662165420951438e+00 1.8748613701701839e+00 6.0811442947289962e-01 -1.6148874811907057e-01 -2.8533278414955729e+00 1.5794582579514032e+00 7.3192413612136331e-01 -1.0099997833462946e+00 -2.7867314509616875e-01 7.9718929777707803e-01 5.2219458810779662e-01 -1.8898219151584101e+00 2.9199276233544587e+00 8.2752990630491907e-01 -1.0506903186330359e+00 1.7934134535733226e-01 1.2880990131167354e+00 1.1778721196952859e+00 
        </Neuron>
        <Neuron NSynapses="105">
          9.7984392946206733e-01 -3.0182331493071335e-01 -3.8862088438359090e+00 -6.5222508086349218e-01 2.8366999685749481e+00 1.9313986622347423e+00 1.3154857514163756e+00 9.5153988524374711e-01 3.1699417118562820e+00 -3.5939041612737292e+00 -1.2616666165222488e+00 2.5409899034312039e-01 -7.7605466251283295e-01 1.2754940631953147e+00 1.7916719140144834e+00 -1.9945603041627138e+00 1.6371750857538918e+00 2.2641021098244518e-01 -1.0315063268968980e+00 -5.3089151392661338e-01 1.3614782072272871e+00 5.5660578305566522e-01 1.5589971658843722e+00 -4.4052567880769979e-02 1.9648804218193363e+00 -1.1714302517127348e+00 1.1741475969306261e+00 4.1044206233188069e-01 -7.2741476034110852e-01 -7.4597604461588329e-01 -4.7030417018406760e+00 -4.0475655329158255e-01 -1.2069102137778493e+00 -1.3052885385428850e+00 -2.6474747867247213e+00 -1.8719553639292005e-01 -8.3517491188413895e-01 -1.4622293494785961e+00 1.2603358145479804e+00 -3.7401106022488262e-01 8.0279275745997392e-01 -7.2798693308998930e-01 -5.2304744042283753e-03 2.0159698540115181e+00 1.1627456110418288e+00 -1.2767595276637476e+00 -1.4877785501536307e+00 -2.4399180682984070e-01 -7.1934613876782252e-02 -3.2574911521852625e+00 9.1221211314366923e-01 9.7456251749892242e-01 1.5354826978599398e+00 -4.2338069663310307e-01 6.7460328134739200e-01 -3.1431956845885012e-01 -1.4224769529149845e+00 1.7385634963254304e+00 1.2604716058885466e+00 -8.4113782396103143e-01 -6.8664697759221804e-01 1.3593247409188163e+00 9.6432831377335582e-01 4.9599011129328541e-01 -7.8771321268723299e-02 -1.6133738789322669e-01 3.2020732613568264e+00 1.6209133814919767e+00 3.8697007640199730e+00 -3.4273844340022097e-01 4.8198441024851374e-01 7.3773807152630588e-01 -8.9746761901569505e-01 -4.5262596781035674e-01 -1.7956892804785309e+00 -4.2693564102113252e-01 -1.1261476110114248e+00 1.9429685604825384e+00 -1.9687796181129120e+00 2.2021777032655176e+00 -5.7143233144504546e-01 9.7539289992420186e-01 -9.0213962148485094e-01 4.5905510610918981e-01 1.4014118316541571e+00 -1.1850825507864184e+00 2.1051267850642560e-01 2.4818998259154244e+00 -1.2742331140594680e+00 -1.1286243724380201e+00 -6.5013391795404996e-01 -2.5710768585513879e+00 2.1667753203505220e+00 -9.6777097212969482e-02 5.6900455460217636e-01 -1.3279810413507157e-01 -3.7564478375859311e-01 -1.1007011280020071e+00 1.0419051458666118e-01 -8.3302975843431459e-01 8.8329959183869822e-01 -1.1525170111293768e+00 -7.6632355939019969e-01 3.6487396846775089e+00 4.4229410374489148e-01 
        </Neuron>
        <Neuron NSynapses="105">
          2.3639902895580175e-01 2.2483053690160748e+00 -1.2252208375652962e+00 1.2614063577330665e+00 5.3363067028033662e-01 -3.7622972053360865e-01 -2.9978717887829731e-01 1.0669467672743747e+00 -1.0441080046981932e+00 1.0162387916689217e+00 1.9903028125598279e+00 1.7702317852064089e+00 2.3178436222958032e+00 -8.6642541680094975e-01 1.0992585982755734e+00 -1.4502505379033739e+00 9.8514330198612643e-01 -8.1174243333938834e-01 -8.8203750427462635e-01 8.3101042358117283e-01 1.7473975951419223e+00 1.0964623477759796e+00 1.3015652419114270e+00 1.3863029318135434e+00 2.7747800854709820e-01 3.5539111686471593e-02 6.0347479839597462e-01 1.9394143116075300e+00 -6.3937066095735684e-01 1.0715159500519069e+00 -1.3815099382573137e+00 -8.3910799479320719e-01 7.1056752492211073e-01 6.7102729609678202e-01 -9.6693038550522359e-01 1.1909723402861756e+00 2.1162416633569632e+00 1.2931562594614967e+00 2.8462695656610809e-01 -1.9470128683165741e-01 -1.5252244346763346e+00 -1.0524133085491356e+00 1.1231208105765018e+00 -1.6716576330873587e-01 -9.7747205468710185e-01 8.5157755569215843e-01 -7.0906948799262759e-01 -2.5113467790230132e-01 -4.9728978389951406e-01 1.4905195181092534e+00 -7.8956697891728833e-01 -7.3902073125944578e-01 -5.5847645652667810e-02 -4.7155039401786908e-01 -1.0772474604327129e+00 1.8322361613850005e+00 -5.9127934722174269e-01 -3.4455428908471086e-01 1.7958412715459871e+00 1.0589139456546479e+00 8.4523535339961575e-01 8.3348034733089893e-01 1.4417415223703414e+00 1.7973029601275758e+00 1.1955646200024259e+00 -7.6715571575750452e-01 -6.8784351254811943e-02 -8.8203287856766976e-01 1.2427851614842531e+00 9.4202616337944145e-01 6.7315293285915712e-01 1.8520272656777932e+00 1.6087470920057758e+00 1.9762606685605135e+00 -2.1309400367715911e-01 2.9897456434847545e+00 1.3681787430122161e+00 -1.2897221714162113e+00 -2.6077787664108870e-02 -5.5715321898121950e-01 1.9336232606474619e+00 5.3388295290328314e-01 1.1838344302533488e+00 1.8017883123962315e+00 2.0042812765288151e-01 2.5528544598219374e+00 2.0690910683977970e+00 4.6444218810431687e-01 -1.9380104461234682e-01 2.1251692695712232e+00 -8.3607778028588398e-01 5.1931136736184469e-01 2.3024956605494094e+00 4.5299293770761341e-02 -1.7393601903247702e-01 1.0947816989196757e+00 -2.5400589730403533e-01 1.2840081652413997e+00 -1.0031856949075038e+00 7.1777735505740536e-01 -1.0577429837981563e-01 2.3609984786429745e+00 1.7276766245225448e+00 1.1430637481090704e+00 -2.8687352105770680e-01 
        </Neuron>
        <Neuron NSynapses="105">
          5.7101499569845771e-01 1.0947492052383909e+00 2.5227252859819123e+00 -2.2838422807741265e+00 -1.4224748434394165e+00 2.3196951422725975e-01 -6.4790964890203029e-01 -3.5950445358161903e-01 -1.7739462080883082e+00 2.7099486455168478e+00 1.2245105478751404e-01 -1.1341405071608606e+00 -1.0098561681125739e+00 4.9248827183445909e-01 1.7069533495315818e+00 2.9620040893970607e+00 1.4359518125909754e+00 4.6686358852038884e-01 -6.7578697913883867e-01 9.1528672753693352e-01 -6.4150532360008816e-01 -5.9120820568723731e-01 -2.2632792210138661e-01 1.3816445064803200e+00 -9.5816492749172399e-01 2.4169939170260504e+00 1.8767039015661406e+00 3.9864248685033904e-01 3.7914517161274508e-01 1.1481169590974771e-01 1.9961121333835847e+00 -1.3153838738687846e+00 1.1015064585081984e+00 2.5113391057296997e+00 1.6543342467356539e+00 -8.6836513083988853e-01 1.9465806532077889e+00 -6.0203438527158204e-01 2.1052728459973253e+00 2.7268612198525801e+00 -2.3562896834209959e-01 6.4361246099222191e-01 3.2118772415229446e-01 -1.2588231463270005e-01 1.8728030458920200e+00 5.0976310059021135e-01 5.8484552870096129e-01 -2.4395711695912631e-01 1.4060982060838911e+00 2.9195048619269111e+00 1.1778014656164975e+00 5.1914909242437079e-01 -1.4896631304597983e+00 2.3211670324983915e+00 9.1037593416375506e-01 -5.5701596541249765e-01 8.4639748008510007e-01 2.3205459181146990e-01 1.3730621086069279e+00 2.0207422186142407e+00 -1.2516343392225396e-01 -2.6812875410198894e-01 1.7225045831443928e+00 1.3578598856454340e+00 1.1803981265686516e+00 4.2123094052192317e-01 -7.0721961836844049e-01 -1.9133786449300455e-01 1.1615986028946128e+00 2.9486729745937673e-01 1.1091622827669363e+00 -7.7449706824227182e-01 -1.1414099065111352e+00 -1.2738053915074812e+00 1.0072115433339004e+00 -3.8778464948970559e-01 1.5869417442330189e+00 6.4913826473595881e-01 1.9253827145827169e+00 1.0669898872856465e+00 -6.8865229085265534e-01 1.7948450949852779e+00 1.9241912537786849e+00 1.1503624132116899e+00 3.0646478029003343e-01 -4.4110337831268741e-02 2.4405759003207299e+00 -9.9441033777911880e-01 1.3760282071973409e+00 -7.8439644900708883e-01 2.8310920294076278e+00 -5.7320204414039022e-01 8.7448810271030641e-01 3.5332851513607899e-01 1.3998678554951069e+00 8.9799483516874612e-01 5.2551435828953441e-01 1.9241159138641946e+00 1.4255978471617936e+00 1.1736550361438527e+00 1.1881603190194920e+00 -8.9429859003915935e-01 2.0818361269521604e+00 -1.8511966886791569e+00 1.3350950041760397e+00 
        </Neuron>
        <Neuron NSynapses="105">
          6.7090748917022713e-02 4.6464739370829150e-02 2.0207293784664748e-01 1.8745877997514850e+00 -1.5712535516850086e+00 -1.6146894330228918e+00 -1.9288487878690441e+00 -7.8849804306258164e-01 6.3750973679012490e-01 -2.6795183912071545e+00 -7.2595572427437061e-01 -1.3927723285386799e+00 -2.0356617548829501e+00 -1.0550701332928463e+00 -1.8675459584046068e+00 -1.8424625473575622e+00 1.5654521049830155e-02 -1.9930338626015183e+00 -2.8810605884946701e+00 -6.3125444627903082e-01 -4.7685197797926293e-01 -1.3706996018081541e+00 -1.6628455168682128e+00 4.5325017177397814e-01 -8.7932810986491527e-01 -2.4986011531109395e-01 2.1739369636360271e-02 -1.2655959335736204e+00 -2.0125143149839646e+00 -1.3832847145913925e+00 -3.3401115546471578e+00 -2.4348086233347395e-02 -1.9352690203193716e+00 1.2396707222352928e-01 -2.5204279514586023e+00 1.0242607010520819e+00 1.1172801824184082e+00 4.4627237779226708e-01 5.2308799297265185e-01 -2.8407401253129999e-01 -2.3945048078247910e-01 -2.0565616552062358e+00 -2.1008231346298087e+00 -1.5342180274792172e+00 -1.3427078242974324e+00 1.1515586246794809e+00 -1.5446784760909538e+00 -1.3252794200506994e+00 -1.5966255386586106e-01 -4.8043217763390028e-01 -2.0803978228343731e+00 -1.0941528599562960e+00 -2.2344180194846457e+00 1.2057113509943396e-01 -2.4050352280043343e+00 -6.8315191385956175e-01 -1.6145428141971645e+00 -3.3353434161387974e-01 -2.0414699443293922e+00 -5.0578764091218265e-01 -2.3620330511545351e+00 -1.0051046193009774e+00 1.0058780961672160e+00 -7.9698750183084266e-01 -4.1835190987450799e-01 -2.0074574407366654e+00 6.9077189282211837e-01 -1.6070387487406739e+00 1.4683354368695054e+00 -1.6485307813585899e+00 -1.6453206570920327e+00 1.2373429938339715e+00 -2.4764535425956620e+00 -2.0264608849583432e+00 -2.7929097368317306e+00 -4.3145726504451487e-01 4.9166101758458125e-01 2.4400448774763031e-01 -2.0447800708191797e+00 -8.0344590377610112e-04 -7.4178135257990863e-01 -8.5580579083765221e-02 -1.3146841915096457e+00 -1.3717440739838622e+00 -8.0981631265298859e-01 -1.1590345850749069e+00 9.1588674345073373e-01 -1.0261397904401279e+00 -1.1972498173800212e+00 -1.7737946057388534e+00 -1.6943879720504820e-01 -7.0084715723789759e-01 8.6223056463411729e-01 -1.5251080047402008e+00 -2.1858865073678135e+00 6.7192789992879861e-03 -1.3663544037300295e+00 4.1344964532581668e-01 -1.4237150917495804e+00 -1.3355279174232340e+00 -1.2992212399534164e+00 -2.6486453097341784e+00 -7.9819231101518107e-01 -1.0754744111417693e+00 -4.2858394850928083e-01 
        </Neuron>
      </Layer>
      <Layer Index="1" NNeurons="106">
        <Neuron NSynapses="1">
          8.4732122028726195e-02 
        </Neuron>
        <Neuron NSynapses="1">
          -2.8386812785347237e-01 
        </Neuron>
        <Neuron NSynapses="1">
          1.6561010742834570e+00 
        </Neuron>
        <Neuron NSynapses="1">
          -2.2112898042738776e+00 
        </Neuron>
        <Neuron NSynapses="1">
          -1.8508839298096751e+00 
        </Neuron>
        <Neuron NSynapses="1">
          -2.0462475434626537e-01 
        </Neuron>
        <Neuron NSynapses="1">
          -3.3832491901679262e-01 
        </Neuron>
        <Neuron NSynapses="1">
          -2.9419831751164898e-02 
        </Neuron>
        <Neuron NSynapses="1">
          1.2550389378397897e+00 
        </Neuron>
        <Neuron NSynapses="1">
          -2.4639191148871360e+00 
        </Neuron>
        <Neuron NSynapses="1">
          3.9918443202660414e-01 
        </Neuron>
        <Neuron NSynapses="1">
          3.0405003827466835e-02 
        </Neuron>
        <Neuron NSynapses="1">
          1.7428238564367365e-01 
        </Neuron>
        <Neuron NSynapses="1">
          7.4125813944538335e-02 
        </Neuron>
        <Neuron NSynapses="1">
          -1.1029871660725818e+00 
        </Neuron>
        <Neuron NSynapses="1">
          -5.8707597249537335e-01 
        </Neuron>
        <Neuron NSynapses="1">
          -1.5995477146124142e+00 
        </Neuron>
        <Neuron NSynapses="1">
          2.1272256213932476e-03 
        </Neuron>
        <Neuron NSynapses="1">
          -6.2940460072631849e-02 
        </Neuron>
        <Neuron NSynapses="1">
          6.4177200653241367e-02 
        </Neuron>
        <Neuron NSynapses="1">
          -3.2137117793605108e-03 
        </Neuron>
        <Neuron NSynapses="1">
          -1.0872762074904402e-01 
        </Neuron>
        <Neuron NSynapses="1">
          -1.1165217249529567e+00 
        </Neuron>
        <Neuron NSynapses="1">
          -1.7566602271277715e-01 
        </Neuron>
        <Neuron NSynapses="1">
          -1.4215100832910665e-01 
        </Neuron>
        <Neuron NSynapses="1">
          7.9979643550902077e-02 
        </Neuron>
        <Neuron NSynapses="1">
          2.5046426243219655e-01 
        </Neuron>
        <Neuron NSynapses="1">
          -1.2353970946387041e+00 
        </Neuron>
        <Neuron NSynapses="1">
          8.5963369763361352e-01 
        </Neuron>
        <Neuron NSynapses="1">
          -3.6941263856683768e-02 
        </Neuron>
        <Neuron NSynapses="1">
          -2.1481908195585637e+00 
        </Neuron>
        <Neuron NSynapses="1">
          4.5112734444941166e-01 
        </Neuron>
        <Neuron NSynapses="1">
          8.4208916940864464e-02 
        </Neuron>
        <Neuron NSynapses="1">
          -2.2564777171421319e-01 
        </Neuron>
        <Neuron NSynapses="1">
          -9.7005572852217625e-01 
        </Neuron>
        <Neuron NSynapses="1">
          -6.6053474754663721e-01 
        </Neuron>
        <Neuron NSynapses="1">
          4.1379152966235694e-01 
        </Neuron>
        <Neuron NSynapses="1">
          1.0484890773786129e+00 
        </Neuron>
        <Neuron NSynapses="1">
          1.2246263320042224e-01 
        </Neuron>
        <Neuron NSynapses="1">
          -3.1006777808838728e-02 
        </Neuron>
        <Neuron NSynapses="1">
          -8.4394459448430126e-01 
        </Neuron>
        <Neuron NSynapses="1">
          -2.3797690832271293e-01 
        </Neuron>
        <Neuron NSynapses="1">
          -3.5048536960201876e-01 
        </Neuron>
        <Neuron NSynapses="1">
          2.0650961224182823e-01 
        </Neuron>
        <Neuron NSynapses="1">
          1.2180143764197928e+00 
        </Neuron>
        <Neuron NSynapses="1">
          -8.7914719046096867e-01 
        </Neuron>
        <Neuron NSynapses="1">
          2.3834254792477061e-01 
        </Neuron>
        <Neuron NSynapses="1">
          -1.9815745920109740e-01 
        </Neuron>
        <Neuron NSynapses="1">
          -7.6166947290192522e-02 
        </Neuron>
        <Neuron NSynapses="1">
          -1.6021250153502831e+00 
        </Neuron>
        <Neuron NSynapses="1">
          1.5121765055868763e+00 
        </Neuron>
        <Neuron NSynapses="1">
          5.0729190318072388e-02 
        </Neuron>
        <Neuron NSynapses="1">
          2.8429213120451371e-03 
        </Neuron>
        <Neuron NSynapses="1">
          -3.4976427968005180e-01 
        </Neuron>
        <Neuron NSynapses="1">
          2.8886400813039453e-01 
        </Neuron>
        <Neuron NSynapses="1">
          6.7648230151628252e-01 
        </Neuron>
        <Neuron NSynapses="1">
          1.7225169160103548e-01 
        </Neuron>
        <Neuron NSynapses="1">
          -1.1917313390146862e-01 
        </Neuron>
        <Neuron NSynapses="1">
          -1.4351501840690770e+00 
        </Neuron>
        <Neuron NSynapses="1">
          -9.8688102168110636e-01 
        </Neuron>
        <Neuron NSynapses="1">
          3.5155404625101988e-01 
        </Neuron>
        <Neuron NSynapses="1">
          1.9161715061038276e-01 
        </Neuron>
        <Neuron NSynapses="1">
          1.0394413616671680e-01 
        </Neuron>
        <Neuron NSynapses="1">
          8.9009544439525690e-01 
        </Neuron>
        <Neuron NSynapses="1">
          -5.3877312671324562e-02 
        </Neuron>
        <Neuron NSynapses="1">
          4.0413785322838736e-02 
        </Neuron>
        <Neuron NSynapses="1">
          8.0861387164721454e-01 
        </Neuron>
        <Neuron NSynapses="1">
          -7.9366520395007467e-02 
        </Neuron>
        <Neuron NSynapses="1">
          -3.0020447866521622e+00 
        </Neuron>
        <Neuron NSynapses="1">
          5.4493714950531791e-01 
        </Neuron>
        <Neuron NSynapses="1">
          6.4774573351402998e-01 
        </Neuron>
        <Neuron NSynapses="1">
          7.1098238167477112e-01 
        </Neuron>
        <Neuron NSynapses="1">
          1.3410526645390988e-01 
        </Neuron>
        <Neuron NSynapses="1">
          -5.2237124349944979e-02 
        </Neuron>
        <Neuron NSynapses="1">
          -9.1818186097063159e-01 
        </Neuron>
        <Neuron NSynapses="1">
          -1.6291292501824417e-01 
        </Neuron>
        <Neuron NSynapses="1">
          3.0055333519104932e-01 
        </Neuron>
        <Neuron NSynapses="1">
          1.8004280445461575e-02 
        </Neuron>
        <Neuron NSynapses="1">
          -5.9782908977891802e-01 
        </Neuron>
        <Neuron NSynapses="1">
          4.0442020864953826e-01 
        </Neuron>
        <Neuron NSynapses="1">
          -1.7733056104225914e-01 
        </Neuron>
        <Neuron NSynapses="1">
          8.3634831802460619e-01 
        </Neuron>
        <Neuron NSynapses="1">
          2.5280126446621125e+00 
        </Neuron>
        <Neuron NSynapses="1">
          4.0614071683204696e-02 
        </Neuron>
        <Neuron NSynapses="1">
          -1.8032715564480759e-01 
        </Neuron>
        <Neuron NSynapses="1">
          -3.5339258666153971e-02 
        </Neuron>
        <Neuron NSynapses="1">
          1.0947204137112971e+00 
        </Neuron>
        <Neuron NSynapses="1">
          -1.5376511537894886e+00 
        </Neuron>
        <Neuron NSynapses="1">
          7.6040359562193072e-01 
        </Neuron>
        <Neuron NSynapses="1">
          2.7680449683034813e-01 
        </Neuron>
        <Neuron NSynapses="1">
          -1.7713894813279743e-01 
        </Neuron>
        <Neuron NSynapses="1">
          1.5176694441070957e+00 
        </Neuron>
        <Neuron NSynapses="1">
          -7.9598379943146025e-01 
        </Neuron>
        <Neuron NSynapses="1">
          1.3499400123004150e-02 
        </Neuron>
        <Neuron NSynapses="1">
          1.1247218524655116e+00 
        </Neuron>
        <Neuron NSynapses="1">
          -6.0502549073738074e-02 
        </Neuron>
        <Neuron NSynapses="1">
          7.2079289836795207e-02 
        </Neuron>
        <Neuron NSynapses="1">
          2.4366664984316544e-01 
        </Neuron>
        <Neuron NSynapses="1">
          5.9904745573765261e-01 
        </Neuron>
        <Neuron NSynapses="1">
          2.1003445497763638e+00 
        </Neuron>
        <Neuron NSynapses="1">
          2.3472112426405642e-01 
        </Neuron>
        <Neuron NSynapses="1">
          -2.4586117471474769e-01 
        </Neuron>
        <Neuron NSynapses="1">
          1.6167799693763432e+00 
        </Neuron>
        <Neuron NSynapses="1">
          1.6300159502734501e+00 
        </Neuron>
        <Neuron NSynapses="1">
          1.5188146821040513e-01 
        </Neuron>
        <Neuron NSynapses="1">
          2.7057510919973693e-01 
        </Neuron>
      </Layer>
      <Layer Index="2" NNeurons="1">
        <Neuron NSynapses="0"/>
      </Layer>
    </Layout>
  </Weights>
</MethodSetup>
