<?xml version="1.0"?>
<MethodSetup Method="MLP::MLP">
  <GeneralInfo>
    <Info name="TMVA Release" value="4.2.0 [262656]"/>
    <Info name="ROOT Release" value="6.02/08 [393736]"/>
    <Info name="Creator" value="aocampor"/>
    <Info name="Date" value="Sun May 10 05:47:26 2015"/>
    <Info name="Host" value="Linux DaMachine 3.16.0-34-generic #45-Ubuntu SMP Mon Mar 23 17:21:27 UTC 2015 x86_64 x86_64 x86_64 GNU/Linux"/>
    <Info name="Dir" value="/home/aocampor/DiabeticRetinophaty/macros"/>
    <Info name="Training events" value="2000000"/>
    <Info name="TrainingTime" value="2.30537069e+04"/>
    <Info name="AnalysisType" value="Classification"/>
  </GeneralInfo>
  <Options>
    <Option name="NCycles" modified="Yes">500</Option>
    <Option name="HiddenLayers" modified="Yes">N+20</Option>
    <Option name="NeuronType" modified="No">sigmoid</Option>
    <Option name="RandomSeed" modified="No">1</Option>
    <Option name="EstimatorType" modified="No">MSE</Option>
    <Option name="NeuronInputType" modified="No">sum</Option>
    <Option name="V" modified="Yes">False</Option>
    <Option name="VerbosityLevel" modified="No">Default</Option>
    <Option name="VarTransform" modified="Yes">N</Option>
    <Option name="H" modified="Yes">False</Option>
    <Option name="CreateMVAPdfs" modified="No">False</Option>
    <Option name="IgnoreNegWeightsInTraining" modified="No">False</Option>
    <Option name="TrainingMethod" modified="No">BP</Option>
    <Option name="LearningRate" modified="No">2.000000e-02</Option>
    <Option name="DecayRate" modified="No">1.000000e-02</Option>
    <Option name="TestRate" modified="Yes">10</Option>
    <Option name="EpochMonitoring" modified="No">False</Option>
    <Option name="Sampling" modified="No">1.000000e+00</Option>
    <Option name="SamplingEpoch" modified="No">1.000000e+00</Option>
    <Option name="SamplingImportance" modified="No">1.000000e+00</Option>
    <Option name="SamplingTraining" modified="No">True</Option>
    <Option name="SamplingTesting" modified="No">False</Option>
    <Option name="ResetStep" modified="No">50</Option>
    <Option name="Tau" modified="No">3.000000e+00</Option>
    <Option name="BPMode" modified="No">sequential</Option>
    <Option name="BatchSize" modified="No">-1</Option>
    <Option name="ConvergenceImprove" modified="No">1.000000e-30</Option>
    <Option name="ConvergenceTests" modified="No">-1</Option>
    <Option name="UseRegulator" modified="No">False</Option>
    <Option name="UpdateLimit" modified="No">10000</Option>
    <Option name="CalculateErrors" modified="No">False</Option>
    <Option name="WeightRange" modified="No">1.000000e+00</Option>
  </Options>
  <Variables NVar="5">
    <Variable VarIndex="0" Expression="Red" Label="Red" Title="Red" Unit="" Internal="Red" Type="F" Min="0.00000000e+00" Max="2.55000000e+02"/>
    <Variable VarIndex="1" Expression="Green" Label="Green" Title="Green" Unit="" Internal="Green" Type="F" Min="0.00000000e+00" Max="2.55000000e+02"/>
    <Variable VarIndex="2" Expression="Blue" Label="Blue" Title="Blue" Unit="" Internal="Blue" Type="F" Min="0.00000000e+00" Max="2.55000000e+02"/>
    <Variable VarIndex="3" Expression="GreenOverRed" Label="GreenOverRed" Title="GreenOverRed" Unit="" Internal="GreenOverRed" Type="F" Min="0.00000000e+00" Max="4.80000000e+01"/>
    <Variable VarIndex="4" Expression="BlueOverRed" Label="BlueOverRed" Title="BlueOverRed" Unit="" Internal="BlueOverRed" Type="F" Min="0.00000000e+00" Max="6.40000000e+01"/>
  </Variables>
  <Spectators NSpec="0"/>
  <Classes NClass="2">
    <Class Name="Background" Index="0"/>
    <Class Name="Signal" Index="1"/>
  </Classes>
  <Transformations NTransformations="1">
    <Transform Name="Normalize">
      <Selection>
        <Input NInputs="5">
          <Input Type="Variable" Label="Red" Expression="Red"/>
          <Input Type="Variable" Label="Green" Expression="Green"/>
          <Input Type="Variable" Label="Blue" Expression="Blue"/>
          <Input Type="Variable" Label="GreenOverRed" Expression="GreenOverRed"/>
          <Input Type="Variable" Label="BlueOverRed" Expression="BlueOverRed"/>
        </Input>
        <Output NOutputs="5">
          <Output Type="Variable" Label="Red" Expression="Red"/>
          <Output Type="Variable" Label="Green" Expression="Green"/>
          <Output Type="Variable" Label="Blue" Expression="Blue"/>
          <Output Type="Variable" Label="GreenOverRed" Expression="GreenOverRed"/>
          <Output Type="Variable" Label="BlueOverRed" Expression="BlueOverRed"/>
        </Output>
      </Selection>
      <Class ClassIndex="0">
        <Ranges>
          <Range Index="0" Min="0.0000000000000000e+00" Max="2.5500000000000000e+02"/>
          <Range Index="1" Min="0.0000000000000000e+00" Max="2.5500000000000000e+02"/>
          <Range Index="2" Min="0.0000000000000000e+00" Max="2.5500000000000000e+02"/>
          <Range Index="3" Min="0.0000000000000000e+00" Max="3.1000000000000000e+01"/>
          <Range Index="4" Min="0.0000000000000000e+00" Max="5.9000000000000000e+01"/>
        </Ranges>
      </Class>
      <Class ClassIndex="1">
        <Ranges>
          <Range Index="0" Min="0.0000000000000000e+00" Max="2.5500000000000000e+02"/>
          <Range Index="1" Min="0.0000000000000000e+00" Max="2.5500000000000000e+02"/>
          <Range Index="2" Min="0.0000000000000000e+00" Max="2.5500000000000000e+02"/>
          <Range Index="3" Min="0.0000000000000000e+00" Max="4.8000000000000000e+01"/>
          <Range Index="4" Min="0.0000000000000000e+00" Max="6.4000000000000000e+01"/>
        </Ranges>
      </Class>
      <Class ClassIndex="2">
        <Ranges>
          <Range Index="0" Min="0.0000000000000000e+00" Max="2.5500000000000000e+02"/>
          <Range Index="1" Min="0.0000000000000000e+00" Max="2.5500000000000000e+02"/>
          <Range Index="2" Min="0.0000000000000000e+00" Max="2.5500000000000000e+02"/>
          <Range Index="3" Min="0.0000000000000000e+00" Max="4.8000000000000000e+01"/>
          <Range Index="4" Min="0.0000000000000000e+00" Max="6.4000000000000000e+01"/>
        </Ranges>
      </Class>
    </Transform>
  </Transformations>
  <MVAPdfs/>
  <Weights>
    <Layout NLayers="3">
      <Layer Index="0" NNeurons="6">
        <Neuron NSynapses="25">
          -1.2858796326023363e+00 6.4592312367958336e+00 8.3170271197593841e+00 9.0087194997010194e+00 -1.9797329625703168e+00 -4.0115694317453299e+00 -7.6133193633701026e+00 -4.0309409768948878e+00 1.4855593124400424e+00 -2.0862842543850459e+00 3.3637380695928287e-01 1.6963478249664892e+00 -1.2170059911210577e+01 8.2987762526361294e-02 -3.9738732396478040e+00 -4.5293206311289609e+00 -9.3979990246931533e-01 -2.2639440919397273e+00 -5.2849452698291959e+00 1.7487730633110129e+01 1.1229186996798088e+00 -3.1354766946039886e-01 4.7085337809337169e+00 -1.6066635568053471e+01 -1.3419423283238073e+01 
        </Neuron>
        <Neuron NSynapses="25">
          -2.4858981141867687e+01 -1.8241535198218315e+01 -7.3444792451464851e+00 -1.9881576193464980e+01 1.6228199216905615e+01 3.8871810760460743e+00 1.6384476379054711e+01 2.5482446663743559e+01 -1.2454856050235181e+01 8.9107709046946937e-01 -1.1516656287109372e+01 -2.1796282411228646e+01 1.2323493126243541e+01 -8.9203389777919795e-01 8.0558308617853380e-01 1.7529038935382577e+01 1.4760939468643191e+00 4.0489684506002064e+00 -8.2923208720636810e-01 -1.6117928629538984e+01 1.0302984910981298e+01 -1.9024876520024150e-01 -6.2138821260517050e+00 2.0236386091928338e+01 3.1331436529240237e+00 
        </Neuron>
        <Neuron NSynapses="25">
          2.9215913319941041e+01 2.2563449226910933e+01 2.4432836457167117e+00 3.0061055165711181e+00 -2.7138780746315991e+01 -3.5893154884492029e+00 -1.3047348595249803e+01 -1.9408569855267572e+01 7.9800744360458404e+00 2.3131317236023805e+00 4.5846614220793214e+00 1.7947612226755989e+01 3.5644784835674215e+00 9.1054039751127447e-01 7.2102771618248145e+00 -7.5514141255976073e+00 1.5006320009912857e+00 1.6162510434192439e+00 5.9430573277048993e+00 -1.1418239551827028e+01 -1.7790561860332414e+01 -7.7750435091543346e-01 9.1590347669471104e+00 1.2774305846666762e+00 8.2910324198509677e+00 
        </Neuron>
        <Neuron NSynapses="25">
          -1.8857319730664471e-01 -5.5570563853701649e-01 5.8888264602222484e-01 5.6772133882817357e+00 -4.2889851062555913e+00 1.9353745239206135e+00 7.1688605128787222e+00 3.0342890241009401e+00 -1.4809939626650961e+00 5.5213774067394161e-01 -2.7079878206433099e+00 1.6836467809567346e+00 -1.7286006389453685e+00 4.8451700009620484e-03 2.2807819403609075e-01 1.4699806352891613e+00 6.2773325969589544e-01 2.4669819719373440e+00 -2.2543288699971082e+00 5.4486164974266771e+00 4.3232140238005519e+00 9.8953592534960400e-01 -1.1955996011749008e-01 -5.5247377971086420e-01 -2.5909061587363578e+00 
        </Neuron>
        <Neuron NSynapses="25">
          -1.1173910681944019e+00 6.0755227908441389e-01 3.5744962156096527e+00 4.2810988935401190e-01 2.6564590926367511e+00 -6.5341761989169556e-01 -3.8576525240651787e+00 1.7185227478059178e-01 2.1615500425311518e-02 1.9559715772131612e+00 4.8412631618450481e+00 3.0681901680160661e-01 -1.6155172372248601e+00 2.4227778737900869e+00 9.7443223289292380e-01 2.2582905526386816e+00 1.3337304958473915e+00 -2.6399654298793968e-01 1.8173467653083781e+00 5.3095757509342736e+00 3.9720587734432109e+00 2.3108393977892105e+00 1.4052848112856620e+00 -2.9508784326125748e-01 3.6114305582531601e+00 
        </Neuron>
        <Neuron NSynapses="25">
          1.6655628747656019e+00 -1.7469109022081011e+00 -2.2193829680659345e+00 -1.6881337352628847e+00 -1.6413744364964789e+01 1.7606462364153425e-01 -6.0405796896688768e-01 -2.1286419207441649e+00 -2.1549798442391519e+00 -2.3089487866054492e+00 -4.2978544637157388e+00 2.3410325675949637e+00 1.0065569226901949e+00 -2.1049232864201768e+00 -2.2653408497562908e+00 1.3706238417262746e+00 -6.5035868834094757e-01 -1.7620675328980056e+00 -9.0976070188293412e-01 -7.8074756485479870e+00 -2.8554648495171273e+00 -2.1826152953530653e+00 -1.7269506502550436e+00 3.3753855499188972e+00 -7.5497038756441848e-01 
        </Neuron>
      </Layer>
      <Layer Index="1" NNeurons="26">
        <Neuron NSynapses="1">
          -8.4123188711387642e-01 
        </Neuron>
        <Neuron NSynapses="1">
          9.7472659070353684e-01 
        </Neuron>
        <Neuron NSynapses="1">
          6.3207505760016691e-01 
        </Neuron>
        <Neuron NSynapses="1">
          -1.1168484236524432e+00 
        </Neuron>
        <Neuron NSynapses="1">
          1.6268725620023132e+00 
        </Neuron>
        <Neuron NSynapses="1">
          9.0169221544392175e-01 
        </Neuron>
        <Neuron NSynapses="1">
          -8.5509230562513860e-01 
        </Neuron>
        <Neuron NSynapses="1">
          -8.7775837181514083e-01 
        </Neuron>
        <Neuron NSynapses="1">
          -1.6896476183123978e+00 
        </Neuron>
        <Neuron NSynapses="1">
          -5.2725520476361809e-01 
        </Neuron>
        <Neuron NSynapses="1">
          1.3891373271692591e+00 
        </Neuron>
        <Neuron NSynapses="1">
          1.8939400862327758e+00 
        </Neuron>
        <Neuron NSynapses="1">
          -1.3460222622502143e+00 
        </Neuron>
        <Neuron NSynapses="1">
          -3.9084532423370832e-01 
        </Neuron>
        <Neuron NSynapses="1">
          -2.3271726943936577e+00 
        </Neuron>
        <Neuron NSynapses="1">
          9.8448977734128240e-01 
        </Neuron>
        <Neuron NSynapses="1">
          1.2487137178797720e+00 
        </Neuron>
        <Neuron NSynapses="1">
          3.7958510764029798e+00 
        </Neuron>
        <Neuron NSynapses="1">
          -1.3246703868390022e+00 
        </Neuron>
        <Neuron NSynapses="1">
          6.6129141725071106e-01 
        </Neuron>
        <Neuron NSynapses="1">
          -1.8261073912616301e+00 
        </Neuron>
        <Neuron NSynapses="1">
          3.1101099706107815e-01 
        </Neuron>
        <Neuron NSynapses="1">
          -1.6395831547024802e+00 
        </Neuron>
        <Neuron NSynapses="1">
          9.6841452031288500e-01 
        </Neuron>
        <Neuron NSynapses="1">
          8.4367555900481539e-01 
        </Neuron>
        <Neuron NSynapses="1">
          8.2309601576417235e-01 
        </Neuron>
      </Layer>
      <Layer Index="2" NNeurons="1">
        <Neuron NSynapses="0"/>
      </Layer>
    </Layout>
  </Weights>
</MethodSetup>
