<?xml version="1.0"?>
<MethodSetup Method="MLP::MLP">
  <GeneralInfo>
    <Info name="TMVA Release" value="4.2.0 [262656]"/>
    <Info name="ROOT Release" value="6.02/08 [393736]"/>
    <Info name="Creator" value="aocampor"/>
    <Info name="Date" value="Sat May  9 23:01:10 2015"/>
    <Info name="Host" value="Linux DaMachine 3.16.0-34-generic #45-Ubuntu SMP Mon Mar 23 17:21:27 UTC 2015 x86_64 x86_64 x86_64 GNU/Linux"/>
    <Info name="Dir" value="/home/aocampor/DiabeticRetinophaty/macros"/>
    <Info name="Training events" value="2000000"/>
    <Info name="TrainingTime" value="1.63272859e+04"/>
    <Info name="AnalysisType" value="Classification"/>
  </GeneralInfo>
  <Options>
    <Option name="NCycles" modified="Yes">500</Option>
    <Option name="HiddenLayers" modified="Yes">N+20</Option>
    <Option name="NeuronType" modified="No">sigmoid</Option>
    <Option name="RandomSeed" modified="No">1</Option>
    <Option name="EstimatorType" modified="No">MSE</Option>
    <Option name="NeuronInputType" modified="No">sum</Option>
    <Option name="V" modified="Yes">False</Option>
    <Option name="VerbosityLevel" modified="No">Default</Option>
    <Option name="VarTransform" modified="Yes">N</Option>
    <Option name="H" modified="Yes">False</Option>
    <Option name="CreateMVAPdfs" modified="No">False</Option>
    <Option name="IgnoreNegWeightsInTraining" modified="No">False</Option>
    <Option name="TrainingMethod" modified="No">BP</Option>
    <Option name="LearningRate" modified="No">2.000000e-02</Option>
    <Option name="DecayRate" modified="No">1.000000e-02</Option>
    <Option name="TestRate" modified="Yes">10</Option>
    <Option name="EpochMonitoring" modified="No">False</Option>
    <Option name="Sampling" modified="No">1.000000e+00</Option>
    <Option name="SamplingEpoch" modified="No">1.000000e+00</Option>
    <Option name="SamplingImportance" modified="No">1.000000e+00</Option>
    <Option name="SamplingTraining" modified="No">True</Option>
    <Option name="SamplingTesting" modified="No">False</Option>
    <Option name="ResetStep" modified="No">50</Option>
    <Option name="Tau" modified="No">3.000000e+00</Option>
    <Option name="BPMode" modified="No">sequential</Option>
    <Option name="BatchSize" modified="No">-1</Option>
    <Option name="ConvergenceImprove" modified="No">1.000000e-30</Option>
    <Option name="ConvergenceTests" modified="No">-1</Option>
    <Option name="UseRegulator" modified="No">False</Option>
    <Option name="UpdateLimit" modified="No">10000</Option>
    <Option name="CalculateErrors" modified="No">False</Option>
    <Option name="WeightRange" modified="No">1.000000e+00</Option>
  </Options>
  <Variables NVar="5">
    <Variable VarIndex="0" Expression="Red" Label="Red" Title="Red" Unit="" Internal="Red" Type="F" Min="0.00000000e+00" Max="2.55000000e+02"/>
    <Variable VarIndex="1" Expression="Green" Label="Green" Title="Green" Unit="" Internal="Green" Type="F" Min="0.00000000e+00" Max="2.55000000e+02"/>
    <Variable VarIndex="2" Expression="Blue" Label="Blue" Title="Blue" Unit="" Internal="Blue" Type="F" Min="0.00000000e+00" Max="2.55000000e+02"/>
    <Variable VarIndex="3" Expression="GreenOverRed" Label="GreenOverRed" Title="GreenOverRed" Unit="" Internal="GreenOverRed" Type="F" Min="0.00000000e+00" Max="4.00000000e+01"/>
    <Variable VarIndex="4" Expression="BlueOverRed" Label="BlueOverRed" Title="BlueOverRed" Unit="" Internal="BlueOverRed" Type="F" Min="0.00000000e+00" Max="5.30000000e+01"/>
  </Variables>
  <Spectators NSpec="0"/>
  <Classes NClass="2">
    <Class Name="Background" Index="0"/>
    <Class Name="Signal" Index="1"/>
  </Classes>
  <Transformations NTransformations="1">
    <Transform Name="Normalize">
      <Selection>
        <Input NInputs="5">
          <Input Type="Variable" Label="Red" Expression="Red"/>
          <Input Type="Variable" Label="Green" Expression="Green"/>
          <Input Type="Variable" Label="Blue" Expression="Blue"/>
          <Input Type="Variable" Label="GreenOverRed" Expression="GreenOverRed"/>
          <Input Type="Variable" Label="BlueOverRed" Expression="BlueOverRed"/>
        </Input>
        <Output NOutputs="5">
          <Output Type="Variable" Label="Red" Expression="Red"/>
          <Output Type="Variable" Label="Green" Expression="Green"/>
          <Output Type="Variable" Label="Blue" Expression="Blue"/>
          <Output Type="Variable" Label="GreenOverRed" Expression="GreenOverRed"/>
          <Output Type="Variable" Label="BlueOverRed" Expression="BlueOverRed"/>
        </Output>
      </Selection>
      <Class ClassIndex="0">
        <Ranges>
          <Range Index="0" Min="0.0000000000000000e+00" Max="2.5500000000000000e+02"/>
          <Range Index="1" Min="0.0000000000000000e+00" Max="2.5500000000000000e+02"/>
          <Range Index="2" Min="0.0000000000000000e+00" Max="2.5500000000000000e+02"/>
          <Range Index="3" Min="0.0000000000000000e+00" Max="3.3000000000000000e+01"/>
          <Range Index="4" Min="0.0000000000000000e+00" Max="4.8000000000000000e+01"/>
        </Ranges>
      </Class>
      <Class ClassIndex="1">
        <Ranges>
          <Range Index="0" Min="0.0000000000000000e+00" Max="2.5500000000000000e+02"/>
          <Range Index="1" Min="0.0000000000000000e+00" Max="2.5500000000000000e+02"/>
          <Range Index="2" Min="0.0000000000000000e+00" Max="2.5500000000000000e+02"/>
          <Range Index="3" Min="0.0000000000000000e+00" Max="4.0000000000000000e+01"/>
          <Range Index="4" Min="0.0000000000000000e+00" Max="5.3000000000000000e+01"/>
        </Ranges>
      </Class>
      <Class ClassIndex="2">
        <Ranges>
          <Range Index="0" Min="0.0000000000000000e+00" Max="2.5500000000000000e+02"/>
          <Range Index="1" Min="0.0000000000000000e+00" Max="2.5500000000000000e+02"/>
          <Range Index="2" Min="0.0000000000000000e+00" Max="2.5500000000000000e+02"/>
          <Range Index="3" Min="0.0000000000000000e+00" Max="4.0000000000000000e+01"/>
          <Range Index="4" Min="0.0000000000000000e+00" Max="5.3000000000000000e+01"/>
        </Ranges>
      </Class>
    </Transform>
  </Transformations>
  <MVAPdfs/>
  <Weights>
    <Layout NLayers="3">
      <Layer Index="0" NNeurons="6">
        <Neuron NSynapses="25">
          -3.7540592068781806e+00 -4.1374710281793208e+00 -8.7209275341241177e-01 1.4305773375503266e+01 -9.9321868197272565e+00 -8.2777273019025122e-01 -5.2969062648206746e+00 8.1959769784462413e+00 -4.4922049782586884e+00 -8.7643354628422951e+00 -4.1532590433673272e-01 -1.9099979793883017e+00 -7.8561118440675086e+00 -3.1427982249831019e+00 -1.1013815943827653e+01 -4.6539028730267315e-02 -3.8311719647134659e+00 2.2788970832651056e+00 -4.8836006969139273e-01 1.6693746076563716e+01 -9.3132638917025492e+00 -5.7770685999674303e+00 -6.0156593157507510e-01 5.0560040841687339e+00 -2.5135382096822241e+00 
        </Neuron>
        <Neuron NSynapses="25">
          -3.5209578285498093e+00 5.7791642445924341e+00 6.4417882883381434e+00 -1.6345285606020607e+01 1.6917779220343363e+01 9.3462670321702113e-01 1.1750321378853029e+01 -6.4005967088606308e+00 -2.0179110099105294e+01 -2.6292770014097538e-01 8.1784903344929094e-01 -2.5931146660206696e+00 2.0074907328661521e+01 -1.0786771866840187e+01 4.4974630591210216e+00 1.4189553520811478e+00 1.0309302581439768e+00 5.1611026808147269e+00 -6.8447686277707387e+00 -1.3546505630372938e+01 -1.8743594665915642e+00 6.6123771059836587e+00 1.2158833386161620e+00 -4.9452836601025822e+00 -8.2352219903554613e-01 
        </Neuron>
        <Neuron NSynapses="25">
          1.7383286965820666e+01 1.5165916724611619e+00 -1.4364723236425656e+01 6.4772563508089291e+00 -8.0905794659889114e+00 -6.0976779648503521e-01 -1.8552944624683903e+01 -1.3501521320633156e+01 2.8714161617197863e+01 8.7438008655497388e+00 -2.6462484165603022e+00 2.5674110526347143e+00 -2.9499495889945839e+00 1.1594769403931405e+01 9.4264282905696355e+00 3.5292254996851841e-01 5.2664842592591050e+00 -1.3058898035089998e+01 1.6213222874978207e+01 -1.3171188564133894e+01 -7.8509706393752623e+00 -8.7040255876078565e-01 8.8544621670538834e+00 1.0934397891580913e+01 4.9478514529146960e+00 
        </Neuron>
        <Neuron NSynapses="25">
          1.1864803055483739e+00 3.2889075601516371e-01 -3.8608801302596346e-01 2.7515552550187476e+00 7.0778175265408647e+00 2.4591329895560894e+00 3.2277518828945504e+00 5.4015521915093867e+00 -1.1506847042187525e+00 -4.9577661510345141e+00 3.1653189445781735e+00 2.8474027179553976e+00 -1.6317651886204516e+00 -1.8739099687507865e+00 2.0144710538354809e+00 1.5339390639457040e+00 8.2023751684666701e-01 5.1777697159901184e+00 -8.3585646524218793e-01 3.2056830493301223e+00 8.0207266174066643e+00 8.5427014611767949e-01 -1.6258761678052345e+00 -2.6734479453640042e-01 9.1173141597058527e-02 
        </Neuron>
        <Neuron NSynapses="25">
          2.0717961118451547e-01 4.5856749010002801e-01 1.1917633564782995e+00 3.4895537462024189e+00 -8.1318773757387086e-01 2.7012932238430531e+00 -2.4978089582508702e+00 5.4828554958767608e+00 -1.9462765173960805e+00 3.0922280649430594e-03 1.2629591005834324e+00 1.4184253535344555e+00 -2.7392877573251306e-01 2.4184511432421449e+00 -5.1252597121392844e-02 3.7347973877254645e+00 7.0456898801289103e-01 1.3738408750586661e+00 1.5303854132986756e+00 4.3039864896772748e+00 2.8628311359425234e+00 7.8126176791758994e-01 -4.6112373523772848e-01 3.3492748638121257e+00 9.9173405647972168e-01 
        </Neuron>
        <Neuron NSynapses="25">
          -1.6829455509336237e+00 -2.3675020187606077e+00 -8.9934861131165196e+00 -2.3058256848384735e+00 6.4717840442888974e+00 -8.9050375716367058e-01 -1.0708756125336359e+01 -4.7487610421599795e+00 2.9050381109087053e-01 -6.9856539990431781e+00 -1.9190863684940216e+00 2.4786866296138876e-01 -2.0535116508363616e+00 -2.6316713732612511e+00 4.1602940195234526e+00 -1.5328636972365847e-01 -1.8641396836434430e+00 -4.0400982331788944e+00 -1.4614000025543123e+00 -6.4078541955680342e+00 -5.4362528121282319e+00 -6.8986825639714400e-01 -6.1531246024870556e-01 -1.7917083136009611e+00 -1.4889473925846255e+00 
        </Neuron>
      </Layer>
      <Layer Index="1" NNeurons="26">
        <Neuron NSynapses="1">
          1.8622669184310046e+00 
        </Neuron>
        <Neuron NSynapses="1">
          -3.4596910443409765e+00 
        </Neuron>
        <Neuron NSynapses="1">
          -6.5192724078333324e+00 
        </Neuron>
        <Neuron NSynapses="1">
          -1.0080443277252065e+00 
        </Neuron>
        <Neuron NSynapses="1">
          8.1182888434264189e-01 
        </Neuron>
        <Neuron NSynapses="1">
          -1.9060542281176647e+00 
        </Neuron>
        <Neuron NSynapses="1">
          3.1988700427566514e+00 
        </Neuron>
        <Neuron NSynapses="1">
          1.3422164556183989e+00 
        </Neuron>
        <Neuron NSynapses="1">
          8.1466027496202098e-01 
        </Neuron>
        <Neuron NSynapses="1">
          -3.3607989347725402e+00 
        </Neuron>
        <Neuron NSynapses="1">
          -1.5988479956948618e+00 
        </Neuron>
        <Neuron NSynapses="1">
          -3.6628125104589966e+00 
        </Neuron>
        <Neuron NSynapses="1">
          -5.0450355480371156e-01 
        </Neuron>
        <Neuron NSynapses="1">
          2.4494734300513517e+00 
        </Neuron>
        <Neuron NSynapses="1">
          -1.0326738881463857e+00 
        </Neuron>
        <Neuron NSynapses="1">
          -1.9061809102477036e+00 
        </Neuron>
        <Neuron NSynapses="1">
          3.4282373042912448e+00 
        </Neuron>
        <Neuron NSynapses="1">
          2.7916205363331050e+00 
        </Neuron>
        <Neuron NSynapses="1">
          -2.2380004608996451e+00 
        </Neuron>
        <Neuron NSynapses="1">
          6.4455497433052000e-01 
        </Neuron>
        <Neuron NSynapses="1">
          -8.6698749142195652e-01 
        </Neuron>
        <Neuron NSynapses="1">
          3.0797315503280354e+00 
        </Neuron>
        <Neuron NSynapses="1">
          4.4532933451654694e-01 
        </Neuron>
        <Neuron NSynapses="1">
          9.9081350753426212e-01 
        </Neuron>
        <Neuron NSynapses="1">
          2.9159446722677429e+00 
        </Neuron>
        <Neuron NSynapses="1">
          1.3141863960678898e-01 
        </Neuron>
      </Layer>
      <Layer Index="2" NNeurons="1">
        <Neuron NSynapses="0"/>
      </Layer>
    </Layout>
  </Weights>
</MethodSetup>
