<?xml version="1.0"?>
<MethodSetup Method="MLP::MLP">
  <GeneralInfo>
    <Info name="TMVA Release" value="4.2.0 [262656]"/>
    <Info name="ROOT Release" value="6.02/08 [393736]"/>
    <Info name="Creator" value="aocampor"/>
    <Info name="Date" value="Sun May 17 23:42:12 2015"/>
    <Info name="Host" value="Linux DaMachine 3.16.0-34-generic #45-Ubuntu SMP Mon Mar 23 17:21:27 UTC 2015 x86_64 x86_64 x86_64 GNU/Linux"/>
    <Info name="Dir" value="/home/aocampor/GIT/Diabetic/train_tree"/>
    <Info name="Training events" value="122908"/>
    <Info name="TrainingTime" value="4.66456761e+02"/>
    <Info name="AnalysisType" value="Classification"/>
  </GeneralInfo>
  <Options>
    <Option name="NCycles" modified="Yes">600</Option>
    <Option name="HiddenLayers" modified="Yes">N+5</Option>
    <Option name="NeuronType" modified="Yes">tanh</Option>
    <Option name="RandomSeed" modified="No">1</Option>
    <Option name="EstimatorType" modified="No">MSE</Option>
    <Option name="NeuronInputType" modified="No">sum</Option>
    <Option name="V" modified="Yes">False</Option>
    <Option name="VerbosityLevel" modified="No">Default</Option>
    <Option name="VarTransform" modified="Yes">N</Option>
    <Option name="H" modified="Yes">True</Option>
    <Option name="CreateMVAPdfs" modified="No">False</Option>
    <Option name="IgnoreNegWeightsInTraining" modified="No">False</Option>
    <Option name="TrainingMethod" modified="No">BP</Option>
    <Option name="LearningRate" modified="No">2.000000e-02</Option>
    <Option name="DecayRate" modified="No">1.000000e-02</Option>
    <Option name="TestRate" modified="Yes">5</Option>
    <Option name="EpochMonitoring" modified="No">False</Option>
    <Option name="Sampling" modified="No">1.000000e+00</Option>
    <Option name="SamplingEpoch" modified="No">1.000000e+00</Option>
    <Option name="SamplingImportance" modified="No">1.000000e+00</Option>
    <Option name="SamplingTraining" modified="No">True</Option>
    <Option name="SamplingTesting" modified="No">False</Option>
    <Option name="ResetStep" modified="No">50</Option>
    <Option name="Tau" modified="No">3.000000e+00</Option>
    <Option name="BPMode" modified="No">sequential</Option>
    <Option name="BatchSize" modified="No">-1</Option>
    <Option name="ConvergenceImprove" modified="No">1.000000e-30</Option>
    <Option name="ConvergenceTests" modified="No">-1</Option>
    <Option name="UseRegulator" modified="Yes">False</Option>
    <Option name="UpdateLimit" modified="No">10000</Option>
    <Option name="CalculateErrors" modified="No">False</Option>
    <Option name="WeightRange" modified="No">1.000000e+00</Option>
  </Options>
  <Variables NVar="6">
    <Variable VarIndex="0" Expression="Red" Label="Red" Title="Red" Unit="" Internal="Red" Type="F" Min="0.00000000e+00" Max="2.55000000e+02"/>
    <Variable VarIndex="1" Expression="Green" Label="Green" Title="Green" Unit="" Internal="Green" Type="F" Min="0.00000000e+00" Max="2.55000000e+02"/>
    <Variable VarIndex="2" Expression="Blue" Label="Blue" Title="Blue" Unit="" Internal="Blue" Type="F" Min="0.00000000e+00" Max="2.12000000e+02"/>
    <Variable VarIndex="3" Expression="Green*Blue/Red" Label="Green*Blue/Red" Title="Green*Blue/Red" Unit="" Internal="Green_T_Blue_D_Red" Type="F" Min="0.00000000e+00" Max="2.12667984e+02"/>
    <Variable VarIndex="4" Expression="(Blue+Green)/Red" Label="(Blue+Green)/Red" Title="(Blue+Green)/Red" Unit="" Internal="_Blue_P_Green__D_Red" Type="F" Min="0.00000000e+00" Max="8.00000000e+00"/>
    <Variable VarIndex="5" Expression="(Blue-Green)/Red" Label="(Blue-Green)/Red" Title="(Blue-Green)/Red" Unit="" Internal="_Blue_M_Green__D_Red" Type="F" Min="-4.00000000e+00" Max="5.00000000e+00"/>
  </Variables>
  <Spectators NSpec="0"/>
  <Classes NClass="2">
    <Class Name="Signal" Index="0"/>
    <Class Name="Background" Index="1"/>
  </Classes>
  <Transformations NTransformations="1">
    <Transform Name="Normalize">
      <Selection>
        <Input NInputs="6">
          <Input Type="Variable" Label="Red" Expression="Red"/>
          <Input Type="Variable" Label="Green" Expression="Green"/>
          <Input Type="Variable" Label="Blue" Expression="Blue"/>
          <Input Type="Variable" Label="Green*Blue/Red" Expression="Green*Blue/Red"/>
          <Input Type="Variable" Label="(Blue+Green)/Red" Expression="(Blue+Green)/Red"/>
          <Input Type="Variable" Label="(Blue-Green)/Red" Expression="(Blue-Green)/Red"/>
        </Input>
        <Output NOutputs="6">
          <Output Type="Variable" Label="Red" Expression="Red"/>
          <Output Type="Variable" Label="Green" Expression="Green"/>
          <Output Type="Variable" Label="Blue" Expression="Blue"/>
          <Output Type="Variable" Label="Green*Blue/Red" Expression="Green*Blue/Red"/>
          <Output Type="Variable" Label="(Blue+Green)/Red" Expression="(Blue+Green)/Red"/>
          <Output Type="Variable" Label="(Blue-Green)/Red" Expression="(Blue-Green)/Red"/>
        </Output>
      </Selection>
      <Class ClassIndex="0">
        <Ranges>
          <Range Index="0" Min="0.0000000000000000e+00" Max="2.5500000000000000e+02"/>
          <Range Index="1" Min="0.0000000000000000e+00" Max="2.4800000000000000e+02"/>
          <Range Index="2" Min="0.0000000000000000e+00" Max="1.6600000000000000e+02"/>
          <Range Index="3" Min="0.0000000000000000e+00" Max="1.6047058105468750e+02"/>
          <Range Index="4" Min="0.0000000000000000e+00" Max="8.0000000000000000e+00"/>
          <Range Index="5" Min="-4.0000000000000000e+00" Max="5.0000000000000000e+00"/>
        </Ranges>
      </Class>
      <Class ClassIndex="1">
        <Ranges>
          <Range Index="0" Min="0.0000000000000000e+00" Max="2.5500000000000000e+02"/>
          <Range Index="1" Min="0.0000000000000000e+00" Max="2.5500000000000000e+02"/>
          <Range Index="2" Min="0.0000000000000000e+00" Max="2.1200000000000000e+02"/>
          <Range Index="3" Min="0.0000000000000000e+00" Max="2.1266798400878906e+02"/>
          <Range Index="4" Min="0.0000000000000000e+00" Max="8.0000000000000000e+00"/>
          <Range Index="5" Min="-1.5000000000000000e+00" Max="5.0000000000000000e+00"/>
        </Ranges>
      </Class>
      <Class ClassIndex="2">
        <Ranges>
          <Range Index="0" Min="0.0000000000000000e+00" Max="2.5500000000000000e+02"/>
          <Range Index="1" Min="0.0000000000000000e+00" Max="2.5500000000000000e+02"/>
          <Range Index="2" Min="0.0000000000000000e+00" Max="2.1200000000000000e+02"/>
          <Range Index="3" Min="0.0000000000000000e+00" Max="2.1266798400878906e+02"/>
          <Range Index="4" Min="0.0000000000000000e+00" Max="8.0000000000000000e+00"/>
          <Range Index="5" Min="-4.0000000000000000e+00" Max="5.0000000000000000e+00"/>
        </Ranges>
      </Class>
    </Transform>
  </Transformations>
  <MVAPdfs/>
  <Weights>
    <Layout NLayers="3">
      <Layer Index="0" NNeurons="7">
        <Neuron NSynapses="11">
          -1.7974395336302216e+00 8.1418002962569114e-01 3.4691874203375835e-02 1.5046714209452057e+00 -1.3128820321949721e+00 -1.8185290608499938e+00 -5.1658772166071394e+00 8.6407879119380127e+00 -8.9712892122170889e+00 -2.8854973728705295e+00 1.3749151928121275e+00 
        </Neuron>
        <Neuron NSynapses="11">
          -1.2156750219490752e+01 -1.8924576747073085e+00 -6.8629027683537314e-01 -3.8429409715416246e-01 1.0838546825785456e+00 -3.0339034261096236e+00 9.8079986461337949e+00 -9.1814203607262357e+00 2.2921237719924907e+01 2.9677481960264895e+00 -2.3587510927937299e+00 
        </Neuron>
        <Neuron NSynapses="11">
          9.9127717565722016e+00 -1.0563222231329570e+00 -2.8586344706892435e+00 -5.5694385810121561e-01 1.2501374729374097e+00 -1.1747116537034135e+00 -4.1887485676180942e+00 1.6635819396977487e+00 -3.9806990695362230e+00 4.2968051137226091e+00 3.9461249171497748e-01 
        </Neuron>
        <Neuron NSynapses="11">
          1.5697028682772480e+00 7.7649258467746805e-03 -2.4556663368121460e-02 -1.2963012193369889e+00 1.7038493446280030e+00 -3.3120373389794233e+00 2.3494069472145180e+00 4.8423794832129223e+00 1.0384378570962358e+00 3.6232062002805385e+00 1.3729397819292910e+00 
        </Neuron>
        <Neuron NSynapses="11">
          -2.9492500035683800e+00 -1.0411423265163198e+00 1.5689366160398379e+00 -1.3056352574235561e+00 -5.1224784428734282e-01 7.0252162194701810e+00 6.5260814149452939e-01 -2.9517290319413685e+00 -5.3588003089943799e+00 4.2679397694817316e-02 -2.8044838677331350e+00 
        </Neuron>
        <Neuron NSynapses="11">
          1.2972096956499708e+00 -1.1258999903912161e+00 -2.5539943046597182e+00 9.1712960742038635e-02 -6.2214453010952797e-01 5.2365197436659017e-01 -1.2336431115173165e+00 3.7352259581203291e+00 -4.1766421399213467e+00 9.7940238527541723e-01 -3.5139534900981595e-01 
        </Neuron>
        <Neuron NSynapses="11">
          3.5679974439619246e+00 -2.3560675037892995e+00 -5.4925135562379956e-01 3.0848571979359898e+00 2.6877574326396099e+00 -3.3306908538188291e+00 5.4943627058155320e+00 -2.4098608301171178e+00 3.6733212378385596e+00 6.8705019721924216e+00 -1.5668745484627817e+00 
        </Neuron>
      </Layer>
      <Layer Index="1" NNeurons="12">
        <Neuron NSynapses="1">
          -6.0384900992075130e-01 
        </Neuron>
        <Neuron NSynapses="1">
          -6.3350839447411567e-01 
        </Neuron>
        <Neuron NSynapses="1">
          4.2329609252406875e-01 
        </Neuron>
        <Neuron NSynapses="1">
          1.6776485872417997e+00 
        </Neuron>
        <Neuron NSynapses="1">
          1.0153625150278280e+00 
        </Neuron>
        <Neuron NSynapses="1">
          8.9257469609897089e-01 
        </Neuron>
        <Neuron NSynapses="1">
          -1.4103378135664706e+00 
        </Neuron>
        <Neuron NSynapses="1">
          -6.5663801499288366e-01 
        </Neuron>
        <Neuron NSynapses="1">
          7.3528968704517317e-01 
        </Neuron>
        <Neuron NSynapses="1">
          -4.8181073375685213e-01 
        </Neuron>
        <Neuron NSynapses="1">
          6.2893780160197754e-01 
        </Neuron>
        <Neuron NSynapses="1">
          -2.8449625688537704e-03 
        </Neuron>
      </Layer>
      <Layer Index="2" NNeurons="1">
        <Neuron NSynapses="0"/>
      </Layer>
    </Layout>
  </Weights>
</MethodSetup>
